<start> 0.01222387 -0.023004787 0.013047942 0.0040121395 -0.03448546 -0.0036856714 0.0067716506 0.004387154 0.039526556 0.035346404 -0.0130267795 -0.050127696 0.0039606523 0.049646776 -0.024808584 0.024792323 0.056852605 0.0032348463 0.011450158 0.0026913667 0.032870192 -0.040628277 -0.028487343 -0.026783582 -0.00960856 -0.03451045 -0.013708738 -0.042114142 -0.0038462267 -0.036582842 -0.03538627 0.035021935 0.04872843 -0.044747077 0.007132523 -0.017329378 0.035105664 -0.009574547 0.028247932 -0.007532548 -0.013157548 0.049746595 -0.029585268 0.019844523 -0.048253868 0.017607423 0.007912667 -0.04260884 -0.038628936 0.029419644 -0.017947383 0.06333245 0.028543694 0.041391335 0.0006444738 -0.016399715 -0.06054965 0.0036085774 -0.010335142 0.031916592 -0.04138365 0.030312594 -0.032099485 -0.04387515 0.015965968 -0.0060541457 -0.016612442 0.0096910745 -0.013561607 0.0025994682 -0.04930411 -0.0072666085 0.028808657 0.040656473 0.018002817 -0.016707584 -0.047713276 -0.0042659068 0.025213461 -0.052076746 -0.0032706554 -0.023719223 0.004811443 -0.027195953 -0.018613564 0.009105931 -0.033527903 0.03362395 0.0170967 0.017140687 0.0028614227 0.045272306 0.028812312 -0.033589985 0.008185102 -0.029843124 0.036714863 0.010444513 0.04307293 0.0271291
<end> -0.004440151 0.045172397 -0.03953848 -0.016119562 -0.01859517 -0.036427844 0.021456826 0.048718598 -0.019381 0.035896096 0.01787125 0.042124916 -0.046858728 0.037282053 0.00032514334 -0.037143063 0.038916994 0.038847987 0.04977187 -0.035635483 0.012187816 0.0120795 0.036793236 -0.029854381 -0.04563408 -0.047512498 -0.030459464 0.008829068 0.042845417 -0.015263867 -0.048244275 0.011267222 -0.023285031 -0.021418167 -0.005223941 0.03479853 0.021780897 -0.019724011 -0.02723707 -0.031682692 -0.0021137707 -0.04163579 0.03162576 -0.0036966912 0.009378146 0.0024722926 0.033979286 -0.031069089 0.002102267 0.045116786 0.005382646 0.049538318 0.03579316 0.014053609 0.011281632 -0.0188272 0.017337952 -0.0024494901 0.0006189123 -0.023600852 -0.049586117 -0.006711185 0.004155826 -0.016307902 -0.026572013 -0.0046497807 -0.035595834 -0.004025709 0.019395981 0.03522327 0.023480926 -0.0108757615 0.04945599 0.0136615075 -0.044738032 0.029663052 0.0015197769 -0.042480838 -0.030131185 -0.011881709 0.04612377 0.019966159 0.010486424 0.002976358 -0.03680569 0.01777089 0.032339584 -0.03948188 0.025846865 -0.0375049 -0.029269231 -0.04799595 -0.0026028864 -0.0036021248 -0.023936737 -0.032704547 0.0058126226 0.023287084 -0.008831751 -0.02734735
एक 0.0031567928 -0.026661271 -0.010954047 -0.016425021 -0.008588411 -0.02251418 -0.019383768 0.06599992 -0.06601027 -0.016248837 -0.013504004 0.07849203 0.016103031 -0.011604564 0.032447957 0.0389317 0.019791368 0.001967806 0.062293213 0.0068630343 -0.031706374 0.04402497 0.02401781 -0.04402933 0.037074495 0.036662973 0.0084562795 -0.053418588 -0.016249051 0.029551739 -0.017926587 -0.0452396 0.045719482 0.036950994 -0.013232428 -0.0301734 -0.021856735 0.042933017 0.06389245 -0.012465042 -0.0042480812 -0.012357813 -0.015816737 0.047458887 -0.07517001 -0.05200413 -0.00040096714 -0.028284576 -0.031622235 0.0059433766 0.049619175 -0.03679473 0.015600989 -0.010064088 -0.019165019 -0.026981845 -0.0040324903 0.08193343 -0.022252593 0.03312241 0.01559324 0.004579445 -0.060679764 0.032196004 0.0078053167 0.06054652 0.026507031 0.05865987 0.06636891 -0.018582784 -0.04735737 -0.015931642 0.024181588 -0.03961598 -0.022219254 -0.053836342 -0.0321476 -0.015623589 -0.022898376 -0.017831217 0.040135335 -0.05420544 -0.023307659 -0.07205366 -0.010179687 0.021004552 0.050087817 0.039034687 0.010814614 -0.021935856 -0.0068986034 0.035293702 0.008765292 0.057691827 -0.032340452 0.05918028 0.0285076 0.021187019 -0.062916055 0.04565375
में 0.07832136 -0.039132323 0.012769733 0.0023579022 -0.074732676 -0.038904916 -0.013358572 -0.0331862 0.00879265 0.013206468 -0.011245851 -0.011635408 -0.10622638 0.06636042 0.038084336 0.0126700355 -0.02575984 -0.10885935 0.04089585 -0.03077512 0.02877061 0.07625437 -0.047104914 -0.024063557 0.009679336 0.041631438 -0.038724896 0.033951078 0.028285252 0.0558917 -0.015662268 0.06090081 -0.011226547 -0.013166469 -0.011420506 0.015292867 -0.039138805 0.03207351 0.014254243 0.025720455 -0.015641516 -0.07591107 -0.0051669637 0.03657768 -0.05243887 -0.036747668 -0.020423532 0.020576192 0.0041150376 0.01835334 0.02799628 0.10638897 -0.03000334 0.037227508 0.06846671 -0.016175946 0.022595959 -0.029076504 0.006674 -0.07490608 -0.09577237 0.028124366 -0.065324895 -0.035098176 -0.011152553 -0.012581212 0.02668719 0.05413373 0.029098112 -0.017157724 -0.06617383 0.04601011 0.008472038 0.056746174 0.06174714 0.018749619 -0.0010970648 -0.026796335 -0.023813993 0.011596079 0.11145806 0.04702985 0.026896376 0.025083711 0.017784363 -0.02502073 0.04124387 0.00956745 0.020372933 0.05346984 0.024240348 0.06248514 -0.015300699 0.00013792292 -0.032658253 0.036791373 0.106658064 0.013890572 0.019601889 0.06272255
वह 0.05674281 -0.017423375 0.04330892 -0.113112114 0.0011644856 -0.11797762 0.118135795 -0.0847409 -0.01907446 -0.08139364 -0.06176678 -0.028835803 -0.038846146 0.005491952 0.046427324 -0.09078005 -0.012469934 0.00696257 -0.040021233 -0.02856409 0.09158474 -0.008664879 0.006932898 0.060406867 0.026182609 -0.020755496 -0.054750092 0.032673858 0.094863914 0.0620574 -0.09907572 0.019405045 0.08266634 0.03890414 -0.025343502 0.037461776 -0.09959843 0.062093347 -0.026766915 -0.041710105 0.0740544 -0.0012218471 -0.02577036 0.06553207 0.12462102 0.056320008 -0.012853591 0.065673955 -0.10832969 -0.04628217 0.029678043 0.0803568 0.098751135 -0.073344834 0.066312775 0.11494167 0.03660466 -0.13439193 0.06700464 -0.008872926 -0.0660274 0.03381572 -0.088668406 -0.07139711 0.13449676 0.108962454 -0.13428552 -0.03078949 0.054423586 0.03033963 -0.08486209 0.031959586 -0.13631794 -0.06054108 0.024765635 0.05999037 -0.11330529 -0.0970404 0.004721319 -0.121457085 -0.043452207 0.048685882 0.092209525 0.12061816 0.031269852 -0.08918871 -0.06709522 -0.117334805 0.02723325 0.056274064 -0.085026585 0.01749857 -0.10357031 -0.048196696 0.0038200892 -0.037282355 0.05902815 0.053776156 0.031788096 0.05782015
था 0.03137533 0.00028761907 -0.04655547 0.013545529 -0.003722269 -0.041127697 0.048525177 0.008032428 -0.04401298 0.07368496 -0.0015441158 -0.037009228 0.045680095 0.0019602524 0.004201347 0.020771611 0.06270581 0.012061444 -0.11094628 0.08411322 0.034073662 -0.023588417 -0.00032456484 0.025396973 -0.025600534 -0.101270385 0.083709374 0.033059254 0.016084451 -0.07968763 -0.072277434 -0.05216054 0.022194937 -0.009284448 -0.08515562 0.10891557 -0.015937574 0.033420295 -0.018278271 -0.11512766 -0.006401867 0.16537018 -0.06065716 -0.021676807 0.06009305 0.08224158 -0.036947362 -0.07740081 -0.04115669 0.14142397 0.0020336353 0.041324478 0.013799885 -0.04381846 -0.08269659 0.089496456 -0.036046654 -0.04083458 -0.026560176 0.15918687 0.039052892 0.0031259959 0.05068562 -0.038498875 0.041227642 -0.003156147 -0.018802797 -0.07775828 0.039312586 0.012271519 0.017104823 0.04504489 -0.027962886 0.072201766 -0.011461612 -0.033349033 -0.03603378 0.048742555 0.041606586 -0.048201416 -0.13128461 -0.09525577 -0.045427583 -0.06141357 -0.023193557 0.025849784 0.0030279628 0.00618356 -0.08054008 0.055928357 0.10795108 0.04607649 0.040133927 -0.14250727 -0.055062592 0.0027040187 0.021099862 0.025921836 -0.055935614 0.049732786
को -0.055251505 0.036690712 -0.019146848 0.045210585 -0.025349112 -0.009475528 -0.0039155055 0.026660062 0.040238325 -0.049002685 0.007648845 0.03970542 -0.025412092 0.045027275 -0.00887742 -0.0134359095 -0.021875847 -0.100981496 0.07897155 -0.05410024 -0.002612552 0.06644644 -0.029947776 -0.04519656 -0.025590263 0.007568151 0.06374108 -0.051937096 0.025864048 0.027819665 -0.044800393 0.030566711 0.05196198 0.07099431 -0.06968895 -0.030529406 -0.005847947 -0.0024147136 0.01861882 0.00013038664 -0.038522586 0.014543521 -0.058876876 0.06591097 -0.013748738 -0.03647597 0.01184286 0.005132509 -0.017064236 0.02215815 0.07460005 -0.027756788 0.010479631 0.004611784 -0.06142302 -0.047855023 0.0007138711 0.05240309 0.016307272 -0.041907948 -0.056569044 0.06140831 -0.055343468 -0.010087504 0.034753658 0.06690254 -0.058649264 0.06626113 0.07620881 0.015932182 0.007069343 0.079683796 0.01806064 0.013378372 -0.00033775193 0.01977805 -0.08965449 -0.02408596 -0.03814253 0.022300487 0.07237336 0.024693465 0.004959989 0.019259997 0.03351312 0.016738381 0.008041407 -0.072930746 -0.01652988 -0.0071406914 0.0019057296 -0.021823883 -0.01770993 -0.011729471 -0.039627843 0.000113133196 -0.040195227 0.004560553 -0.04183103 0.046931196
के 0.040189825 -0.059507042 -0.05704125 -0.016786937 -0.018849209 -0.0005892766 0.0014269059 -0.06340994 -0.005840539 -0.024657983 0.0004650179 -0.068666734 -0.032079667 0.057404097 0.013016584 0.015399806 0.012519899 -0.038764525 -0.01307713 0.0012836179 0.052596293 -0.014441954 -0.049586706 0.014570403 0.06566906 -0.015069008 0.021573367 0.02654015 -0.022452883 0.056288913 -0.016752115 0.04220354 0.021626428 -0.032974232 0.06655357 0.039410133 -0.015904272 -0.030606305 0.027200712 0.040601894 0.05621244 -0.02108189 -0.06407959 -0.00964168 0.022644842 0.017856892 0.010500595 0.026262244 -0.007248771 -0.019724282 0.042744655 0.07952205 0.04220024 0.009878265 -0.010533594 0.02558334 -0.015607412 -0.042556982 -0.018104596 -0.018709982 -0.015554237 0.06683193 -0.08016968 0.038566556 0.05063859 -0.007437015 -0.04810999 -0.072276644 0.007717466 0.08369151 0.016199805 -0.0015476596 0.004869112 0.042136703 0.06776773 0.062221963 -0.042282548 0.02965852 -0.008367119 0.0006274811 0.062874176 -0.00078914006 0.10063073 0.03261466 0.05533646 -0.06522324 0.032005902 -0.008981716 -0.0029573585 0.03240636 -0.01503102 0.04285083 0.02588643 0.026459603 -0.054157007 0.006419446 0.073829144 0.07533332 -0.04658112 0.047116674
, -0.0334605 -0.022430627 0.06051114 -0.037811596 0.016030429 -0.03882397 0.015651243 -0.016629849 -0.014309778 -0.005088794 0.0816315 0.00097443594 0.07947271 0.0028828224 -0.03394029 0.025043426 0.046493087 0.06482268 -0.00049240445 0.027128331 0.019392231 -0.026095793 0.018777909 0.012877365 -0.041727617 -0.047471672 -0.03176963 0.053339846 0.050205257 -0.035415426 0.0052597057 0.018126788 -0.029087784 -0.06236035 -0.06984587 0.021009684 0.03693889 0.028507978 -0.038644064 -0.06332598 -0.0118372915 0.036379732 0.026321262 0.009950057 0.0387486 0.028985457 0.012970196 0.012655246 0.020383853 0.028900882 -0.043471903 0.04794223 0.0024299184 -0.033811495 0.022013856 0.06630725 -0.012992765 -0.029783357 0.047065735 -0.0074939863 0.026643306 -0.0019432238 0.017644629 -0.018323282 -0.0037313316 0.029331265 -0.030699376 -0.004842359 -0.007537547 0.021167457 0.0410826 -0.05618738 0.011206926 0.027301779 -0.050054085 -0.037783854 -0.031335447 0.04236524 0.07045287 -0.01797458 -0.08149623 0.04379472 -0.008252266 -0.04682447 -0.041208822 -0.058582917 -0.01876948 -0.014993193 -0.05933206 -0.011728195 -0.03307265 -0.06977265 -0.024906954 -0.0012210951 -0.07351734 -0.02584943 0.010124269 0.032560304 -0.05177145 -0.043012768
और -0.042474836 0.06758896 0.026082408 -0.0001331798 -0.04532478 -0.014486223 0.02671677 -0.02818617 -0.047696568 0.024617763 0.039018236 -0.03847274 0.036775112 -0.022850212 -0.10072236 -0.020766078 0.07954035 0.012874663 -0.06635299 0.01668985 -0.0075253774 -0.030679421 0.02078379 -0.08129585 0.021782417 -0.04978668 0.08532049 0.044952307 -0.012902494 -0.00512069 -0.04631282 0.02364776 -0.032541376 -0.07947508 -0.06354824 0.038240653 0.06794892 -0.0012419535 -0.081163906 -0.055656563 -0.01767749 0.049824778 -0.010570858 -0.08797389 -0.06378937 0.12268597 -0.09805435 -0.06800429 -0.014990996 0.16363999 -0.0043541053 0.11221346 0.021103453 0.07747066 0.00075408805 0.015031197 -0.09722136 -0.012380919 -0.03646136 0.03205104 -0.019525982 -0.028838107 -0.04179384 0.009990858 0.0115281185 0.015491938 0.027328877 0.010820244 0.01086247 0.022190813 0.0779964 0.010022895 0.057410195 0.074576795 0.047031485 -0.047416702 -0.041783635 0.038277715 0.037449397 0.01777849 -0.0021474117 -0.05028883 -0.009268719 -0.07266163 -0.021129368 0.07634074 0.011014425 -0.0069923955 -0.05202118 0.024239779 -0.012557164 -0.055008832 0.03385598 -0.08866943 -0.035454504 -0.13015357 0.031275634 0.063991316 0.029083803 0.032375127
की 0.012716913 -0.05340989 0.039074942 -0.018200276 -0.04688283 -0.06295803 0.041435476 -0.046970807 -0.02971391 -0.011947584 -0.020384094 -0.07901701 -0.022593735 0.07173868 -0.04529846 -0.03428216 -0.050593812 -0.09481132 -0.041178867 0.011691984 0.059303198 0.060552966 -0.03874084 -0.02327171 0.060368456 -0.08165255 0.0039716125 0.014056177 0.051737722 0.06888872 -0.0036466809 -0.002577792 -0.0003296797 -0.002494227 0.04380917 0.06660443 -0.046575826 0.034419466 0.047691584 -0.007012351 0.06117286 -0.031541634 -0.0727873 -0.038496584 -0.019298146 0.02608692 -0.0110338805 0.035522457 -0.05288791 0.0029377593 -0.03196801 0.09064208 0.04398065 0.06122681 0.04575045 0.0020321717 0.007742416 -0.08257028 -0.03293893 -0.077018686 -0.047831934 0.008017491 -0.07044271 -0.04361046 0.020100763 -0.015865471 -0.065504186 0.014733211 0.089143574 0.014762066 0.020745283 0.09877938 -0.06355322 0.022047676 0.0045271916 0.07859452 -0.077519424 -0.078550994 -0.026241133 -0.048003353 0.04055125 0.017008109 0.05296439 0.036415573 0.03224823 -0.008324979 -0.029406883 -0.037826378 -0.02520227 0.038638484 -0.044929337 0.088581555 -0.035762977 0.0018154031 0.03942923 -0.038888298 0.08019286 0.016870948 -0.03777515 0.0064340117
पर 0.076731704 -0.0046181935 -0.013130985 -0.03688381 -0.029862046 -0.0028289666 0.03601014 0.03780816 -0.00990352 0.059998445 0.046621263 -0.021678168 0.07803807 -0.013109364 -0.056366507 0.07099201 0.034449693 0.030278808 -0.08963278 -0.011635803 0.05075697 -0.04768678 -0.009463774 0.01625354 -0.017515533 -0.09835773 0.044664264 0.014496567 0.080185205 -0.056691047 -0.11324886 0.020140214 0.02688825 -0.011127524 -0.06450583 0.09186735 -0.06639213 -0.03801898 -0.041255016 -0.03330457 0.000286011 0.12139293 -0.027302671 -0.007775422 0.029569363 0.065242134 -0.026255146 -0.056293942 -0.09032409 0.13877329 0.0066484567 0.06723308 0.019055266 0.019075915 -0.0235004 0.09505372 -0.017102158 -0.054208353 -0.011637281 0.12735505 -0.006977802 -0.02155581 -0.049309824 -0.04895729 -0.015066505 -0.022783246 0.006960399 -0.039721265 0.006556098 0.0153227905 -0.048429962 -0.01064649 0.01963905 0.008745611 0.052259803 0.0075573237 -0.049337335 0.03873691 -0.012477073 -0.048578855 -0.09573633 -0.080055535 -0.029984292 -0.05222149 -0.0015914078 -0.029636137 0.042876076 0.01949819 0.0021641613 0.0050292565 0.08635832 -0.03281681 0.027676022 -0.117934726 -0.08405395 -0.018010208 -0.028585471 0.05443511 -0.06416244 0.051445913
से 0.06926567 0.04892745 0.0064075585 -0.006122984 -0.070328295 0.012967437 -0.022074774 -0.008294198 0.0014506362 -0.056606155 0.03660203 0.07130406 0.0034859108 0.04432696 0.05234898 0.04610672 0.018975276 -0.039004996 0.0016522816 0.024899423 0.06582816 0.06452433 -0.002333786 -0.05723534 0.059197817 -0.05778742 0.0046684006 0.024786083 0.060022797 -0.006673666 -0.06587928 0.027138472 -0.011281277 9.180865e-06 0.0121589 0.045499403 0.022200724 0.03354405 -0.012060013 -0.012894 0.06841883 0.03140968 0.01261561 0.0029241291 -0.045942467 0.050284285 -0.058151096 -0.026433522 -0.03551226 -0.008521623 0.041019384 0.06943609 -0.017202578 -0.031683024 0.07893206 0.03815108 -0.03381275 0.022965962 0.0027719317 0.00725511 -0.06380804 0.046840258 0.0042912583 0.02306026 -0.03156069 -0.018678274 -0.006275482 -0.005963407 0.08298742 0.059160944 -0.061338995 0.028303592 0.026701365 -0.056249574 -0.00084212236 -0.024348268 -0.10250176 -0.07457188 0.040724587 -0.0020341594 -0.008559086 -0.017132148 -0.025493259 -0.053828266 0.031829663 -0.015622984 -0.0031539965 -0.017017748 0.015052931 0.054701544 -0.020999903 -0.015582436 0.04339271 -0.02155081 0.01324114 -0.016201138 0.036608003 0.06530026 0.008254486 0.019781914
उसने 0.07784111 0.06842474 0.015734592 -0.0007405815 -0.06522853 -0.010413262 -0.01599786 -0.016362868 -0.012676738 -0.04297822 -0.03668686 -0.028920013 -0.040853795 0.0025987744 -0.04493598 0.08440676 -0.014317048 -0.075924 0.01943203 0.018470429 0.015041169 0.068359554 -0.06717792 -0.099026285 0.05359593 -0.044026397 0.039095767 -0.014750577 0.05206013 0.00027822604 0.0036463207 -0.057051785 -0.018758561 -0.00016412209 -0.0039589317 -0.0062357667 -0.019043991 0.02175606 -0.009075025 -0.015987568 -0.045857124 -0.02220941 -0.0879255 0.0038658194 -0.06574532 0.011845486 -0.040802006 -0.069630966 -0.09541054 0.063508354 0.04331954 0.048618868 -0.048600297 -0.00040475998 0.07458142 0.03438722 0.0001535282 -0.034374528 -0.011989301 0.031366043 -0.06734788 0.042541057 -0.07960667 -0.035518393 0.05910115 0.05063024 -0.058556948 -0.026677696 -0.025188696 0.018599529 -0.008992144 0.1117124 -0.051822536 0.035781458 0.07902362 0.07466223 -0.10083976 -0.049364284 -0.050078467 -0.025643127 0.07704567 0.03047384 0.035778526 0.027100494 0.0052039353 -0.021239132 0.023809956 -0.07531447 -0.040678453 0.026965428 0.02592333 -0.012001738 -0.025058499 -0.0017945232 0.009259672 -0.023654267 0.0077170404 0.04465763 0.016852295 0.06621624
है -0.016745305 -0.013004757 0.10602281 0.0017693186 -0.048057955 -0.02666977 0.0036363276 0.028313462 0.04047188 -0.020693207 0.04240242 -0.026956659 0.02910855 -0.028428534 -0.07385385 -0.04352375 0.019760612 0.030833328 -0.001777466 -0.020976176 -0.03449398 -0.063374005 0.012846391 0.035581943 0.018657345 -0.000177935 -0.0021801977 -0.010662524 0.020402983 0.02544099 -0.024437731 -0.031597514 -0.0077975895 0.009936456 0.0032705232 0.0006245879 -0.01685721 -0.031290308 -0.055772595 -0.091022 -0.0011669741 0.08360281 0.006204924 -0.014250629 0.02407675 0.02908393 -0.009505233 -0.043399535 -0.0175793 0.0054785316 -0.019695327 0.031591002 0.032693263 -0.00093408383 -0.062174752 0.051940072 -0.1071177 -0.058117665 0.0024047962 0.07337492 0.031241668 -0.039079085 0.051532473 -0.005485573 0.024477966 0.019081725 0.012043724 -0.056934 0.013367782 -0.034316212 -0.0040556705 -0.005798523 -0.044193402 0.00801465 -0.011966197 0.024665968 0.041942388 0.048147693 0.05839449 -0.029393587 -0.039938062 0.020534929 0.026016176 0.005384415 0.023996595 0.012243484 -0.039858606 -0.0088280095 -0.054733112 -0.049206927 0.0698311 0.04313002 0.009550829 -0.01054301 -0.04699224 0.01610223 -0.02096808 0.022419775 -0.038735885 -0.043834735
का 0.00017565784 0.031714868 0.020882025 0.048326768 0.027729426 0.016303003 -0.049541194 0.021694519 -0.035643965 0.031146077 0.01627199 0.020391138 0.000619943 -0.008849883 -0.028246978 -0.034054812 0.0053908112 -0.06888324 0.02775142 -0.00097610767 0.037843883 -0.031837624 -0.0099952025 -0.019280393 -0.012412496 0.023949275 0.006518642 -0.04561365 -0.05227313 -0.01614767 0.013230527 -0.03789579 0.007729674 0.040908612 -0.019495226 -0.03456381 0.045217764 -0.045186546 0.05043123 -0.048065204 0.011716601 -0.0538856 -0.0029499584 0.06131678 -0.08333125 -0.003541061 0.019503722 -0.038928308 -0.024409454 0.0111592505 -0.018929688 -0.053911958 -0.033169497 -0.013191372 -0.01994377 0.004616037 -0.058599398 0.02327914 0.0118484255 -0.01947383 -0.026308859 0.0005849071 0.011725373 0.0014576379 -0.056994177 -0.0006279718 0.01699387 -0.03820854 0.08847066 0.009898131 -0.047260985 -0.013822467 0.05290171 0.028843064 -0.04509493 -0.04517587 0.022957666 0.024563694 0.06680054 0.022903971 -0.044170316 -0.06744672 -0.0005058522 -0.021261785 -0.031424373 -0.030643394 0.02604691 0.03785462 0.03610678 -0.023138598 0.03746774 0.044384953 0.032079607 -0.023197342 0.040389936 0.03914032 0.015967064 0.005481499 -0.014251969 -0.019392595
नहीं 0.017417016 0.012025992 -0.016165493 -0.086787544 -0.08204746 0.00016849421 0.107677646 -0.018362833 0.001190378 -0.014253596 -0.030763708 0.06326725 -0.0061776307 0.090212554 0.0068340595 -0.057291124 -0.009313779 0.0109088 0.06867021 -0.030172039 0.004548356 -0.00441389 -0.024085518 0.0048771505 0.0025311331 -0.047360245 -0.01826818 0.05345687 0.037741825 0.07257003 -0.07890545 0.06984955 -7.819486e-05 0.029389843 -0.02605906 0.024793604 -0.04809562 0.009758356 -0.0051421057 -0.049584538 0.06678385 -0.03320937 -0.029451298 -0.034874078 0.014685973 0.005040215 -0.0010472159 0.013721228 -0.080877244 0.08317129 0.06509626 -0.004511564 0.07382075 -0.0113284 0.045177035 0.077938884 0.043212894 -0.06690424 0.037908986 -0.057361297 -0.019728377 0.043304298 -0.044092607 -0.05360071 0.031750135 0.08154637 -0.055903967 0.07578689 0.085592665 0.05466523 -0.0830611 0.05286656 -0.023991246 -0.08176195 0.07756121 0.035397366 -0.13615151 0.013590902 0.004340148 -0.024042316 -0.018129082 0.051476225 0.002576107 0.031208016 0.07024473 0.014847662 -0.017416406 -0.070570536 -0.03352025 0.03369441 -0.058157273 0.02555921 -0.041862935 -0.001844489 -0.03965177 -0.04075137 0.036620293 0.06758974 0.024071638 0.038989432
भी 0.0025712457 -0.05648161 0.014350542 -0.033962928 -0.051038966 0.0072493376 0.05597226 0.0013005455 -0.06530819 -0.0019227377 -0.016785212 -0.054824065 -0.024028273 -0.009717501 -0.027643936 0.0053453906 -0.052468102 -0.06854062 -0.060372088 -0.015816495 -0.011890557 -0.033765912 -0.034695774 -0.058791038 0.02897392 -0.00013694774 0.023171796 0.028505476 0.0016094953 0.069921605 -0.11192647 0.02389155 -0.022641331 -0.0076967385 -0.0065301177 0.010920447 -0.067277186 -0.04726442 -0.02712002 0.053136528 0.07075254 0.033942573 -0.102581486 -0.0034525818 -0.052860882 0.084725 0.046013787 -0.031417705 -0.08224051 0.0938501 -0.04656758 0.049708836 0.029279308 -0.012324508 -0.015997777 0.04308106 0.039821368 -0.08822399 0.0440866 -0.005908111 -0.012366113 0.05084603 -0.11017918 -0.06012942 0.043703955 0.011734305 -0.03451887 0.014158252 -0.02718848 0.08924663 -0.01535091 0.060380697 -0.019834582 0.006744986 0.088365324 0.07067876 -0.08931786 -0.07559796 -0.0015138674 0.00091372186 0.0629515 -0.016304584 0.006704183 0.06863141 -0.024901109 -0.008164215 0.0059186583 -0.05165162 -0.0577213 -0.01885354 0.025333911 -0.033912245 0.067618 -0.021256989 -0.065968186 -0.041440576 0.06359246 0.101460285 -0.046421334 0.12233363
गया -0.0021207775 -0.03563711 0.03530286 0.017198857 -0.023290666 -0.011171318 0.024414284 0.013517803 0.0032778182 0.0146846995 -0.014302273 -0.02503656 -0.006686557 0.02818556 -0.0074588694 -0.015349976 -0.044676512 -0.075740986 -0.07081146 -0.024093073 0.015748514 0.005658027 -0.028586837 -0.008711345 0.07217452 0.056571223 -0.0015333329 0.010776906 -0.03696436 0.03623032 -0.024601322 -0.04152361 0.04684183 0.040866174 0.050464675 -0.04631426 -0.053355716 -0.027845824 -0.058117777 0.004377921 0.006575334 0.0058309264 -0.06255344 -0.015623624 -0.032373082 -0.026342085 0.07056471 0.009970431 0.019359607 -0.012082932 -0.004108941 0.008935969 -0.022542343 0.030312732 0.009323754 -0.025785679 -0.03401386 0.03015085 -0.046417754 -0.053400952 -0.0062484546 0.021687074 0.0139836045 -0.01929739 0.06462859 0.021650242 -0.025589978 0.016372878 -0.031898946 0.018730907 -0.012532419 0.06236617 -0.06338004 -0.005429134 0.04906983 0.06860342 -0.06165122 -0.025506238 -0.037844796 -0.02757033 0.031077629 0.08813156 0.032284733 -0.027310617 -0.034070484 -0.0785146 0.05257591 0.013516991 0.033555795 0.0052698813 0.04503451 0.07086164 -0.01704377 -0.0034452071 0.02747712 -0.026105987 0.088320084 0.07286928 0.02968004 0.034221135
ने 0.044014525 -0.012388661 -0.05776649 0.020643538 -0.041547682 -0.012525027 0.02722075 0.07021659 -0.030350693 -0.018195832 0.01047738 0.03109092 0.021306193 0.030106224 -0.032773025 0.023796614 -0.007067956 0.0086565865 -0.028806597 0.032871295 0.082134575 0.041412946 -0.006031361 -0.044582855 -0.014684218 -0.036631532 0.06910951 0.014705995 0.012508278 -0.015208091 -0.019306881 0.019696042 0.04596584 0.056722943 0.03178193 0.0230691 0.022536056 0.040658727 0.061256282 -0.034617778 0.054789007 -0.035725262 -0.071206264 0.05070549 -0.04605063 -0.03913923 -0.029022899 -0.052450664 -0.021119924 -0.011216278 -0.016941298 0.0546014 0.002224973 0.0034484153 -0.008005215 -0.04035271 -0.028195145 0.010456021 -0.012129525 0.007836977 -0.044717096 0.05630209 -0.07409451 -0.03392844 -0.019899422 0.016732216 -0.012621868 -0.022214197 0.08623603 0.056055397 -0.058565427 0.02300217 -0.020635244 0.050016597 -0.0326162 0.02596016 -0.040443785 0.029397873 -0.004271016 -0.0490316 -0.003826599 -0.010916724 0.018698478 0.031640626 0.013413957 -0.033680014 -0.006582713 0.025077008 0.013692509 0.054160733 0.03244636 0.07437954 0.03147778 -0.0838986 -0.007896332 -0.029626448 0.02859865 0.011356603 -0.046751097 0.07785622
उसे 0.10987726 -0.09911883 -0.0885358 0.016212055 -0.02525552 -0.061740424 0.052347235 -0.010798652 -0.039497014 0.04659287 0.031225625 0.00794805 0.063586794 -0.0123915635 -0.0011726008 0.020788614 -0.023105254 0.079730034 -0.024834303 0.061415594 -0.007240096 -0.09189128 -0.00660827 0.036894754 0.03812046 -0.09813973 -0.03684264 0.09311856 0.03945031 -0.000548964 -0.060253598 0.0074337786 0.03336415 -0.0372747 -0.0022659465 0.01156687 0.010704756 -0.039555386 -0.01575293 0.02987368 0.0025978403 0.03322882 -0.061958328 0.028954832 0.067268215 0.027965905 0.0010326015 -0.0016648866 -0.029294899 0.034758322 -0.022419237 0.0116151385 0.015689312 0.020431582 -0.056717187 0.057625674 -0.027740574 0.015396683 -0.020927614 0.03691981 0.038670935 -0.06029575 -0.06623907 0.016451007 -0.020591242 0.043606386 0.0043917974 -0.07517489 0.028920926 0.041822284 -0.055776298 -0.04134187 -0.010532746 0.028394096 -0.015316335 -0.037581 0.06668168 0.028797042 0.083579406 -0.021835117 -0.07736136 -0.08826145 0.053695653 -0.021547655 0.01633004 -0.03375496 -0.045204677 0.05847878 0.017207755 -0.038565543 0.062012315 0.0038136956 0.06200969 -0.062036756 -0.06651237 -0.05778863 0.016186735 0.088526644 -0.0428938 0.058923356
रहा 0.017966773 -0.00531097 -0.028807782 0.037365615 0.030153412 0.05423888 -0.08483637 0.16718802 -0.01608119 -0.031994805 -0.049914367 -0.00018306625 0.05073206 -0.041805923 0.037712883 0.002351043 -0.0010168201 -0.04287533 0.025094733 -0.035498723 -0.015071415 0.026266346 -0.044744972 0.032910746 0.030176127 0.037139513 0.022126997 -0.14440832 -0.12214045 0.002272542 0.0104328105 -0.017838335 0.02189912 -0.031952135 -0.068807244 0.014964658 -0.030709455 -0.0014523189 0.08033256 -0.05314102 0.0026295674 0.00021613229 -0.016318697 0.006673963 -0.013817687 -0.042360667 0.049213186 0.0005791184 -0.03469909 -0.04125615 0.07117581 -0.08767303 0.007985212 -0.019911788 -0.0756954 -0.07952131 -0.027292525 0.10732355 0.015546087 0.06302287 0.06096233 0.031262424 0.048189424 -0.011551518 -0.04934456 -0.021081388 0.04515521 0.09013703 0.04217896 -0.013327175 -0.04482087 0.024037004 0.00085619953 -0.012464518 -0.09047512 -0.004138169 -0.028584609 0.02891384 0.0150093725 0.009262772 -0.03401137 -0.07403083 -0.105300404 -0.057043348 -0.027990723 0.01283082 -0.022815218 0.047889985 0.036223717 -0.019296007 0.100914665 0.013264588 0.0073128296 0.12786888 0.09114699 0.09433515 -0.08257779 -0.07701611 -0.0343246 -0.0025830443
. 0.03251369 -0.01895512 -0.0492932 -0.051713903 0.056649324 -0.053687293 0.036390707 0.026064647 -0.092755504 0.07828685 0.08518482 0.0061549083 -0.0075928215 -0.063504055 -0.031935625 0.013098798 0.059292186 0.15689035 0.009431894 0.05579884 -0.08253778 -0.07853798 0.107947074 0.025449693 -0.047492646 -0.10510108 -0.008032398 0.102549836 0.04985676 -0.077253655 0.011776189 0.050760332 0.046910495 -0.077774264 -0.026301341 0.08992875 0.08736636 -0.053389363 -0.043284185 0.057548683 0.042751748 0.00238949 0.045146886 0.012762742 0.05145972 0.08918073 -0.09056535 -0.0055521186 -0.011110306 0.06371557 -0.10857477 -0.072921306 0.0742963 0.13113703 -0.030643154 0.043651573 -0.053343795 -0.047695838 0.0058557983 0.02977208 -0.04183837 -0.1144406 -0.019942483 -0.027589077 -0.0012563186 -0.035323966 0.076342195 -0.08701986 -0.100708045 -0.0810495 -0.046672303 -0.011008095 0.02072581 0.108568534 0.062177036 -0.08441751 0.07407519 0.10529878 0.07259074 -0.0101595605 -0.11535861 -0.054211672 0.06733607 -0.042066727 -0.020669 0.020282425 -0.02233439 0.031505045 -0.03733605 -0.0025028745 0.021357525 -0.09532582 0.08010219 -0.037528545 -0.101634115 -0.03542422 -0.03532681 0.03427753 -0.008413643 -0.039732467
: 0.03817933 -0.063417375 -0.03743739 -0.021442957 0.02329441 0.017028106 -0.050202902 0.025468923 -0.037149407 0.042607937 0.013670444 0.027114624 -0.009375095 -0.0611823 -0.0024196769 0.045767594 0.009245213 0.110377654 -0.045477632 -0.012558264 -0.0034827546 -0.06587771 -0.0020500002 -0.02239585 -0.005625166 -0.018025648 0.018309504 -0.016198376 0.048473552 -0.015759273 -0.037468854 0.014469202 -0.00041092056 -0.04280987 -0.04063819 0.07979784 0.044017002 -0.017236 0.05308656 0.015603338 -0.0137781445 0.059572328 -0.0072546797 -0.0072090854 -0.020856809 0.010761144 -0.026921155 -0.059980698 -0.0030072317 -0.027577372 -0.049384143 -1.3403331e-05 0.03513879 0.05031266 -0.022941604 0.006438048 -0.045277935 0.047359418 -0.016618336 0.05864619 -0.013133912 -0.02781079 -0.0007754645 -0.004153789 -0.022032127 -0.044326227 0.054042287 -0.022026932 -0.026065528 -0.038510974 -0.013759143 -0.06313658 0.065479025 0.08439549 0.003026084 -0.015730698 0.105124265 0.047697272 0.036411364 -0.009710785 -0.04753326 -0.040767044 -0.046790045 -0.0081844125 -0.016309923 -0.042138927 0.05522404 0.07360574 -0.029242074 -0.017350825 0.048118323 0.03146829 0.065880135 -0.097503625 0.02372391 -0.08217298 -0.030996872 0.003501998 0.0020355084 0.006889086
जंगल -0.071784236 -0.032070827 -0.07521726 -0.055738043 -0.048158858 0.032882925 -0.0101592345 0.07098639 0.014810523 -0.010496904 -0.037955746 0.041502252 -0.05142018 0.013026461 0.04629883 -0.008475244 -0.05155191 0.048160926 0.11006022 -0.0122266505 0.059022304 0.0010095778 0.015801476 0.028346185 -0.023063947 0.12374303 0.02420921 0.035832755 -0.059326094 -0.010927231 -0.0010242154 -0.007893031 0.027220074 0.0055807424 0.112301536 -0.0852401 -0.06269953 0.012981569 0.05813312 0.06957208 0.054406762 -0.050254516 0.019237269 0.053498756 0.016623769 -0.014600199 0.003011339 0.029177098 0.020589564 -0.050589208 0.021342525 -0.07937369 0.019983169 0.037815046 -0.017486649 -0.056706678 0.09314376 0.02768724 0.0059340824 -0.05239974 -0.06490757 0.025386956 -0.017055856 -0.03466148 -0.02635182 0.060809035 -0.030598093 -0.026948506 0.036788914 0.059775226 -0.056191105 -0.039783053 0.041681807 -0.09122867 -0.014150474 -0.025856394 0.014451584 -0.03995898 -0.022733578 0.025080008 0.0025610782 -0.007682502 -0.035722893 -0.012497665 -0.012021178 0.01160857 -0.034463506 -0.040416602 0.10306253 0.001659377 -0.05414826 -0.03551151 -0.02600184 0.054786555 0.05850772 0.07600309 -0.014475573 -0.04101753 0.080892175 -0.024800105
थे 0.0003719423 0.05722722 0.019981926 0.040577345 0.06601526 -0.031897254 0.049806222 0.052989688 0.02739019 0.0441547 0.05991761 0.008385677 -0.013648284 -0.058830902 0.018621938 0.053242117 -0.029640796 0.005109869 0.006023872 0.006162695 0.035284996 0.0011262799 0.05580159 0.051097143 0.03438084 -0.02749237 0.02321698 -0.009814288 0.07214297 -0.0052457815 -0.031766552 -0.04636858 0.06939328 0.0020379103 -0.08330483 -0.019226484 0.040362567 -0.0060356166 -0.05386274 -0.09057326 0.008977958 0.0038107545 0.0043662237 -0.02836023 0.002714998 0.0489392 -0.015534911 -0.058619354 -0.039268956 -0.020367786 0.028003043 -0.04420328 0.011288519 -0.06221867 -0.03458665 0.06054576 0.004267188 -0.01064295 -0.0047546728 0.033957023 -0.0037526775 0.01970581 -0.009880077 -0.0057558375 -0.024419269 0.04114927 -0.03669922 0.0044581355 0.05412748 -0.015720963 -0.047184903 0.044271 -0.050087206 -0.0022935113 0.04022204 -0.00076911825 -0.03175208 0.008355334 -0.015766826 0.006937128 -0.073761486 -0.024630409 -0.06599577 -0.0012212236 -0.044332553 -0.010023054 0.010514753 -0.01842743 0.04474624 -0.008173679 -0.0628829 -0.037601188 -0.00017003543 0.037222527 0.0014066112 0.056013267 -0.018022606 0.0045024296 0.009192896 0.03150081
ही -0.058283363 0.034428377 -0.072644934 0.015167117 -0.032821637 0.07298832 -0.0069794264 0.06470373 0.038167246 -0.026537081 -0.09431113 0.006642286 -0.08860927 0.0091630295 0.05003604 0.011558618 -0.027841777 0.016820807 0.11575364 -0.021718943 0.025398012 0.008861287 -0.12190167 -0.01329547 -0.023619782 0.13522458 -0.02500944 -0.050098315 -0.043757837 0.04636147 0.059457514 -0.01486016 0.037426013 0.02215125 0.0030898436 -0.10797009 0.013728698 0.005036038 0.11562899 0.056200635 0.022117015 -0.11151059 0.02007211 0.05978274 -0.06992409 -0.037433244 0.09464886 0.06250246 0.0016066319 -0.0686568 0.10772356 -0.011552672 -0.046231907 -0.0010293551 0.0015940482 -0.033794418 0.09829981 0.0903396 0.04092994 -0.103729464 0.0036684128 0.080038965 0.054744847 0.0068810335 -0.06610795 0.017184192 -0.043642655 0.067182064 0.06283328 0.02085884 -0.043403126 -0.028244156 0.0059774 -0.091380455 -0.0355346 -0.02526953 -0.030973746 -0.043775525 0.0083017815 0.061546154 0.03160752 0.0683194 -0.047416452 0.00053383986 0.022235818 0.0012623699 -0.014483373 0.014027324 0.057187192 -0.053451255 -0.007944322 0.06921237 -0.068663985 0.09028443 0.07477336 0.048311647 -0.042700235 0.04781373 0.00068148324 0.0031268543
अपने 0.09965564 -0.11258887 -0.026691997 -0.029909281 -0.024015078 -0.047307845 -0.025706466 -0.11516445 -0.060436375 -0.021786688 0.015269749 -0.067547664 0.07381197 0.071272016 -0.018607344 0.07944489 0.04215452 -0.002344794 -0.15639357 0.08008343 -0.03421208 0.016516324 -0.0037171766 -0.027914315 0.039877582 -0.14735071 0.06556116 0.11702442 0.09837513 -0.021806827 -0.12765221 0.047508784 -0.014158389 -0.07132852 -0.08837953 0.16763635 0.017751724 -0.046892125 -0.094671965 -0.045377396 0.027769681 0.12132177 -0.10179882 -0.08128793 -0.006147519 0.054764 -0.048774708 -0.047099218 -0.036547728 0.13191125 -0.08526779 0.20761856 0.034163475 0.080806494 -0.011709817 0.11392408 -0.12252842 -0.108544394 -0.04846661 0.13176638 0.03102615 0.023903135 -0.078691386 0.03555781 -0.0017748781 -0.053104516 -0.050525464 -0.113708645 0.09268878 0.05606624 0.0051013706 0.05127175 -0.050802745 0.12974454 0.06393265 0.024192562 0.004267803 0.007725419 -0.016195798 -0.059315417 -0.08445931 -0.055969466 0.06524196 -0.033098146 0.052762836 0.001126579 0.017641433 0.041577645 -0.095866635 0.00873646 0.083528474 0.029059753 0.08852989 -0.26064476 -0.13991916 -0.12666321 0.14774422 0.17173032 -0.025970068 0.08061178
बहुत 0.027170679 -0.024568878 -0.092330165 0.05715633 -0.05175152 -0.050311513 -0.021448255 -0.06375119 -0.026812017 -0.06489011 -0.031561695 -0.014355797 -0.033918943 0.10901546 0.014633374 0.019119974 0.023066565 -0.0838749 0.023306917 0.04228014 0.03279366 0.024018342 -0.13370617 0.030212618 0.09141601 0.101837486 -0.010226088 -0.024554063 -0.027530493 0.07510825 0.053513154 0.0018037729 0.0525763 -0.0059314473 0.07155254 0.044205133 0.0023812172 0.0004791034 0.009531851 0.06453777 0.039940134 -0.013801074 0.016752314 0.041426294 -0.0027263947 0.021737166 0.05740635 -0.00034963278 0.038914744 -0.0418599 0.029470949 0.008792706 0.037829354 -0.030678967 0.021835057 -0.0026677214 0.044538267 -0.023626598 -0.050160836 -0.09744638 0.032550566 0.07143013 0.0052382047 -0.024422092 0.019069213 0.037581764 -0.051297143 0.08213307 0.019707551 -0.014006522 -0.016801922 0.0035141287 0.029052706 -0.09022485 0.03769196 0.0318841 -0.016165756 0.006175436 0.006803193 0.046916917 0.04364508 0.018708397 0.05690096 0.004066363 0.038009387 -0.058046114 -0.048702296 0.03646197 0.0323449 -0.038525507 0.035165474 0.029224074 0.0026895262 0.03329945 -0.026911044 0.044120766 0.021452213 0.018774549 0.020987919 0.012356772
देखा 0.062767304 0.08452278 0.020645898 -0.102445856 -0.07422257 -0.06920904 0.07257876 0.055843327 0.060792856 -0.037919473 -0.034020055 0.045265235 -0.019533155 0.03152796 -0.0027682628 -0.007004288 -0.06091757 -0.042083576 0.07618738 -0.01313422 0.116922624 0.055870496 0.010135257 0.0030423421 -0.008638782 5.5111945e-05 -0.0047102612 0.037518114 0.06081539 0.035956245 -0.058034375 0.054583576 0.08282814 0.06571641 -0.0755947 -0.06302637 -0.04118504 0.04592766 0.0044692415 -0.0054773353 0.0409695 -0.05130488 -0.069116324 0.03528412 0.08919631 0.027997736 0.035809796 -0.034305587 -0.111928836 -0.029787313 0.08355577 -0.0019371196 0.045483347 -0.09834555 0.008955696 -0.023128187 0.057178345 -0.03810389 0.06859428 0.0033155628 0.01370821 0.0688557 -0.029375657 -0.08894425 -0.01555361 0.09060218 -0.036416158 0.06562726 0.032973234 0.021558953 -0.11441355 0.09029414 -0.054427456 -0.07318129 9.2361006e-07 0.050708234 -0.14066233 -0.05525871 -0.08768922 0.0076214625 -0.03711955 -0.036390796 0.0034708793 -0.01300391 0.046488207 0.0736667 -0.04508552 -0.107933134 -0.023252208 0.09648246 -0.03691792 -0.0036403227 0.014350813 -0.00674501 0.032291677 0.06760749 0.0017630169 -0.01516358 0.013363824 0.10277587
मित्र -0.02592914 0.034660134 -0.06326381 0.002146454 -0.013688436 0.0018690209 -0.01114353 0.109898046 0.08321849 -0.087464675 -0.1080906 0.010708127 -0.024912987 -0.005878879 -0.0045679086 -0.037899975 -0.02309905 0.0033294444 0.066555835 -0.08560196 0.053956926 0.05989457 -0.095463246 -0.014287607 0.061843045 0.11606422 -0.05190154 -0.044010736 -0.11921619 0.088646226 0.048124474 0.07572834 0.067792624 0.04278263 0.096543476 -0.1151038 -0.068777874 0.046854157 0.117632866 0.07308807 0.039747626 -0.055293288 0.024929326 0.033189498 -0.050555296 -0.12053281 0.113142155 0.050125506 -0.039273016 -0.024565015 0.12621349 -0.07904691 0.028485937 -0.032755148 -0.03979477 -0.08205349 0.06433427 0.039505914 0.06326702 -0.07669598 0.009467336 0.029079832 -0.019278247 -0.023650045 -0.042432345 0.065041155 -0.025343992 0.041590508 0.043263488 0.001998399 0.0080105085 -0.026177967 -0.021928629 -0.01687416 -0.00060971506 0.056883465 -0.015518448 -0.060978275 -0.02611487 0.06479556 0.025547817 0.01111063 0.016954763 0.008128552 -0.012240946 0.024502741 -0.023140593 -0.078516684 0.021771884 -0.008640225 -0.027831983 -0.011936282 -0.022744818 0.06987293 0.051263 0.07799813 -0.0064618196 0.0038876117 0.03677367 0.01121924
राजा -0.012300329 -0.05939354 0.009749921 0.075747594 -0.010560669 0.0278774 -0.067351915 0.04325081 -0.05283955 -0.008846475 -0.01739229 -0.0383609 -0.034456573 0.07057646 -0.06838132 0.016643764 0.05806397 -0.1012305 -0.042869665 0.03350793 -0.045930717 0.048161402 -0.029551223 -0.019406157 0.0077000894 -0.01083721 0.069697365 -0.09314685 -0.048002735 -0.007956081 -0.019167252 -0.06800358 -0.058088567 -0.043638486 -0.017547308 -0.017291402 -0.044424586 -0.06917819 -0.016425923 -0.027111009 -0.005733225 0.039057553 -0.0017588546 -0.039936475 -0.09365087 -0.021985518 0.009847075 -0.013478721 -0.011637514 0.077791594 0.026677674 0.10714171 -0.064248405 0.07419124 0.02517598 -0.002978978 -0.009294127 0.00068844017 -0.036770806 -0.060227208 0.012750161 0.04541889 0.031033475 0.029974677 0.007847585 0.004912649 -0.018281242 0.04848123 0.043623745 0.043574493 0.027700668 0.043367807 0.039901998 0.062431388 -0.019368432 -0.047377862 0.016234763 -0.03018384 -0.018744113 -0.01626319 -0.008050667 0.00081050873 -0.021913515 -0.06384665 -0.010320478 0.06277632 0.03957975 -0.03611363 -0.05408873 -0.0283982 0.05558846 -0.028910745 0.04862351 -0.02394358 -0.029166022 0.032946512 0.024070093 0.038150392 -0.018673196 0.0121948
कहा -0.0331345 -0.008470537 0.062397677 0.011320765 0.07002564 -0.009248967 0.0112112155 0.020899769 -0.014550919 -0.005201339 0.023624469 -0.09869923 0.04049816 -0.012802161 -0.02716876 0.032349605 -0.040171064 0.049339447 0.025185354 0.016998103 0.046836562 -0.06874981 -0.043192603 0.052263368 -0.02335745 -0.06065588 0.024043776 -0.02827258 0.011851672 -0.028841512 -0.015600994 -0.01022315 0.065832116 -0.030387646 -0.039683003 -0.010823065 -0.05414473 -0.017635994 0.00914717 -0.027153917 -0.014485546 0.008442086 0.023513822 0.01981971 0.0025113537 0.031395588 0.04581788 -0.047857374 -0.014374302 -0.013952442 0.025071 -0.046131693 0.0102976775 -0.019651534 -0.06136291 -0.0060298494 0.029955221 -0.032495394 0.01901384 0.034996983 0.04387611 -0.0056651947 0.036254436 -0.027479278 -0.031539243 -0.019139107 -0.012018957 -0.034883115 -0.052834414 -0.02071341 -0.00824529 0.0140326535 -0.06463679 -0.014211067 -0.016645247 -0.028621435 0.00040382385 -0.034304135 0.017233327 0.032223642 0.017359067 -0.04392732 -0.050710816 0.05669456 -0.02939301 0.009626896 -0.02612511 -0.032928463 0.03287584 -0.053483415 0.047848135 -0.01714596 -0.010805699 0.02691845 -0.042492144 0.032726016 -0.04320848 0.0017286127 -0.031778708 -0.039334405
कि -0.001259829 -0.020788856 -0.050599564 0.02896094 0.0670762 -0.042632375 0.018499756 -0.022184666 -0.03987532 -0.029729052 0.029899897 -0.015254974 -0.0560256 -0.03305061 0.026169658 -0.025373602 -0.057522517 0.062490646 0.037526198 -0.0051348237 0.007907202 -0.018464077 -0.04318958 0.034405503 0.022339705 0.08487451 -0.05898319 0.06551944 0.060669105 0.008708834 0.074195005 -0.015783397 0.03672241 -0.051883686 0.051073086 0.025557466 -0.051451307 0.04333204 0.04550136 0.097360365 0.04689254 -0.041288085 0.030168423 0.03233229 0.06095506 -0.021921093 0.029070187 0.042870924 -0.01784484 -0.08523518 0.033427835 -0.006072238 -0.04482245 0.008722414 -0.0030442807 -0.0044138543 0.045836944 0.0497822 0.0122206025 -0.017242044 -0.028175252 0.0099894265 0.014241164 -0.010994878 0.027597453 0.038823247 0.004430959 0.021739239 0.014277074 -0.0037712702 -0.021083318 -0.062855266 -0.009348305 -0.017183097 0.032183904 -0.05125238 0.012463488 -0.03787987 0.02674352 0.02791711 0.014396761 0.007417048 0.032151576 -0.016807076 0.020995835 -0.06567011 0.0031258964 0.041094575 0.047658782 -0.065120704 -0.011432633 0.04300645 -0.012062672 0.009593706 -0.0005541114 -0.010703687 -0.0008312666 0.006035173 -0.038212433 0.0074829804
तो 0.09108734 -0.021306282 -0.023233688 -0.058397427 0.00094547047 -0.069236666 0.074686974 -0.012758703 0.046485737 -0.048779264 0.056218527 -0.03806626 0.09889795 0.016266016 -0.004515565 0.07188162 -0.008782788 0.07129725 -0.04534278 0.01877253 0.058263298 -0.06662959 -0.03512827 -0.0008050094 0.01244156 -0.09164818 -0.012693288 -0.04226852 0.06507447 -0.04455344 -0.02383499 3.301897e-05 0.049636688 0.08862488 -0.037958402 -0.02309068 -0.08056736 0.022016956 -0.0010423115 -0.057110384 0.005248269 0.077932 -0.03252623 0.05166074 0.086254224 -0.05656446 -0.010273511 0.009573634 -0.021909835 -0.010743658 0.033476867 -0.049694747 0.09674866 -0.09791418 -0.080744416 0.08377831 -0.045533948 -0.02955773 0.03279842 0.090283416 0.04486676 -0.05251913 -0.02107148 -0.09382321 0.017890992 0.027680885 -0.0067874407 -0.094699495 -0.021760913 -0.0061911703 -0.06480067 0.021317171 -0.08669005 -0.028951492 0.016855985 0.075888984 -0.024542792 -0.057323456 0.003121778 -0.08456781 -0.11318153 -0.013896447 0.02380469 0.101010405 0.0062827775 -0.051142547 -0.08346729 -0.032806024 0.026758665 -0.00083881523 0.006533402 0.049707398 -0.03581381 -0.026968157 0.043079853 0.007339213 -0.051652756 -0.06737313 -0.010078985 0.105394036
बार 0.034348503 -4.2425112e-05 -0.0034427198 -0.058741614 -0.055314694 0.0040693143 -0.00463455 0.10108143 0.039292138 0.041649017 -0.005764517 -0.01908469 0.049552605 0.05572868 0.049261905 0.020072425 0.022382108 -0.0975468 0.06531027 -0.0060771494 0.042525023 0.041500427 0.020703962 -0.042778045 0.0126709705 -0.021162162 0.02555093 -0.035023756 -0.036117285 0.036586504 -0.05137088 0.065196484 0.0017413708 0.025771331 -0.040471226 -0.009237595 0.011753326 -0.0018522699 0.013777796 -0.04733607 0.0109450845 0.062627606 -0.054795608 -0.032906868 0.006942254 -0.040441465 0.007336897 -0.0047313054 -0.026743256 0.008748845 0.008548534 0.029898783 0.029317066 -0.019731577 -0.007957661 -0.044063598 0.035268843 0.041503113 0.0008441111 0.07268171 -0.040016484 0.014370699 -0.04996101 -0.014571084 -0.0015978857 -0.011804094 -0.05466053 0.021158125 0.054742422 0.049777973 -0.011827949 0.10269294 0.030627694 -0.06335241 0.002704598 -0.0050935433 -0.09354351 0.007605503 -0.06690581 0.0016618368 0.053247087 -0.0383981 0.018517008 0.013908938 0.024917802 0.005201402 -0.018239379 0.006649556 -0.03614751 0.06415817 0.053313132 -0.006807913 0.029997908 -0.057540245 0.0582407 0.092015296 -0.0017675086 0.0009716486 0.049798444 0.08269698
पानी -0.016778564 -0.05398735 -0.02474663 -0.00039493688 0.06675856 -0.04063567 -0.052555148 -0.09914012 -0.15320402 0.08283599 0.035022788 0.13216074 0.027589934 -0.030167049 -0.027574299 -0.02849952 0.0057083857 0.04182054 -0.068996675 0.0379756 -0.07278495 -0.0620833 0.12973206 0.06337243 0.010631901 -0.037071567 0.03111765 0.089924365 0.017777046 -0.09927186 -0.03570292 0.028266935 0.011672514 -0.085759155 -0.09368491 0.14526105 0.036197692 0.009172646 -0.017163957 0.019007426 0.023950124 0.049887147 0.03519576 0.010105341 0.054052204 0.057876382 -0.09155483 -0.03443146 0.07407206 0.0033231378 -0.10905064 0.02183326 0.02909964 0.020129588 0.009777924 0.06872115 -0.06520033 -0.06612149 0.042534374 0.10212692 0.05084038 -0.08981816 0.021563042 0.0009907137 0.033004954 -0.045944225 0.0125288945 -0.046549387 -0.012428137 -0.000619032 0.029019374 -0.007867488 0.030611446 0.0958183 0.0044576214 -0.018657343 0.08518168 0.016636964 0.028870236 -0.016607828 -0.08019577 -0.089673765 0.006851692 -0.048502672 -0.070888564 -0.04433358 0.03556167 0.06300217 -0.060449366 -0.011236899 -0.062276818 -0.035646018 0.084912114 -0.14828211 -0.062062502 -0.029991105 0.010657609 0.05651017 -0.048796806 -0.041747894
सभी -0.008743753 -0.12820403 -0.10656876 -0.012266472 -0.05266115 -0.01877743 -0.001468207 -0.04706264 -0.018108143 0.037621845 -0.0031758598 -0.0055502644 -0.042052664 0.026558809 -0.026119044 0.06461398 -0.021275368 -0.09734994 -0.062411904 -0.01242031 -0.011152053 0.032818995 0.011565995 -0.0691766 0.05988066 0.009660149 0.033929896 0.03191317 -0.013885219 -0.014364381 0.007935587 -0.03928863 0.0022133065 -0.041009806 -0.036320727 0.05618371 0.042196028 0.03320241 0.0048121046 0.05377896 -0.0377416 -0.05157817 -0.008483302 -0.057909824 -0.06716784 0.06096142 -0.01754427 0.015370168 -0.02768131 0.090047956 -0.01642536 0.093914464 0.013010928 0.044922654 -0.017423367 0.019299965 -0.03593737 -0.057438366 -0.06389061 -0.056743402 -0.023148052 -0.024908226 0.010426318 0.026625827 -0.01641973 -0.0066617667 0.050779704 -0.01826999 0.01162287 0.033717148 -0.037729625 0.037245505 -0.014546372 0.07094631 0.036324088 0.024231773 0.03628655 -0.019259652 0.016000114 -0.054141764 0.023383643 0.03416104 0.046911664 0.00582656 -0.039699923 0.018873472 0.054057144 -0.012192502 -0.015063404 -0.03448508 0.05172725 0.07172967 0.035839558 -0.07474536 -0.023277996 -0.042669486 0.07281926 0.11947539 -0.052520435 0.019312827
गई 0.043607187 0.047819763 0.044071887 -0.04068305 0.11965269 -0.014408069 0.0676458 0.057841726 -0.04021011 0.077555194 0.058279593 0.022455748 0.10739492 -0.14332128 0.030589344 -0.021782197 -0.015192147 0.1641214 -0.08006649 -0.005722824 0.05487848 -0.135969 0.11842536 0.07204731 -0.046583943 -0.11862872 0.029777007 -0.0077780033 0.12870888 -0.027237771 -0.0058514625 0.027854837 0.048290204 0.063298576 -0.105460934 0.02471471 0.01612726 0.04331765 -0.07194755 -0.018289147 0.020157073 0.13454184 -0.03347188 0.0069772415 0.123352915 0.012118337 0.0021757497 -0.03090355 -0.027972847 -0.023721451 -0.127203 -0.09926165 0.064474486 0.009030081 -0.10705601 0.024355786 0.025068384 -0.08559877 0.07269827 0.1351338 0.06758365 -0.1060648 0.0101211965 -0.031956345 0.06708309 -0.00490942 -0.0063665886 -0.13478202 -0.10990938 0.03185999 -0.033822164 -0.019952357 -0.006807214 -0.022574084 -0.07595978 0.03851311 0.039801534 0.018075202 0.052438598 -0.048252065 -0.109364726 -0.0363536 -0.088023245 0.073507905 -0.042459317 0.0071670804 -0.07846732 -0.05810369 0.0073408787 -0.038513936 -0.041739706 -0.033871897 -0.020714449 -0.083529286 0.02197757 -0.0072557554 -0.12662263 -0.08585596 0.040636573 0.029019028
रहे 0.036873654 0.0105623035 -0.042901587 -0.019172186 -0.044245284 -0.017588465 -0.0057324558 -0.027068919 0.0055638277 -0.006244167 -0.03193762 0.025177686 -0.023247031 -0.0001143331 0.05721692 -0.039027393 0.016360909 -0.12927213 0.0030545183 0.035343964 -0.002346373 0.070928976 0.015303886 -0.0016066859 -0.0034217907 0.032760665 0.026124911 0.018949272 -0.055572227 0.06373542 -0.041780975 -9.7232376e-05 0.038412604 0.050856933 -0.0030077044 -0.0022331066 -0.010428583 0.017915946 -0.012013575 0.033136748 0.03824802 -0.0023568159 -0.082650445 0.027121942 -0.010952724 -0.011491599 0.0030026343 -0.00019255921 -0.06379871 -0.0146503905 0.032678723 0.049416933 -0.01753851 -0.019589547 0.004684951 0.0040555703 0.038532473 -0.024212863 0.0036353327 0.006707473 0.019737152 0.047097735 -0.0441846 0.0038550836 0.033933718 -0.0020358872 -0.055916186 0.0675222 0.08781403 0.028169403 -0.02475787 0.013463537 0.022601454 -0.057660922 0.049564414 -0.005101843 -0.064194575 0.0149630355 -0.038499538 -0.026907083 0.012895684 -0.016217306 -0.052518167 -0.011227472 -0.017159604 -0.031488113 -0.027772794 0.014117337 0.028621739 0.036588993 0.011943043 0.03779652 -0.027995382 -0.054800335 -0.0035285 0.036972582 0.024609342 0.113595225 -0.032950617 0.07858215
हैं -0.030898133 0.022968465 -0.014986008 0.03128614 4.6968828e-05 0.0371481 0.02254964 0.07573646 -0.020669643 0.083372556 0.086302206 0.078316644 0.027980981 -0.04429836 -0.004499768 0.009226809 0.044516206 0.035067346 -0.063425325 0.09389242 -0.011567461 -0.04264045 0.039444357 -0.06453538 -0.08105364 0.04238863 0.02991905 0.031569958 -0.006339847 -0.057286013 -0.019422488 -0.048141558 -0.068406105 -0.077530324 -0.07175304 0.055818763 0.058416523 -0.018979732 -0.069373555 -0.018671213 -0.064757474 0.06767718 0.049025405 -0.077730715 0.036896195 0.104817465 -0.050250348 -0.091558315 0.039106674 0.009704531 -0.083813146 0.07458838 -0.005549083 0.010641378 -0.07569618 0.026707973 -0.01859778 0.0288945 -0.0064238934 0.04241669 0.0003240574 -0.05618182 0.03361692 0.017787945 -0.029268002 -0.0147033585 0.015119417 -0.019500649 -0.036578603 -0.036341846 0.021004004 -0.0064476705 0.039276008 0.017592581 -0.094742216 -0.0588584 0.03272925 0.041969474 0.01789449 -0.033629853 -0.0580325 -0.051243797 -0.07506414 -0.044397406 -0.057582602 -0.018296935 -0.017528972 0.02547325 -0.055395104 -0.08237053 0.031019785 -0.05742742 0.022556018 -0.079594485 -0.07425395 -0.05739086 -0.08406341 0.053624645 -0.08782969 -0.03881003
हो 0.08074407 -0.010876771 0.09059953 -0.025384173 0.013793738 0.00444972 0.028587181 0.018304326 0.10244536 -0.04368396 0.029195031 -0.11175384 0.02233797 -0.0032737984 0.008015623 -0.02985856 -0.046695728 0.0712404 -0.0045929262 -0.049049295 0.07697857 0.02766125 -0.0986783 0.038596436 -0.018262358 -0.011768317 -0.050956856 0.0022479321 -0.013281428 0.0039124354 0.053636115 0.065570585 -0.011837136 -0.011394881 0.028972285 -0.015897522 -0.09615666 -0.06295974 -0.033545513 0.026905889 0.066312276 -0.009352909 0.036571845 -0.0002832455 0.05014942 0.021817228 0.03273889 0.02017399 -0.060504086 0.053850956 0.02987802 0.04677034 0.0731783 0.023842523 -0.007134129 0.052240357 -0.0271898 -0.0183201 -0.010251996 -0.015921023 0.024468813 -0.044769004 -0.047747765 0.022106737 0.069882594 -0.023638347 0.013937329 -0.017559135 -0.011107585 0.028836468 -0.01692026 -0.03826691 -0.006980893 -0.009257455 0.04207758 0.083193846 -0.035377037 0.00054055714 -0.025258586 0.011532294 0.029665949 0.03179254 0.059357163 0.07055221 0.052207816 -0.04816384 -0.09566825 -0.017051177 0.06862393 0.05161237 -0.0028433166 0.016170142 -0.0763177 0.09036686 0.0049860356 -0.0329573 0.043078974 -0.06446663 -0.009889011 0.021683948
टोपी 0.05770589 0.008149901 0.07139396 0.04822995 -0.086146 -0.03937357 -0.063110165 0.009296477 -0.020831987 -0.019301534 -0.0062509524 -0.025772806 0.017223362 0.0661087 -0.0248935 0.0006980318 0.0005469554 0.015413152 -0.0891182 0.0559262 -0.04099573 -0.029973995 -0.060836818 -0.06300987 0.00855227 -0.07487573 0.0016750138 -0.07143879 0.017770052 0.021746563 0.033769384 -0.026480282 -0.031213373 0.008534764 0.008861043 0.00287727 -0.04154015 -0.03960984 -0.025489047 -0.028890364 0.0002774495 0.015736599 -0.0010112919 -0.003194273 -0.08379083 -0.04108025 -0.03466989 -0.033539176 0.001496393 0.022695577 -0.050358478 0.10682287 -0.056480207 0.002770981 0.040074542 0.041292425 -0.029016355 -0.042091005 -0.07906703 -0.034506798 0.020399014 -0.035920035 0.045931853 0.026415845 -0.02396808 -0.050950006 -0.004732283 -0.015685188 -0.05122487 0.018321056 0.030632848 0.053748306 -0.043818053 0.03579086 0.038506243 0.029119601 -0.0012935484 0.025916887 0.053683333 -0.00074139296 0.045967072 -0.0018224068 0.002112069 -0.029941155 -0.025975881 -0.044492915 -0.014938175 -0.0125215575 -0.058065854 0.03380262 0.11723459 0.031988017 -0.0042157234 -0.039196298 -0.05633661 0.022596389 0.07509426 -0.020464817 -0.026113892 0.03328114
अपनी 0.05100098 0.02841403 0.0014875644 -0.07160903 -0.11445994 -0.10386162 0.122246034 -0.079597026 0.072121054 -0.10027507 0.01680714 -0.14447758 0.012257453 0.0681322 -0.015114292 0.0133544 -0.0077715917 -0.018478004 -0.039417744 -0.031898465 0.031349987 -0.02169697 -0.03976828 -0.033584688 0.011476935 -0.064905904 0.028958611 0.109837934 0.06050956 0.0397839 -0.083952606 0.069896765 -0.028561456 -0.07380572 0.047051493 0.011650679 -0.12019507 0.035291128 -0.0837643 0.005811752 0.092596605 -0.003568694 -0.048912298 -0.004737274 -0.02443035 0.025319198 0.027148334 0.012050773 -0.09516077 0.10700622 0.009081181 0.11498912 0.06636225 0.0686947 0.04297711 0.0599626 -0.016800892 -0.11554085 0.036196385 -0.008839689 -0.109423265 -0.01827112 -0.06662438 -0.0028669978 0.11686167 0.053820007 -0.14086875 0.023101429 -0.008012841 0.045699738 -0.042352263 0.082743585 -0.011248346 0.0768122 0.13674518 0.062114567 -0.087661 0.007494256 -0.022478567 -0.025140058 -0.0018379795 0.006043392 0.060056068 0.031616542 0.120503716 0.0256386 -0.02460413 -0.10059845 0.004876572 0.1415968 -0.097791746 -0.06872827 -0.08571971 -0.06707548 -0.05524255 -0.1102338 0.11081118 0.088926986 0.09069525 -0.0037255716
शेर -0.026018722 0.05928165 -0.026526637 -0.023296932 -0.0023679766 0.00500802 -0.041727386 0.07750987 0.0114038475 0.025224378 -0.027262887 0.015930163 -0.03189447 0.049526744 0.030047962 0.10099714 0.026192646 -0.062981 0.012099049 0.03666511 0.021683538 0.078190506 -0.0838583 -0.0027513925 0.036889236 0.025955683 0.04648638 -0.03725875 -0.05075083 0.06707957 -0.04117495 -0.024309434 0.041998785 0.03746972 -0.044171054 -0.002223112 -0.017994095 -0.04734461 0.021930542 0.00615115 -0.061078057 -0.034485083 -0.072888814 -0.024903702 -0.07523759 -0.03744157 0.048065387 -0.039789356 -0.026725948 0.06770604 0.056674868 0.08356061 -0.014033235 -0.051920924 -0.05592855 -0.048437018 -0.0050030095 0.010056117 -0.072649725 -0.015546757 -0.030788083 0.006067639 -0.024026979 -0.010746957 0.00068715744 0.0393695 -0.05750259 0.07649333 0.09487071 0.06136261 -0.036300693 0.12307069 -0.05399321 0.040432118 0.013719746 0.047258712 -0.042427137 0.033098795 -0.002774254 -0.009044071 -0.025050094 -0.0026825739 -0.06625258 0.0076953755 0.017212784 0.0050165085 -0.027709378 0.002392544 -0.005720932 0.017328281 0.06401338 0.08016422 0.06617194 0.0442589 -0.011820368 0.048650444 0.017366366 0.037533473 -0.08736883 0.13035667
दिन 0.069101475 0.013285193 -0.066238 -0.029156893 -0.016797448 -0.034331724 0.018186763 0.00858692 0.043493334 -0.03509788 -0.09003932 -0.022389138 -0.07422076 0.051651858 -0.0064764144 -0.03610692 -0.056317616 -0.07098945 0.049424425 -0.04876601 0.002996006 0.014113059 -0.04474233 -0.040501706 0.048231445 -0.0017555644 -0.070785604 0.008657841 0.035307884 0.043549396 -0.007973564 0.035297234 0.080985576 -0.022725042 0.0030900438 -0.08493712 0.0063642142 -0.0039410377 0.028767329 -0.017965702 0.044930246 -0.081990436 -0.08795535 0.0016406064 -0.06138435 0.0033730133 0.054021675 0.025693757 -0.023127526 -0.008089174 0.0126207955 -0.025725933 0.03761524 -0.017931007 0.01867185 0.035917975 0.02398005 -0.07608402 0.012910998 -0.062376443 -0.09175868 0.08814297 -0.022315638 -0.00720489 0.017471762 0.054069597 0.024510706 0.042757202 0.03133575 0.07085548 0.010763714 -0.032441176 0.011582555 -0.04886878 0.0348398 0.048643027 -0.07210071 -0.065270506 -0.046652213 0.0073436266 0.072941564 0.009153103 0.08168068 0.053542394 0.07280704 -0.0724936 0.0043820255 0.02026359 -0.0044484464 -0.025044268 0.011380273 0.031567626 -0.045365203 0.050020073 0.020327209 0.070407726 0.096470125 0.03327406 0.03882858 0.052203935
उसकी -0.006269128 0.0043502054 0.02010995 0.011774818 -0.050933152 0.08692637 0.0049718684 -0.016438361 -0.039244838 0.049936328 -0.0054723374 -0.012015228 -0.0095197195 -0.00576452 -0.08555158 -0.00053529587 0.030027077 0.009827412 -0.05386976 -0.005256184 -0.0747828 -0.045028314 0.103598915 -0.09136515 -0.059617803 -0.009269473 0.06446644 0.060114056 -0.028277507 -0.028073698 0.0054240525 0.0066396613 -0.025014656 -0.09467693 -0.0024046851 0.019285267 0.07221996 -0.05695494 0.0026937148 0.03966646 -0.0042222836 0.009084944 0.040306248 -0.10945269 -0.03805563 0.06591671 -0.029556878 -0.030504312 0.038199622 0.045563273 -0.01172516 0.10012787 -0.094256654 0.124842234 0.0034442379 -0.0023888142 -0.027462786 -0.012931619 -0.017952671 -0.01624577 -0.046994686 -0.06744856 -0.01910194 -0.016776199 -0.05917717 -0.06824904 0.06944986 0.0018629658 0.013412973 0.018746529 0.0860852 -0.0411718 0.020036189 0.060477987 0.05803717 -0.086278655 0.03379257 0.05809751 0.06289596 0.026296878 0.034675334 -0.0068383315 0.04976418 -0.018723307 -0.06393318 -0.018421983 0.07869802 0.025803737 -0.03196629 0.018011387 0.038520925 -0.0146222515 -0.008761367 -0.14159597 -0.11935206 -0.078377105 0.09917626 0.14038454 -0.020523982 -0.031493872
कर -0.017727852 0.02556874 -0.01311346 0.026526427 -0.11045843 0.027074609 0.05480158 -0.03069223 0.09037494 -0.052274946 -0.018021347 -0.0132934125 -0.06340742 0.064491384 -0.030078605 0.0051379246 -0.025910307 -0.092817195 0.046573706 -0.047138836 -0.0066471505 0.05785048 -0.11101896 -0.091380574 0.05636943 0.02371361 -0.043727897 -0.04890207 -0.058037683 0.014828155 0.020493787 -0.034420088 0.060465716 -0.01746964 -0.0056114797 -0.07159063 -0.05949728 0.013213839 0.065516 0.025191374 -0.029946296 -0.042938378 0.011369764 -0.021344937 -0.105934024 -0.014197468 0.034755953 -0.011501268 -0.033566594 0.008813908 0.050095785 0.01227032 -0.073753625 0.01880913 0.046895616 0.0013164236 0.01954333 -0.00012454341 -0.056177128 -0.028272111 -0.027081437 0.09743616 -0.02025641 0.010496985 -0.01744007 0.05811373 -6.7219094e-05 0.057650965 -0.0052077724 0.0026105298 -0.056351908 0.066635475 0.017174881 0.030872261 0.07887209 0.033826895 -0.0792839 -0.053956833 0.014248479 0.035762843 0.083866365 0.02881928 -0.034584146 0.025915701 0.036371626 0.040899824 -0.0193409 -0.035889287 0.019437928 0.07551954 -0.007296454 -0.001414 -0.050113775 0.034743577 -0.00018301181 0.05793132 0.121347815 0.0373975 -0.019661833 0.06927145
बंदर 0.06810519 0.04418908 -0.0030934452 -0.009654116 0.043133143 -0.03535859 0.05544263 -0.053929765 0.014913912 0.068509996 0.022650693 0.011493721 0.08932789 0.012307768 -0.019917073 -0.009830423 -0.020902148 0.023380248 -0.04083825 -0.008944049 0.019211175 -0.04837185 -0.009109411 0.042331763 -0.053782992 -0.073913306 0.028788125 0.008811871 0.057979513 -0.06881047 -0.03580715 0.001849943 0.010262178 0.0145861115 -0.038008895 0.031223973 -0.04099555 -0.023931686 -0.056962825 -0.060388956 -0.049045123 0.05293767 -0.056763448 0.011735097 0.0133679435 0.06914434 -0.0070227603 -0.013845922 -0.012486296 0.099700585 -0.068360135 0.08770576 -0.009091444 0.017050432 -0.021219805 0.06595081 0.019207312 -0.048743837 0.015434127 0.12322277 -0.02136789 0.007003503 -0.0024446358 -0.056120828 0.05021568 -0.019128019 -0.04740428 -0.03843488 -0.01553555 -0.024020305 0.026293052 0.066301905 -0.023949346 0.04545867 0.059025303 -0.012958729 -0.0012497852 0.021329504 -0.04799568 -0.032217626 -0.09358697 0.014189986 0.024083689 -0.027970111 -0.01444073 0.01537802 -0.047514245 0.0315757 -0.05513607 0.04072729 -0.05741078 -0.011105579 -0.010178184 -0.07427643 -0.054489613 -0.04136938 -0.017293325 0.020499043 0.016884966 0.046004303
चूहा 0.02762472 -0.07492724 -0.042693857 -0.12524039 -0.11036474 -0.049003873 0.12147129 -0.038416617 0.036344938 -0.01985416 -0.09199955 -0.1024743 -0.1378543 0.07302629 0.037616484 -0.11225648 -0.08708008 0.014210119 0.031307016 -0.024272503 0.07464096 0.051663876 -0.08262169 -0.0019531536 0.08413036 -0.02374978 -0.053000078 0.114569664 0.012849297 0.08678531 -0.06552961 0.15094568 0.0128001915 0.046939433 0.039685436 -0.06107237 -0.087787166 0.106549636 0.0064607006 0.09633337 0.04878295 -0.05368693 -0.042528316 -0.005686614 0.029456813 -0.026042467 0.044433903 0.04164211 -0.11405339 -0.062129874 0.0040788422 0.0041167904 0.01806166 0.08235655 0.13922152 0.048305586 -0.0053138174 -0.132785 -0.0134495 -0.11177092 -0.14793542 0.03756791 -0.098763205 -0.11688037 0.05049148 0.05050411 -0.14282796 0.006517963 0.0465945 0.08411097 -0.065418184 0.026670173 -0.07490396 0.009822922 0.10455826 0.09506976 -0.06325752 -0.056909148 -0.047736436 -0.063658625 0.053018454 0.10590986 0.16903153 0.07717135 0.13001408 -0.106036745 -0.033257872 -0.011746738 0.08239913 0.14275333 -0.058200583 0.012444219 -0.08694347 0.02334473 0.013508048 0.0029540819 0.13106115 0.111203834 0.035168264 -0.008030422
कोई -0.05213613 0.018385584 0.006763057 0.012762789 0.048368093 0.022040404 -0.071913816 0.018265225 -0.03055148 0.03841911 0.005307136 0.06370489 0.04803203 -0.035058547 0.003324167 -0.019387092 0.01932843 -0.014123147 0.014688987 0.05575504 -0.046181105 0.04242685 0.04406846 0.015414657 0.03364592 -0.036451746 -0.01595667 -0.020464363 0.0008304856 -0.02618233 0.02474309 -0.0472286 0.0013399455 -0.03143734 0.032359343 0.0024414924 0.0025038377 -0.0177283 -0.031540997 0.016726164 -0.045311965 0.028220508 0.02409412 -0.027182905 -0.002780366 0.009147085 -0.010028827 -0.0015217384 -0.0035446128 0.02748642 0.02557369 -0.03967932 -0.024197385 0.022484636 -0.03046618 -0.0012256147 -0.027490707 0.05293892 0.03186506 -0.017739164 -0.013350672 -0.0084439805 0.048616964 -0.040045638 0.014532273 0.036521107 0.06334236 -0.04377284 0.03663791 0.051000144 -0.027915357 -0.02593238 0.036824726 0.0072085354 0.014355277 0.031961836 -0.04322372 -0.047435645 0.06719558 0.03166968 -0.025683338 0.03918325 0.03699402 -0.0005592327 0.00418318 -0.02020373 -0.014062688 0.00014702565 0.03783313 6.582562e-05 0.03220066 -0.016887553 0.06766912 -0.045689527 -0.051126923 0.034817748 -0.006941427 0.02580804 -0.031415757 0.053889867
शिक्षा -0.027293622 -0.11006927 -0.07714677 -0.0023174768 0.0099887615 0.059620302 0.010099673 -0.046345137 -0.09410326 0.042653583 0.04459156 0.06359766 -0.04837717 0.001986356 -0.06954619 0.083032854 0.022327151 -0.030255549 -0.06037827 0.06435378 -0.0026063363 -0.038670544 0.0077760895 0.00028955954 -0.006672231 0.04016258 -0.010433149 0.07655178 -0.037980694 -0.03732739 0.043242447 0.0039721318 -0.049100112 -0.0101384595 0.018927928 0.06343353 -0.017925074 0.0035224622 0.0073336666 0.073830016 -0.008339996 0.004191781 -0.015261635 -0.0772505 -0.07638089 -0.0059504756 -0.07396709 -0.009942994 -0.0034413245 0.029458396 -0.010816718 0.11865534 0.0011035834 0.13605049 0.013693799 -0.040470034 0.002603725 0.012385143 -0.055164 -0.020432716 0.00067778135 -0.004530981 -0.02528059 0.032620378 -0.074413605 -0.02819988 0.0051259226 0.04712018 0.008212817 -0.028704897 0.026571402 0.0063770246 0.0495757 0.057225607 0.041308425 -0.004694126 0.012371929 0.06417748 0.031916644 0.011593417 0.057247423 -0.032639477 -0.029515058 -0.028611708 0.027739635 -0.00024010747 0.059089392 0.040079422 -0.0028938733 -0.0471086 0.00391729 -0.004972952 0.07267219 -0.06805755 -0.048526872 -0.084055856 0.006544662 0.17484583 0.019525865 0.016199337
जब 0.07097672 0.06800342 0.06773791 0.0126761515 0.046040263 0.007666017 -0.037549503 0.07283515 -0.05892665 0.022060394 0.06272282 0.036333896 0.041899513 0.026459357 -0.0013384797 0.062420953 -0.032149788 0.012838039 -0.057140637 0.03970583 0.016692106 -0.0028897922 0.055742137 0.05664139 -0.04832487 -0.047184493 0.08607019 -0.07579098 0.069976464 -0.05715473 0.019019045 -0.06460522 0.07194462 0.07282065 -0.011707864 -0.011159174 -0.021852428 0.04249401 -0.042933304 -0.036165316 0.00012540465 0.090916894 -0.01593708 0.04426805 0.05747758 0.017913925 -0.04553429 0.044237714 0.03129676 0.012553592 0.010297429 -0.0405753 0.06450855 -0.08422498 -0.089519866 0.011235594 -0.05559288 -0.014345033 0.06547786 0.12631625 -0.008908842 -0.013772211 -0.023829665 0.04180634 -0.02173171 -0.043138172 -0.009688299 -0.10883965 0.058313493 -0.022110784 -0.080286205 -0.0036121896 0.026871113 0.009672245 0.018530708 0.014724928 0.0013559357 -0.050798792 0.014284642 0.009135899 -0.11817582 -0.027328277 -0.037408233 -0.021712175 0.008463213 -0.009711493 0.03402988 0.018100005 -0.042005938 -0.02702548 0.06414116 0.016210603 0.03471119 -0.031340975 0.0034128071 0.059062693 -0.08823434 -0.025034698 -0.05273927 0.03164616
थी -0.044522505 -0.064747 0.015833953 0.0067205164 -0.035226684 0.003709858 -0.02217453 0.040519837 -0.062962614 0.040476814 -0.002753826 -0.03588132 0.019371288 -0.0330346 -0.04269371 0.006035563 0.034299567 -0.04761378 -0.0021481458 0.046796344 -0.041972943 -0.089720406 0.048138678 -0.04889756 0.025186943 0.056914873 -0.020011388 -0.033977207 0.012888342 0.008746694 0.0015069447 -0.05064225 -0.048970964 -0.047776707 -0.026475966 -0.0026136693 0.030197013 -0.07262253 -0.03041492 0.016799856 -0.005422177 0.045480154 -0.018092217 0.012472785 -0.075995184 0.02405993 0.010114998 0.00013403797 -0.021514865 0.046382263 0.012609904 0.08876981 -0.042434458 0.028094767 -0.029431274 -0.038374536 -0.075401954 -0.0028562646 -0.03617309 -0.01357391 -0.008639681 -0.03360618 0.007164911 0.0051281787 -0.06037578 0.005512689 0.038831312 0.017599741 0.004687849 0.023674253 0.06032384 -0.051864427 0.051885583 0.05517202 -0.045038316 -0.051722232 0.061355367 0.039919887 0.0295884 0.0018501016 -0.0038378385 -0.009742182 0.040077858 -0.042874653 -0.018109309 0.02548086 0.032627385 0.05723349 -0.0010138935 -0.043958534 0.04588214 0.0062249177 0.08357263 -0.07472881 -0.016805084 -0.012105536 0.020406526 0.065324426 -0.08472548 -0.018388843
हुआ 0.034144394 -0.08550629 -0.10414702 0.060577188 -0.022859978 0.02626328 -0.001853633 0.006901822 -0.032872677 0.04448766 -0.027280375 0.0020090623 -0.041756272 0.031638913 0.020516034 0.044629328 -0.0050581144 -0.02891295 -0.032304 0.012938276 -0.0016406744 -0.011509717 -0.050854307 -0.012076957 -0.050342258 0.028064938 -0.0073818313 -0.07717467 0.014686261 -0.019933337 0.026521066 -0.01748886 -0.033538498 0.060761057 -0.04422988 0.008371268 0.03145834 -0.030081434 0.03930801 0.034847263 0.03881977 0.0038648373 -0.05494391 0.040359996 -0.0006077311 0.02548645 -0.041681048 0.020789258 0.05258345 -0.0053448444 -0.01749719 0.012833245 0.02241732 0.018771958 0.044065524 0.0111813685 0.035211936 0.054484215 0.008842369 0.019584669 -0.0026502816 -0.003573334 0.001527232 -0.028315376 0.014020465 -0.043242406 0.032699794 0.004549882 -0.018014787 0.02558602 -0.010259333 -0.011877783 0.044692874 -0.02680757 0.015393471 0.022562727 -0.03734998 -0.050092958 -0.009820727 -0.04954878 0.010310994 -0.043057326 0.030534633 0.009670496 -0.0044320654 -0.010431207 0.021854179 0.03502189 -0.061969187 -0.0383801 0.08647834 -0.03582917 -0.009520619 -0.00022936628 -0.018596059 -0.027313812 -0.03649532 0.012038909 -0.035257652 -0.007962123
दिया 0.098316915 0.016994549 0.01882897 -0.00701621 -0.084032886 -0.023146568 0.11347682 -0.034817807 0.0442135 -0.057251956 0.030718705 0.017975291 -0.024798123 0.06530856 0.07390942 0.016991328 -0.0036016714 0.035882104 0.041168727 -0.022666996 0.050314646 0.00066619116 -0.017107693 0.009835914 0.0018827114 -0.10530822 -0.01977287 -0.018653287 0.05570787 -0.003956423 -0.06283748 0.06898834 0.10134079 0.065405466 0.006590804 -0.025636362 -0.049205557 0.045600753 0.013006584 -0.00026172234 0.030097283 0.031337086 -0.030199423 0.05718036 0.040944595 -0.03085455 0.057498 0.019046111 -0.08378831 0.016985187 0.08060895 0.030747768 0.07795655 -0.0108759785 0.037496988 0.077833734 0.00070245285 -0.047375802 0.081747785 -0.010036368 -0.06590138 0.08502755 -0.033856656 -0.10411283 0.054331884 0.051843517 -0.017267037 0.020328484 -0.022110637 0.09496915 -0.10161326 0.058889404 -0.096487075 -0.013145783 0.07249197 0.10791116 -0.13022257 -0.044948835 0.0009661765 -0.07300089 0.029655587 0.015997885 0.09923934 0.10048335 0.019336607 0.02007697 -0.011733463 -0.103925504 0.010866293 0.060362943 -0.030620996 0.031702507 -0.0393681 0.011037783 0.0075682453 0.059020646 0.063960396 -0.015898868 -0.056982487 0.11119747
वहां 0.016911328 0.06467785 0.05029007 -0.035288233 -0.0087501 -0.013197304 0.05535835 0.03881593 0.035505164 -0.01838584 0.0013408099 -0.030842587 0.0376579 0.05360145 0.059588894 0.08846794 0.02840646 -0.028443756 0.0029852681 0.0207204 0.04218813 0.046995744 0.050814502 0.018285679 0.049767695 -0.027747467 0.10229658 -0.029567622 0.07549201 0.05329143 -0.11606745 0.03291315 0.037094418 0.050402172 -0.046437886 0.03262641 -0.02339939 0.05311941 -0.07792767 -0.07823243 -0.02705988 0.092209905 -0.072619885 -0.039634295 0.05310626 0.017828131 -0.05848735 -0.030487366 -0.11257133 0.023739494 -0.016776929 0.034527022 -0.006175164 -0.10778797 -0.04732644 0.05424084 -0.017666228 -0.032133203 0.036430433 0.1094417 0.039476756 0.0066212993 -0.03257914 -0.061452366 0.071099535 0.054926336 -0.04657647 -0.014459548 0.06616243 0.023312764 -0.062829144 0.08417455 -0.00966342 -0.025425924 -0.004615969 -0.044197362 -0.10138847 -0.043885116 -0.028840322 -0.06995292 -0.042624168 -0.03508173 -0.0064644995 -0.025594747 0.028274823 0.0072465176 -0.039399337 -0.03503127 -0.03216632 0.08687591 -0.016251216 -0.019007742 0.024365734 -0.061295226 -0.048671048 -0.011630375 -0.006601201 0.048504665 -0.024424123 0.12303644
अमन 0.0723974 0.03279389 0.020933453 -0.12335086 0.009099411 -0.08888428 0.077329986 -0.044239134 0.028093997 -0.047423832 -0.058736507 -0.050728522 -0.011997038 -0.03180729 0.018800108 -0.10864504 -0.10509446 0.017748287 0.011260012 -0.04845368 0.094850995 -0.007009673 0.050484795 0.07447602 0.0426007 -0.008311755 -0.103690594 -0.030105192 0.04703166 0.025189614 -0.050267372 0.050405234 0.07941619 0.13980441 -0.02135258 -0.08318025 -0.10813434 0.06473729 0.053500134 -0.042557966 0.054495625 -0.040590543 -0.08528742 0.078648254 0.088543914 -0.02165676 0.08472324 0.072587244 -0.07168753 -0.02443819 0.017677309 -0.025948841 0.1497666 -0.06053933 -0.010137298 0.10270975 0.07688675 -0.026910413 0.11984428 -0.00013585441 -0.004563228 0.064491 -0.081452355 -0.118037455 0.15165234 0.09779127 -0.033777166 -0.026352394 0.0071000764 0.059725102 -0.11936276 0.071718894 -0.08197986 -0.07940799 -0.02694621 0.12776627 0.006030173 -0.08398135 -0.043297336 -0.12180694 -0.07827589 0.007940944 -0.016173868 0.14553331 0.085669376 -0.10998901 -0.07606403 -0.05625984 0.048125252 0.030069117 -0.11515498 0.05815528 -0.12434153 0.026258368 0.009499101 0.063413925 -0.06775461 -0.04183392 -0.006826538 0.08561063
दी 0.083878085 -0.03479458 0.035981186 -0.0674097 -0.014960105 -0.053484764 0.00018428749 -0.05416471 0.022773715 0.02604198 -0.042932138 -0.056623057 -0.022487946 0.048658695 0.0058848793 0.019606683 -0.041130483 0.034056593 0.041806057 -0.047919214 0.03688863 0.0085970545 0.051508352 0.056984004 0.0427473 -0.0411856 0.010589484 0.022145879 0.09234729 0.023208989 0.0035135027 0.027135342 0.083680525 0.051573977 0.024746682 -0.028261714 -0.028204795 -0.020166907 -0.025252853 -0.030397696 -0.014389337 0.01475384 -0.052094955 0.04545633 0.059435748 0.03524259 0.0189923 0.029544203 0.01960617 0.033171166 -0.043093864 0.060914174 0.06352659 -0.034593146 -0.038229473 0.02118993 0.036212083 -0.07859182 0.092547275 -0.028751444 -0.054005772 0.033977248 -0.05665824 -0.032557208 0.009880015 0.016222041 0.015015469 0.0006594142 0.025278036 -0.008840076 -0.022822287 -0.0037689428 -0.011134426 0.044553887 0.07182007 0.017020892 0.02069987 0.0024585924 -0.017186906 -0.07721532 -0.04906472 0.019144882 0.020961925 -0.0117475325 -0.026731487 -0.040303938 -0.04395555 0.0073351106 -0.0019475562 0.004337976 0.0031957133 0.019218618 -0.021307264 -0.03999191 -0.019546589 -0.0016260727 0.0088015385 0.027390104 -0.023876008 0.037695073
इस 0.066293925 0.08131588 0.111627854 0.021861512 0.045629747 -0.0014835894 0.06714694 -0.05151504 0.026156528 -0.0022652643 -0.00067273976 0.0848571 0.01700045 0.06142942 0.060054142 0.042649806 -0.04151273 -0.041131683 0.001680158 0.02273624 0.025259566 0.08440038 0.04171909 -0.03168401 -0.008407761 -0.017121015 0.0027644695 -0.049050573 0.080198094 0.055966765 -0.060876988 -0.012757767 0.017273096 -0.009058085 -0.027462732 0.02100801 -0.056190938 0.028376382 -0.008266947 -0.0007578213 0.015779138 0.005260555 -0.057129536 0.017752858 0.040286273 0.03544698 -0.035207998 0.022562047 -0.053084042 -0.03325043 -0.0066727498 0.0128067415 0.017497992 -0.1089275 0.032108802 0.0070929024 0.08133522 -0.0045480505 0.070153765 0.029514885 -0.012145384 0.047407404 0.00032245714 -0.05350818 0.010387558 0.010795724 -0.0231595 0.0559993 0.0055026617 0.056797914 -0.012117887 0.011656262 0.02333033 -0.06972711 0.029809937 -0.032750595 -0.06770839 -0.062816456 -0.026161326 0.023393255 -0.00134423 -0.00050889346 -0.04563994 -0.02258057 -0.03825014 0.036260866 -0.018630521 -0.035733916 0.00252395 0.02024378 -0.09760349 -0.054212537 -0.06094244 -0.008223841 -0.05584977 0.027805569 -0.0003295756 0.01671443 0.001953979 0.03410419
यह -0.053295143 0.02453182 0.091674134 0.010902613 0.00017111146 -0.0058736596 -0.052402094 0.01523137 0.02798702 0.045438256 -0.024888033 0.021592002 0.038635407 -0.07485815 -0.05418233 0.035791747 -0.040371742 0.057665788 0.017451562 0.022331994 0.008121673 0.0010923166 -0.032933526 0.0038326972 -0.04654419 0.07430153 0.035872173 -0.07737703 -0.0080851205 -0.013726909 0.1191741 -0.054750416 0.0060039843 -0.06888618 0.04143048 -0.016415937 -0.01150087 -0.0869196 0.054066304 0.015760396 0.0013962594 -0.056411505 0.07055678 0.04882501 -0.020944927 0.009729001 0.04320754 0.049897254 0.04741173 -0.04811972 0.008977874 -0.11787594 -0.031143775 0.008513729 -0.02041922 -0.0913969 -0.06149466 0.023321945 0.024719726 -0.044067085 0.009623226 -0.018265735 0.006074643 0.0064730556 -0.023583824 -0.033086013 -0.0144777475 0.008007591 0.014780211 -0.0106139695 -0.020378808 -0.025715187 0.029769912 0.04118801 -0.085615784 -0.031538203 -0.038985573 0.04584593 0.053643093 0.06392851 -0.0023746996 0.019136142 -0.071342416 -0.056064427 -0.032649122 0.020378344 0.00017577341 -0.008767647 -0.022386642 0.001341143 0.006959347 -0.041701734 -0.008231054 0.096471444 -0.049524084 -0.022964237 -0.06961792 -0.041213274 -0.030776598 -0.03271835
जा 0.06483049 -0.03687934 -0.118215576 -0.036131136 -0.06456514 0.0021579405 -0.009836062 0.025265673 -0.026558187 -0.04067963 -0.034707077 0.014421215 -0.0884616 -0.0014477734 0.010706292 0.030423546 -0.056259032 0.020279152 0.07962993 -0.025069239 0.057661206 -0.006805962 -0.015932268 -0.026403598 0.05782652 -0.0037733857 -0.06758066 0.06216226 -0.04859974 -0.01244796 0.020390648 0.06600975 0.029759135 0.034225382 0.04062353 -0.051493477 0.025563035 0.011731511 0.069338605 0.010608187 -0.015364624 -0.103353 0.038944703 0.011565498 -0.043846685 -0.039883357 0.02819675 0.031340804 0.025686322 -0.05880038 0.021834726 -0.067198075 0.01659245 -0.03134943 0.025336133 -0.037567463 0.010801467 0.0043132203 0.03840655 -0.031994767 -0.0807466 0.02088954 -0.0054095443 -0.017315881 0.0029682457 0.005136184 -0.02069514 0.02232024 0.075939745 -0.03794174 6.2517975e-05 -0.041720618 0.03861227 -0.019053336 -0.027169354 -0.0004431602 0.022203403 -0.035036214 0.025089053 0.02546968 0.05260518 0.018027458 0.03307749 0.012827465 -0.0005975743 0.013308447 -0.0131619945 -0.01043315 0.03700062 0.015073471 -0.053582508 -0.044994716 -0.0047563277 0.019783473 -0.0039404277 0.019740878 -0.032560404 0.055562127 -0.035647143 -0.01927811
फिर -0.04948331 -0.07424187 -0.047226205 0.0253615 0.007872562 0.048896298 -0.004558968 -0.0038538666 -0.08886089 0.04594209 -0.033455327 0.034220044 0.019203296 0.028722007 -0.02698189 0.01657706 0.012537976 0.0342198 0.01071689 -0.000490572 -0.05353955 -0.06399826 0.059139688 -0.014783521 -0.02624796 0.078061625 -0.042135037 0.06586749 -0.0018240832 -0.0039142785 -0.006323949 0.0036948244 -0.018020501 0.02053656 0.0050575966 0.0021825747 -0.016045006 0.04449008 0.074830025 0.13733669 0.039427698 -0.0405646 0.005140893 0.018966923 -0.0327718 -0.019717475 0.010626986 0.04293432 0.06317589 -0.095687225 -0.013542028 0.011977309 -0.004493755 0.062391594 -0.0074745743 0.016714906 0.028493337 0.02233803 0.013679812 -0.061252497 0.047784604 0.027302295 -0.035848565 -0.034520164 -0.058665384 -0.053100456 0.03734518 -0.04164312 0.014741331 -0.037197746 0.060795598 -0.050414994 0.0018816334 0.06928825 -0.025201619 -0.002349082 0.10321553 0.063121065 0.00050255517 0.023522494 0.029461838 0.07298929 0.06406708 -0.020323059 -0.0062292903 -0.06302426 0.03590395 0.05105666 0.029996362 -0.089690275 0.0031502973 -0.019150186 -0.043921366 0.046354946 0.028104814 -0.056857284 0.04177675 0.03988937 0.019183088 -0.023290068
हुए 0.014448587 0.03823309 0.014567319 0.021254353 -0.007744267 0.015107404 0.044735804 -0.002830627 0.008585544 -0.0013267722 -0.04030944 0.00060961815 0.038557198 0.020135 0.05295422 -0.020222371 -0.07780582 0.056185383 -0.02902534 -0.06416183 -0.014450471 -0.014228739 -0.053274695 0.070838764 0.03776596 -0.036802884 -0.002794113 0.016153574 0.023721812 0.024543513 0.03481368 0.043653212 0.042183217 0.066482104 -0.03606556 -0.03327051 -0.028058942 -0.009289196 -0.00930674 -0.017868226 0.05933682 -0.045975078 -0.018237669 0.028810935 -0.0034244529 0.02251409 0.039592363 -0.011962972 -0.062269773 -0.0042028693 -0.0049382034 -0.0780248 -0.006077983 0.0017509025 0.016534405 -0.0114543885 0.02894497 -0.041577477 0.026458394 0.013275534 0.023380468 -0.012390371 0.00064182933 -0.012927528 0.025374351 -0.028123047 0.020719068 0.037333347 -0.015783435 0.01737501 -0.031163573 0.057243947 -0.05650935 0.01445295 0.059845492 0.031353883 0.013422345 -0.070957065 0.013492831 0.014346131 0.033764437 0.011660962 -0.03433927 0.016378634 0.019436685 -0.046168935 -0.02463123 -0.0018653095 0.035634425 -0.029663302 0.02377342 0.0013478495 -0.03467392 0.09236738 0.07041831 0.009659375 0.0147835035 0.03436118 0.010949177 0.084876984
लिए 0.076448224 0.031719077 -0.0053554764 -0.030788332 0.04876575 -0.015127176 0.057677105 0.008154271 0.036341194 0.03370221 0.0031698435 -0.013433747 -0.002879256 -0.013940977 0.06835672 -0.00893475 -0.01887017 0.052254025 -0.012098202 0.0052096555 0.0049328012 -0.002242614 -0.033378158 0.012174949 -0.0029388322 -0.117634386 -0.047981255 -0.024162013 0.0568437 -0.0060481527 -0.04614451 -0.019468097 0.029933289 0.026885128 -0.06275734 -0.0021668852 -0.05229375 0.038756102 0.0136986375 -0.082689516 0.03504404 0.04441859 -0.01465 0.066017345 0.07702233 -0.028060775 0.019984428 0.031925917 -0.01311841 0.022521213 0.005036524 0.008442539 0.07120643 -0.07506857 -0.029678527 0.089285485 -0.031152312 0.0052396357 0.024150526 0.06271544 0.028118156 0.03608161 -0.02225793 -0.051493563 0.043257147 0.07202218 0.02554955 -0.13733144 0.023553938 0.07283872 -0.080887154 0.03979564 -0.07123853 0.0069894395 0.017579531 0.04330247 0.001372686 -0.030171033 -0.013688558 -0.056482624 -0.10777741 -0.0067763254 -0.030927915 -0.023395358 -0.0006470128 -0.0065771714 -0.082517356 -0.008031725 0.06563437 0.046492994 -0.0068050255 0.0551593 -0.0036517035 0.0054166787 0.018756595 0.002891121 -0.025584068 -0.0774296 -0.030039944 0.0068551237
खूब -0.02192127 -0.039667737 0.06436535 -0.05180972 -0.11255849 -0.0428396 -0.0073959306 0.019412464 0.042437308 0.050453242 0.051943913 0.0019472162 0.08050122 -0.05063169 -0.0061551207 -0.03244651 -0.01964171 0.06366883 -0.06163856 0.03920908 -0.030206855 -0.009779481 -0.06673707 -0.008367579 0.010929578 -0.08335272 -0.012879327 -0.0071970276 0.04261747 0.014628886 -0.043012157 -0.009828408 -0.00831091 -0.003964137 -0.015879389 0.0028636658 -0.04183242 0.028726593 -0.03731286 -0.17258027 -0.037281707 0.094346374 0.03361725 0.023715746 -0.006316404 0.04332575 -0.052814666 -0.071645 -0.038556155 0.13836044 -0.06976607 0.011118143 -0.0001143064 0.026254121 -0.0066416557 -0.04006242 -0.010589489 -0.02281821 0.010342193 0.17780463 0.042916667 -0.011818789 0.035603944 -0.032002047 -0.005790609 0.03571517 0.008975395 0.0036904693 -0.06297903 -0.017157612 -0.021757407 0.008473281 -0.023736728 0.034179498 0.052715387 -0.024626745 0.0039373906 0.02849305 -0.034077395 0.034942728 -0.07257898 -0.079983555 0.0056159287 0.03415068 -0.012323898 0.016829561 0.011817194 -0.052003093 -0.052428253 -0.026308468 0.0019292057 -0.026581233 -0.04574812 -0.014876845 0.014038456 -0.031058423 -0.0020300506 -0.07851425 -0.026566897 0.0475662
उन्होंने -0.075328626 0.04508065 0.031688254 0.026643047 0.059665337 0.03082773 -0.11048295 -0.03251727 -0.07292657 0.11493224 0.10279686 0.08970809 0.029195214 -0.06785337 -0.11567526 0.032321867 0.00667999 -0.08833653 -0.03964103 0.066819936 -0.051202968 -0.07187492 0.04951044 -0.040445194 -0.04640395 0.071298614 0.037025206 -0.06771013 -0.057886288 -0.090746425 0.10941001 -0.09745362 -0.08796859 -0.061959624 -0.06621243 0.030819243 0.04383167 -0.032393105 -0.0013147397 -0.020279547 -0.117186286 -0.067037225 0.100790374 0.0016201509 -0.07257168 0.078424655 -0.0227903 -0.05370213 0.07007132 0.033203352 -0.07085095 0.0007769377 -0.079508685 0.087677695 -0.019662622 -0.088536926 -0.100657955 0.068089314 -0.08860979 -0.03623336 0.057159323 -0.023979748 0.035593987 0.10957177 -0.08395907 -0.047034163 0.06637477 0.014649267 -0.057289056 -0.11548173 0.043094095 -0.11805975 0.10244744 0.094156526 -0.040913787 -0.119079806 0.048089154 0.06343781 0.058076788 0.036208153 -0.0028375417 -0.030036863 -0.07122536 -0.020444771 -0.08286302 0.05540051 0.059368823 0.051777963 -0.049174074 -0.102677226 0.03127484 -0.049654655 0.027289085 -0.07651795 -0.096949 -0.028152812 0.04747555 0.011884141 -0.10185416 -0.10358958
जाता -0.08984622 -0.06320413 -0.10853127 -0.023616685 0.006643805 0.053315993 -0.0036482085 0.028563188 -0.014164792 0.035737533 -0.00705355 0.0827393 -0.056008965 -0.006385051 -0.016062036 -0.017913727 0.059268318 -0.063996516 -0.012788775 0.040854752 -0.0011444532 -0.016812084 0.011880864 -0.07566637 -0.029353749 0.045296624 0.0134764835 0.015905509 -0.077802435 -0.01326518 0.027009409 -0.04262512 0.028553886 0.011377636 -0.017055126 0.0046483343 0.07051257 -0.010921998 -0.0072640604 0.08383442 0.011568484 -0.07748801 0.0727015 -0.044114962 -0.027066678 0.009209919 -0.04196806 0.033321682 0.07701937 0.019884339 -0.0074653095 -0.008455593 -0.07662528 0.07811193 0.0306331 -0.10450874 -0.013828474 0.008119944 -0.05530484 -0.1197192 -0.019997183 0.011371427 0.0018507665 0.03909425 -0.04484085 -0.05480166 0.07572095 0.05718937 0.04929723 -0.042613972 0.031025449 -0.05256597 0.06192167 -0.021271145 0.0319137 -0.078609794 0.068983294 0.032975066 0.036081024 0.05625347 0.06567648 -0.0036076694 0.037530392 -0.10545734 -0.04467626 0.05414132 0.047479585 0.08188752 -0.03267359 0.021461135 -0.020093814 -0.029228574 0.057567768 0.0429723 -0.059412118 -0.02977874 0.037542544 0.07349747 -0.014094433 -0.05065241
आ -0.035025097 0.07861728 0.029964348 0.07129282 0.042496108 0.117490485 -0.11581718 0.041750602 -0.11843337 0.08493203 0.10795357 0.048552122 0.088597775 -0.0823666 -0.03234477 0.15554088 0.023225924 -0.09735011 -0.13542601 0.08897505 -0.046377268 -0.036902413 0.027653439 -0.12603432 -0.0694176 0.12557028 0.11607463 -0.04917646 -0.06962865 -0.07634889 0.041020077 -0.12023682 -0.04704443 -0.039765324 -0.13265346 0.11679182 0.11936099 -0.07183629 -0.13197647 -0.043205176 -0.06823643 0.016192291 0.08968702 -0.05877816 -0.116996944 0.15185887 -0.0823733 -0.12323654 0.06418216 0.029289374 -0.09088551 0.051640823 -0.08292506 0.03963297 -0.13683653 -0.09168211 -0.07224051 0.036367454 -0.100113116 0.04658486 0.12659292 -0.045767985 0.07366668 0.09336817 -0.10857026 -0.10508466 0.015685223 -0.00060940144 -0.12667178 -0.05208937 0.11100656 -0.084006056 0.056973957 0.113438055 -0.07732006 -0.085739136 0.033875335 0.13917795 0.046280414 0.0963698 0.04152548 0.0061103515 -0.12871651 -0.09262147 -0.0767673 0.039499905 0.12963241 0.027379494 -0.06034565 -0.039421204 0.16752596 -0.041427962 0.047491197 -0.004292252 -0.12244108 -0.018096842 0.021792123 -0.0013456667 -0.029755674 -0.07490199
किसी 0.0109330695 0.04479075 0.06859529 0.074997686 0.01895213 -0.03165869 -0.061695646 -0.045034014 -0.08012233 0.04702406 0.026578844 -0.06443831 0.045804024 0.006818394 -0.058966357 0.042074546 -0.009865213 -0.060314618 -0.08314018 0.06675477 -0.016197838 -0.027766623 -0.049270395 -0.07004222 -0.00653609 -0.062586054 0.101049565 -0.051457226 0.0051071467 0.0032374684 0.06387125 -0.08598697 -0.00046465264 -0.030156635 -0.1018114 0.06826804 0.0092506 -0.09026514 -0.09526784 -0.108605266 -0.0022035663 0.09639962 0.054292608 -0.04528517 0.018010609 0.022715658 0.012743011 -0.061363604 0.01313312 0.15854183 -0.03025531 0.07283036 0.029653305 0.033917725 -0.033285875 0.02687335 -0.03447814 0.015621948 -0.011425613 0.104030855 0.027594663 -0.04345269 0.05535764 0.02421051 0.01728489 -0.029561356 -0.019696735 0.016958807 -0.121167764 0.028287524 0.022436896 -0.02811263 -0.046667717 0.058865234 0.025707072 0.013312138 0.030019391 0.080884255 0.070061415 0.06530196 -0.034718174 0.017276775 -0.013947912 0.013256897 -0.010442841 0.02414964 0.075515665 0.013384105 -0.046221044 -0.0048491354 0.11188753 0.020427402 0.02131172 -0.017786358 -0.13637136 0.003665183 0.018343968 0.0067120586 -0.03820541 0.0048446604
लगा 0.06778996 0.038761206 -0.035158455 0.007257194 0.0016189587 -0.028002448 -0.017486395 0.05497496 0.012234382 -0.029013077 -0.025353704 0.044975165 0.036642388 -0.003238292 0.05665868 0.04747166 -0.038718555 -0.032180723 -0.049039725 -0.015367258 0.03419186 0.047517184 -0.035395224 0.045147207 0.052763708 -0.028553428 -0.034455884 -0.036017124 -0.008799879 0.0062233615 -0.089698985 0.024480494 0.09004961 0.08630871 -0.08555721 -0.03190376 -0.088171385 0.052483182 -0.03210963 -0.080014296 -0.042975258 0.08088056 -0.04109504 0.083901204 0.034906838 0.007892374 0.017900795 -0.016415566 -0.05879581 -0.023418061 0.11791238 -0.03345017 0.036363963 -0.058448255 -0.036663257 0.090430155 0.069187775 -0.051751904 0.010324684 0.09232464 0.005817193 0.019795543 -0.05281447 -0.08068066 0.033463392 0.023253802 -0.07636214 0.030957438 0.15113534 0.067014925 -0.118850514 0.07776826 -0.040345833 -0.06763537 0.0055658333 0.020483835 -0.10381941 -0.08277366 -0.028532997 -0.029728517 -0.0010341121 0.008531629 -0.037744842 0.05642762 -0.0062575783 -0.037183385 0.011244399 -0.029721392 0.024250817 0.031009933 0.0045251218 0.072294064 -0.0025875915 -0.030244358 0.052182075 0.0757437 -0.036736943 -0.01273953 -0.043551736 0.10583775
नीचे -0.06666568 0.16909516 0.10247539 0.03868827 0.03983443 0.018402478 -0.027132222 0.074307784 0.011619652 0.07252062 0.026135406 0.08600523 0.029590731 -0.13328673 -0.027894363 0.062768735 0.06672581 0.0395452 0.015370896 0.008904603 0.0027604478 -0.035731263 0.038206894 0.020733153 -0.110165834 0.03522214 0.03929537 -0.08439215 -0.07374381 -0.059507936 0.09941231 -0.09846607 0.0018310213 0.016106596 -0.011758188 0.021625798 0.068634585 -0.03350885 -0.058835942 -0.089461714 -0.09486721 -0.042674728 0.015375603 -0.0190436 0.0005769129 0.039302252 -0.018652238 -0.004338145 0.012198777 0.014464307 0.013988209 -0.053183574 -0.003642595 -0.08631934 -0.11403579 -0.010838594 -0.0064131 0.113515966 0.024138467 -0.0042863335 0.03558513 -0.07824851 0.10463188 0.0021412626 -0.058627214 -0.045527086 0.053135898 -0.024743073 -0.032751314 -0.04744371 -0.0014289904 -0.019317731 -0.0015285591 -0.043818165 -0.09438444 -0.04843382 0.008972791 0.07616245 0.02564051 0.09454122 -0.002858053 -0.051220942 -0.11397125 0.017592182 -0.0950609 -0.00069403346 0.0053745294 -0.0008257325 -0.061382547 0.009025762 0.05816609 -0.07427123 0.021072377 0.044802632 -0.008080018 0.09551039 -0.0553837 -0.02986976 -0.014717698 -0.027020782
कुछ -0.0022411537 -0.008045961 -0.06906668 -0.0328014 -0.070153154 0.03245218 -0.0035236876 0.016645707 0.111463994 -0.015592319 -0.0024612548 -0.062407028 -0.122728705 0.08306481 0.0012376073 0.016542086 -0.0058789826 -0.08788605 0.06492996 3.299101e-05 -0.013212176 0.063450694 -0.1004213 -0.013729319 0.055034537 0.089729145 -0.07271675 0.01999437 -0.027553987 0.0098838 0.007945419 0.008296446 0.037489604 0.03188206 0.105702266 -0.046931814 0.0019103483 -0.012259949 0.022895932 0.046868786 0.07411979 -0.06948377 -0.007309789 0.040563393 -0.090724714 -0.021149937 0.033683475 0.011641928 -0.022669632 0.020201283 0.021997314 0.0680088 -0.00073340087 0.041390896 0.06865468 -0.064636394 0.034543406 -0.0044923783 0.006886794 -0.0935882 -0.09793239 0.06223504 -0.046216577 -0.02424052 0.013578683 0.037297983 -0.01642741 0.03928869 -0.0032557857 0.0534002 -0.042005364 0.06578772 -0.045823302 -0.016736643 0.05861715 0.06578383 -0.09449204 -0.06963169 -0.01726278 -0.009225044 0.13422711 0.05234377 0.059576415 0.058382824 0.03342154 0.0058092396 -0.03999321 -0.032770842 0.010167585 0.063997895 -0.040202573 0.025430696 -0.009738807 0.097754546 0.05964056 -0.010902171 0.01747101 0.04274296 0.049835417 0.07659182
उसके 0.16687913 0.045844626 -0.08630905 -0.06405276 0.02228909 -0.06299884 -0.0052803517 0.070150785 0.021031192 -0.04820497 -0.058934726 0.064576685 -0.014499646 0.08270844 0.09164927 -0.009845296 -0.016161015 0.04026419 -0.0068159844 -0.018508775 0.10396707 -0.003646205 -0.045338854 0.088043 0.06842391 -0.04683472 -0.009765205 -0.00060455146 0.008384298 0.036063388 -0.10120277 -0.0010850135 0.11879641 0.07480255 0.01979691 -0.08175876 -0.017221889 0.05866956 0.06122856 -0.0033056946 0.06603141 -0.0061835176 -0.06691388 0.033274982 0.10580895 -0.017950365 0.005145315 0.050092448 -0.07980998 -0.014863875 0.01674438 -0.03160144 0.09967513 -0.12732731 -0.0359869 0.07302744 0.065480396 0.0583372 -0.002227294 0.071541004 -0.045745794 0.11175964 -0.060576323 -0.10574342 -0.029208452 0.05486892 -0.040823545 -0.0015926824 0.07031666 0.12448249 -0.103821844 0.08155601 -0.081234135 -0.058768008 -0.0055178306 0.051689144 -0.102576084 -0.09083209 -0.023533039 -0.06832717 -0.021422777 -0.032195084 -0.030749833 0.06318473 0.09530397 -0.020229893 -0.0057246047 0.0133183785 0.09342915 -0.0017844521 0.03778398 0.04726288 0.015018162 -0.043097567 -0.027820019 0.05993211 0.04435291 -0.004347964 -0.017310267 0.11656967
पेड़ -0.012926316 -0.003060606 -0.013533598 -0.018788178 -0.023144351 0.03944368 0.0059425756 0.06281598 -0.044637408 0.0036806907 0.004389587 0.046956167 0.020610806 -0.07721362 0.037647836 -0.03560853 -0.01906792 0.035416774 0.050628457 0.023587843 -0.061454933 -0.06652124 0.0038778177 -0.04252345 0.00096242974 0.13004366 0.034120943 -0.06326364 0.0074509666 0.012828966 -0.0001404602 -0.049845923 -0.023151034 0.0011576003 0.0004156776 -0.01612839 -0.010912702 -0.006996795 0.05398234 0.013845523 0.012593143 -0.07844944 0.078871265 0.013626194 -0.0715983 0.039305907 -0.036733694 -0.021847302 0.08093278 0.020102428 -0.0027320543 0.013531529 -0.04740119 -0.029941399 0.031219123 -0.07535774 0.016065063 0.094265334 0.008132267 -0.005235284 -0.015336211 0.004653931 -0.00077547063 -0.009047727 -0.061266225 0.0007061842 0.037552644 0.019318094 0.008059095 -0.021468041 -0.019227805 -0.022043401 0.015746234 -0.047469113 -0.031248445 -0.054171395 0.010098936 -0.013194456 0.02866489 -0.0068284087 0.022876743 0.0033712236 -0.052374844 -0.038707715 -0.030090276 -0.022119155 0.059335258 0.023914455 0.012700285 -0.03810429 -0.00080102164 -0.0514916 0.054568473 0.057112616 0.033952747 -0.04180733 -0.018608373 0.0021130112 0.011019464 -0.037718993
हाथी 0.020636179 -0.05341563 -0.05190809 0.018244822 0.03461942 0.0367805 0.022963608 0.007642995 -0.02563 0.028584091 0.056844123 0.036292832 0.0018405868 0.0059432415 -0.0026065758 0.009958127 0.0033718958 0.03818565 0.03903616 0.0048656682 0.006929437 0.003104207 0.0027325146 0.009900823 -0.012496137 0.06299205 0.028343346 0.029611604 -0.03689845 -0.062125973 0.0211243 -0.00450738 0.020303613 0.018451676 0.03369244 0.035097443 0.020993873 0.014751222 0.063073345 0.05251344 0.016948182 -0.039374318 0.04806941 0.026455779 -0.021579456 0.021263199 -0.0025312807 0.027842412 -0.008233624 -0.020147903 -0.056405187 -0.042613994 -0.056075614 -0.035792504 0.0070549347 -0.06248601 -0.012778661 0.018913446 -0.013986691 -0.0056004766 0.04794255 -0.05318951 0.06781837 0.045689017 -0.055248033 -0.024055835 -0.006454478 -0.064195305 0.04299232 -0.003507244 -0.04854315 -0.012244815 0.007577013 0.04756024 -0.03208181 -0.04681725 0.055871245 0.049520317 0.03826254 -0.00014584581 0.014486899 -0.06983152 -0.01225064 -0.044048596 -0.0017064133 -0.008319074 0.05870064 0.07846125 -0.031092072 -0.07033052 0.033235457 -0.020702716 0.08133255 0.017795613 0.016542375 0.030509379 0.025040008 0.002042075 -0.05697578 -0.010230777
पंचतंत्र -0.052291952 0.053354587 0.03469872 -0.0029384817 0.061996803 -0.04095931 0.0015185436 0.016831204 -0.044156022 0.037701324 0.05264075 0.054266997 0.08987988 -0.12174549 0.0039223107 0.023838488 0.022336815 0.10345761 -0.079189055 0.04119362 -0.017094824 -0.03792204 0.0711045 0.015512325 -0.06329919 -0.08818072 0.03050508 -0.029762054 0.0058534043 -0.081001684 -0.019372443 -0.036582705 0.024025891 -0.028306087 -0.040875074 -0.007029185 0.062479183 -0.011374085 -0.028715188 -0.047100607 -0.06376366 0.08570712 -0.028296871 -0.015625358 0.0725316 0.014871628 0.0039674747 -0.029549781 0.06275332 -0.0019783294 -0.10887789 -0.06759518 -0.03369685 0.016411744 -0.03687722 -0.02262676 -0.044394046 -0.034297507 0.021638162 0.07115837 0.038633984 -0.045113295 0.0067932247 -0.0039023568 -0.0017032166 -0.010667816 0.02057593 -0.07247294 -0.022115722 -0.02666399 0.031212192 -0.051176373 -0.0016634446 0.010821944 -0.078970045 0.008063877 0.0016740013 0.07033962 0.06262065 -0.04615944 -0.18418823 -0.09274155 -0.008349442 -0.017959917 -0.0061383084 -0.009878459 -0.03870066 0.0591027 -0.024994321 -0.029029528 0.03798388 -0.033198662 0.062843986 -0.04819796 -0.039249297 -0.022184543 -0.037471168 -0.033876304 -0.0032722638 -0.06428071
शर्मा -0.042032596 -0.026439797 0.021827707 0.014232811 -0.049978413 0.026856262 0.04556699 -0.05093083 0.015686402 -0.043573756 -0.0515144 -0.05303437 -0.073927805 0.06578687 -0.053091895 -0.045075867 -0.0057525556 -0.07350756 0.06855523 -0.019832408 0.037241593 0.04804923 -0.011979517 -0.011832968 -0.0032754242 0.02314041 -0.038118348 -0.00947058 0.017355435 0.0058567775 -0.006120842 0.017144896 0.053663436 -0.010543183 0.06670649 0.018289724 0.0043422426 -0.05143988 0.0151194725 0.012913359 -0.01247343 -0.024026616 -0.006297774 -0.016335737 -0.08528123 -0.015545211 -0.017697081 -0.030199856 -0.04528572 0.004615757 0.024506532 0.057658322 -0.0059664883 0.087197274 0.06583629 -0.033721562 0.03111878 -0.06422276 0.018200155 -0.036975883 -0.06747931 0.021165287 -0.030723609 -0.020089919 -0.015599832 0.062164783 -0.003432386 0.002937555 -0.039015174 0.03413363 0.017899869 0.013090367 0.031616174 -0.016407844 0.071206145 0.050177634 -0.050972987 0.0077041504 -0.033288177 -0.011051942 0.07156107 0.011586064 0.041966997 0.03066246 -0.014251337 0.027984098 0.00589499 -0.061560318 -0.019378325 0.077075705 -0.009964148 -0.009685741 -0.015242118 0.016010098 -0.025038382 -0.041257836 0.029380178 0.043573007 -0.023228614 -0.03786904
जो -0.114221 0.035188694 -0.011062802 0.07140688 0.082634345 0.034639545 -0.11960192 0.087674946 -0.09784569 0.12113077 0.08434702 0.1247604 0.0584057 -0.05893526 -0.014005736 0.041329026 0.03559803 0.08223796 -0.062570386 0.07611392 -0.023544943 -0.04835283 0.08749455 0.00023466538 -0.05593341 0.08021719 0.04212753 -0.08593436 -0.097871244 -0.12688981 0.04765746 -0.041830536 -0.05809356 -0.1198142 -0.027476093 0.04886303 0.12154988 -0.026233485 0.04979383 -0.04013125 -0.09732656 -0.020917874 0.07746142 -0.020339618 -0.042967733 0.09401372 -0.055587254 -0.07158539 0.08167279 0.043270215 -0.06888284 -0.06457748 -0.05847965 0.041827023 -0.056848943 -0.08700534 -0.0486683 0.03385385 -0.07049872 -0.013767416 0.106436476 -0.1261816 0.11732112 0.06510518 -0.07772305 -0.044982262 0.07743953 0.0029573396 0.0031320583 -0.06489985 0.07369986 -0.091611885 0.058123603 0.023247328 -0.095633864 -0.06445969 0.057714462 0.074538864 0.070000604 0.03847395 -0.0049068686 -0.07572621 -0.119236805 -0.11953907 -0.096103504 0.04330398 0.10134549 0.10246333 -0.07557358 -0.0420242 0.08175343 -0.05592196 0.09178297 0.03640779 -0.018906048 -0.08101069 -0.053050075 -0.026103886 -0.08786643 -0.052353166
दे 0.064469226 -0.05035299 0.039598983 -0.0012797574 -0.023068143 -0.009027991 0.013675458 -0.065894015 -0.008859511 0.021244522 -0.018815983 -0.0075986227 -0.027250273 0.039538134 -0.049356893 0.020695345 0.010681426 -0.05953585 -0.011321897 0.065722354 0.012217918 0.039566025 -0.038963333 -0.01440891 -0.015311777 -0.053632997 0.011425236 -0.010578158 0.060371082 0.015988957 -0.002767611 0.0059579522 0.053066988 -0.029937685 -0.054213606 0.045324463 -0.040891785 -0.017053984 0.07033189 -0.07777773 -0.005609204 0.043211427 0.036449414 -0.025063673 -0.05382383 -0.023559254 -0.027291108 0.017992415 -0.025268864 0.032270044 -0.04417518 0.014112927 6.0215672e-05 0.017999656 0.03681538 0.019116318 -0.031967502 0.0407817 0.035841733 0.010060147 0.022344857 -0.0050084055 -0.0028551961 0.03216166 -0.008195373 0.05190516 0.0047245976 0.015519677 0.09944379 -0.013451774 0.010367977 0.030733712 0.039980374 0.013782447 0.013282955 -0.055583328 -0.0036628358 0.025769498 0.05815352 -0.046042286 -0.06898756 -0.0360384 0.0008143164 -0.05570429 0.032388937 -0.039032653 0.0086989235 -0.0072774757 0.014147285 0.008047196 0.039118093 0.010885548 0.057174224 -0.057341814 -0.05087329 -0.04895714 0.028158732 0.0013856045 -0.035494886 0.014176405
हुई -0.1854743 0.15449922 0.21161614 0.15033445 0.19518183 0.19114226 -0.23455912 0.20770542 -0.13710573 0.1478572 0.23266071 0.09995435 0.09767326 -0.14143713 -0.14948517 0.13981052 0.20055085 -0.13708696 -0.09890046 0.20139526 -0.20309749 -0.035919175 0.13707429 -0.0662202 -0.3033247 0.19340828 0.18862377 -0.31997842 -0.2660385 -0.15710355 0.2505418 -0.17481728 -0.18770137 -0.21106379 -0.13725302 0.13855359 0.13779394 -0.15946198 -0.1068306 -0.12468119 -0.24135633 -0.058964107 0.2635046 -0.067487724 -0.2534238 0.22216988 -0.13486722 -0.14012322 0.21710247 0.01955774 -0.10694765 -0.10326964 -0.23303868 0.1437445 -0.17846258 -0.29119265 -0.19907919 0.1529243 -0.21910413 -0.20181212 0.24081112 -0.22363979 0.29368338 0.2510607 -0.2262722 -0.21682952 0.16892752 0.17452921 -0.208898 -0.26815122 0.25370896 -0.2047746 0.22141768 0.13483411 -0.17221719 -0.11996472 0.15469244 0.1743477 0.14898555 0.2199391 0.08291691 -0.01361516 -0.2289501 -0.15905361 -0.25990632 0.14284673 0.19802374 0.13917078 -0.21066456 -0.18521407 0.17312331 -0.17636259 0.12625161 0.21074863 0.004792379 -0.05094417 -0.115827665 -0.0975932 -0.18267368 -0.22489788
