<start> -0.05213202 -0.02571716 0.044592265 -0.12219462 -0.08127083 0.06095922 -0.0705013 -0.04301154 0.0006255589 -0.1101435 -0.052886747 -0.011350543 -0.07241197 0.038220588 -0.038511794 5.145793e-05 -0.030906603 0.1042688 -0.03841143 -0.046294104 0.08061541 -0.07869999 0.0023079414 0.039614167 0.066440225 -0.038142547 0.084522516 -0.057488393 -0.070047304 0.09265913 0.056960594 0.021942567 0.0265852 0.065854 0.13652427 -0.017792195 0.077748924 0.09824507 0.08969496 0.02463128 -0.09678554 -0.00820251 -0.07140372 0.042538304 -0.060374465 -0.013841029 0.001960701 -0.0013463715 0.04269778 -0.033492636 -0.14239256 0.017054133 -0.047772527 -0.06205546 0.12370282 0.020409567 -0.06454665 -0.0015084068 0.0113053825 0.046646018 -0.073555954 -0.018078413 -0.023554137 -0.00026717997 -0.012117739 0.10208433 0.00345456 -0.037365288 0.06925392 -0.00045340584 0.034351658 -0.0635794 -0.03351527 -0.04727806 -0.003094628 -0.07204938 0.09003131 0.033732716 0.0047553508 0.09154307 0.063127264 -0.009744183 0.0363079 0.05393626 -0.0065401224 -0.04629372 -0.019278115 -0.10589471 0.054937534 -0.07379573 -0.06962566 0.1340314 -0.043655742 -0.029597733 0.047756422 -0.057994388 0.008304778 0.044964194 -0.14450088 -0.019128267
<end> 0.12997764 0.06640968 0.22144015 0.15922311 0.16193329 0.16400239 -0.1286379 -0.18737547 -0.06820695 0.0869842 -0.1293128 0.10482202 0.051040042 -0.11331031 0.05331473 0.11170108 0.12498374 0.1768726 -0.20482083 -0.1930381 0.13637841 0.25746098 0.0051352037 -0.21740288 0.03589604 -0.18748909 -0.12097045 0.08775862 0.15181994 0.06912068 -0.111427546 -0.113022044 -0.098737605 -0.19167101 0.13909753 -0.17826308 -0.2465379 -0.21871033 -0.19524978 -0.14087261 0.17309418 -0.19017555 -0.1609004 -0.12503545 0.03381828 -0.048134882 -0.1060971 -0.19650383 -0.2542889 -0.12203982 -0.081194416 -0.032175306 0.20729962 0.058771286 0.04193818 -0.1957406 0.08064582 -0.08138538 -0.17709841 -0.056227986 -0.2970388 -0.11739153 -0.038301524 -0.1899578 0.15404463 -0.100087345 -0.17881814 0.14677726 -0.17726903 -0.2159843 -0.15774924 0.054056063 -0.11251792 0.06913726 -0.054043535 0.038890783 -0.08357205 0.24326308 0.08276477 0.21593949 0.11113145 0.096510455 0.030198904 -0.18060538 -0.14022839 0.15842806 0.033946205 0.09784515 -0.07896484 -0.19031592 0.005799247 -0.1550724 -0.07018792 0.105932616 -0.052565422 0.24600767 0.057274766 -0.14704032 0.12833025 0.007281504
एक -0.08265735 -0.0010547235 0.0926407 -0.10884854 -0.13628995 0.071698084 0.024843434 -0.06161761 -0.039177082 0.0073669227 -0.03982303 0.08901427 -0.049243495 -0.014312946 0.004400893 0.053111564 0.06598544 -0.10586151 -0.0013566735 -0.060300488 0.07478225 -0.009104523 -0.005998442 0.07080912 0.16586262 0.07538469 0.067944445 0.08289088 0.061102122 0.11167764 -0.064206205 0.11942238 -0.062006593 0.11551183 -0.09324162 -0.034641866 -0.15715232 -0.0015283463 0.013971389 -0.103539206 0.02452804 -0.06468625 0.07544973 -0.121534586 0.07022413 0.008465352 0.032672934 -0.05122792 0.10752485 0.09542854 0.12563312 0.082675934 0.06130831 0.08419998 -0.06668367 0.03987788 -0.09193812 0.04020567 -0.076605305 0.16933498 -0.06756779 0.06679802 -0.10883335 0.06714136 0.013754396 0.04256409 -0.04188573 -0.0714788 0.010927997 -0.11969833 0.122480996 -0.021251546 -0.012410881 -5.1312643e-05 0.057130564 -0.018588679 0.0051861517 -0.102312535 -0.07822244 0.08465121 0.088435106 -0.047095973 -0.00010833209 0.15426783 -0.065756254 -0.05108983 0.12827995 -0.002755238 -0.087960795 -0.057389982 0.11022792 -0.048168387 0.046703182 -0.09167163 0.02700889 -0.0023132088 0.06673639 0.10583682 -0.114149466 -0.06645697
में -0.1039521 0.04990044 -0.027286578 -0.051727466 -0.1076228 -0.0205844 0.0027686239 -0.05443082 0.055612795 -0.09481555 -0.057653863 -0.006302776 -0.05131368 0.036059145 -0.0076394523 0.013993023 -0.06051351 0.14055395 -0.031466857 -0.012523771 -0.005625069 -0.12272384 0.03932459 0.06335841 0.118801035 -0.11781188 0.048487123 -0.11688639 0.08979816 0.081285805 0.049547482 -0.09381781 0.018254897 -0.15483607 0.07110643 -0.012700563 -0.03394693 0.002673651 0.06827109 0.048068468 -0.007445418 0.018245878 -0.1011583 -0.062635474 -0.025954263 -0.058336254 -0.07456021 0.009511386 -0.06874654 0.031493448 -0.09214374 0.06328072 -0.06224425 0.040337916 0.11203519 -0.008776249 -0.102676064 -0.04722798 -0.039897036 -0.099273086 0.078406006 -0.03658283 -0.005607696 -0.12851048 0.061239053 -0.02606181 0.036396783 0.071721196 -0.07111328 0.003969497 -0.06855375 -0.094727114 -0.033521827 -0.056338247 0.031399027 -0.016318966 0.03912547 -0.013925156 0.028076319 -0.03690485 -0.0018589536 0.05500013 0.016328726 0.08239973 -0.05030773 -0.049882524 -0.09965917 0.081509806 -0.07323513 0.054519195 -0.06452268 0.022801792 -0.011631047 0.008434969 0.094972506 -0.09195319 0.031385653 -0.026607865 -0.075416625 -0.08692004
वह -0.07756298 0.07558839 -0.023809291 0.047751043 0.027841698 -0.060566727 -0.049179878 -0.096899875 -0.07651796 -0.09585381 0.14728363 -0.021404164 0.04956415 -0.025700908 -0.03959096 -0.030919015 -0.07610454 0.100474775 -0.04118058 -0.049571782 0.010872048 0.036119655 -0.13739718 0.08316396 0.10520124 0.039169952 0.05249624 0.024794694 -0.009671142 -0.03927524 -0.02799595 0.04704807 0.016377885 -0.09753214 -0.14893125 -0.01446151 -0.123392574 -0.015596742 -0.0031256578 0.0436216 -0.009112933 0.07833412 -0.06432245 -0.035309065 0.042900946 -0.052026227 -0.09039441 0.11473749 -0.07592649 -0.014987119 -0.08011212 0.15923809 0.17672884 -0.07425225 0.058724172 0.03868643 -0.041912872 0.021857433 0.0724271 0.01576362 -0.060168304 -0.011432291 -0.041112844 0.14188792 -0.05225602 -0.055611663 0.086981356 -0.014381037 0.054006267 0.037566792 -0.051139016 -0.115925185 -0.0973891 0.096095204 0.085525736 0.08564446 0.09594608 0.08014384 -0.054075774 -0.12506992 0.053427573 -0.111750595 -0.08953149 0.060415648 -0.10313277 -0.019819168 0.1201931 0.089144625 -0.07517002 -0.044928886 -0.035377484 0.0649236 0.011050654 0.059823845 0.022260012 0.004973561 -0.21343993 0.013605785 -0.111048125 -0.09801885
था -0.04593503 0.07873404 0.031900156 0.08073144 -0.119134456 -0.078342564 0.09130044 0.010305402 0.017291201 0.0054213796 -0.16512898 0.08464173 -0.015764052 -0.015134865 0.07233813 0.06644052 0.09103698 -0.17789224 -0.032899793 -0.15521556 0.04704085 -0.070663236 -0.010826906 0.03468908 -0.0071471864 -0.06077494 0.06760187 0.06688824 -0.08262854 0.098029055 0.015330598 0.11376906 -0.07862123 0.041161757 -0.019310372 0.1173788 -0.028436095 0.019914629 -0.04700359 -0.039556988 0.064766414 -0.06233489 -0.0063955407 -0.0027256631 -0.06306561 -0.018728375 0.0062370277 -0.011170274 0.09593629 -0.037243396 0.02377253 -0.005630087 -0.08057396 0.17209938 0.0021722433 -0.11985784 -0.075538464 0.009264851 -0.0938904 -0.099920325 -0.051064417 -0.03428747 -0.089932 0.079020925 -0.06513869 0.10457886 -0.0073858993 -0.04973536 0.09734692 0.025921494 -0.00445992 -0.12540083 -0.033834234 -0.09541024 -0.0567204 0.06867117 0.058011327 -0.09196969 0.04504682 0.07124312 0.034946766 0.12970692 0.092835784 0.16463861 0.038825635 -0.08526453 0.08107957 0.065961994 -0.08200082 -0.13344583 0.09034136 0.101466075 -0.051976267 -0.09719827 -0.07101522 0.12004653 -0.03033116 0.11041932 -0.13233995 0.038910218
को -0.083921105 -0.03855721 0.09759112 -0.03285622 -0.021026015 -0.029007332 0.037894692 0.030000925 -0.11259027 -0.0087194545 0.026797013 0.08447829 0.03238078 -0.10450069 -0.10973648 0.048843484 -0.07520769 -0.05479597 -0.12762852 0.013418493 0.0057264892 0.13140054 -0.114348605 -0.12059913 0.0038525697 0.02179341 0.043340635 -0.065561295 -0.057130847 0.10615627 0.031885866 0.12635267 0.010678066 -0.026579278 0.023127431 -0.04014825 -0.11578493 -0.12408216 0.01328198 -0.036336962 -0.027270472 -0.074077435 0.022253085 -0.14861475 -0.07643372 -0.068117954 -0.09626352 -0.011466722 -0.052221067 0.031832077 0.070676915 -0.051917266 0.045688305 -0.0024690146 0.05314132 -0.019652916 0.02071922 0.018529454 -0.021162711 0.043964908 0.026779091 0.07407312 0.13067718 0.07440922 0.015782194 -0.050080784 0.2772319 0.037777513 0.03174625 -0.11329529 0.031919446 0.015549418 -0.054428075 0.07150762 0.20857325 -0.094259985 -0.070603475 0.09232501 -0.0007174056 0.101231776 -0.08818274 -0.066537425 -0.009110264 0.08601392 0.011317581 0.017281378 -0.013787494 -0.009171292 -0.04566393 -0.009401725 0.08079603 0.051540967 -0.042061523 0.122054875 0.0211207 0.037380494 -0.07433447 -0.051626902 -0.06483658 -0.09190705
के 0.01206948 0.05587412 -0.016049977 -0.05718584 -0.029665956 0.08825516 -0.036595885 0.008386768 -0.07568859 0.09978657 0.11239931 0.06445549 -0.115760826 0.06048073 -0.15284437 -0.031388603 -0.14314048 0.024813937 -0.14306532 -0.087478906 -0.058337413 0.13325025 0.025213128 0.07597052 -0.034109384 -0.14249854 -0.10826396 -0.0035945468 -0.03363461 0.15699951 0.15610667 0.18586709 -0.08857934 0.023989277 0.094286606 0.050643526 -0.12409742 0.031676058 0.064013205 0.025597256 0.06479436 -0.03286978 -0.16981107 0.030001191 0.035162337 0.060677737 -0.02449141 0.07553887 -0.10224736 0.10860407 -0.16540489 0.09674932 -0.0640882 -0.028466957 0.11846431 0.012726811 0.025304293 0.022417743 0.040792428 0.0024020472 -0.079253815 -0.06374626 0.024638828 0.04918379 -0.05053921 -0.02301042 -0.014766819 0.015363114 -0.14966325 -0.16675965 -0.053969264 0.19543381 -0.026922256 -0.011006472 0.098760016 -0.111922026 -0.052108422 0.13185509 -0.11280005 -0.07068557 0.18094292 0.013018663 -0.0102432575 0.014440852 -0.091230206 -0.07561467 0.0039015128 -0.025814598 -0.10609053 -0.032791495 -0.078510456 0.08888467 -0.05951725 -0.09291399 0.13629347 -0.0041197115 -0.0395794 0.026669553 -0.023651224 -0.08305029
, -0.062873475 0.03887446 -0.08220887 0.18151976 -0.10546789 -0.1720512 0.005628438 -0.078071296 -0.0024352907 -0.060847208 0.11005954 0.0778349 -0.1191484 -0.11558966 0.1174246 -0.0029178653 -0.008938464 0.025555655 -0.016240356 -0.030085774 0.009932228 0.09063472 0.03450006 0.14526239 -0.082047135 0.019716008 0.021568734 0.09433003 -0.18904933 -0.05199874 0.04704673 -0.047836162 -0.04787569 -0.14260869 0.05007483 0.02554542 -0.1555196 0.10016226 0.09706874 0.063739955 0.05551869 -0.047446735 -0.21778178 0.09571568 -0.027520768 0.05251642 0.048761867 0.07352353 0.044756442 0.11491948 -0.028513705 -0.04794464 0.010702932 0.0064546736 0.022593401 -0.002801598 -0.04013478 0.06893055 0.062484246 0.0065613 0.07872606 0.022881849 0.18132214 0.04020222 -0.03722867 -0.060882494 0.0047814446 0.07121142 0.03682069 0.12500529 0.06836758 0.080869965 0.06178807 0.042315487 0.12222087 0.0017078154 0.21291788 0.050983537 0.07018495 0.10720338 0.025634656 0.032663062 -0.1719763 0.1607685 -0.077367365 -0.07242137 -0.103360556 0.11673938 -0.09312358 0.045727935 0.0059569245 -0.017742919 -0.00091247645 -0.09459579 0.018850638 0.05968088 0.07136222 -0.11431434 0.021227395 -0.07638559
और -0.070762455 0.07549669 0.036856 0.11923153 -0.015873827 -0.13949293 0.12882623 -0.053842764 -0.072281644 -0.07463952 0.07025838 -0.09982152 0.13583614 0.117265515 -0.045557033 0.06257192 0.029517654 -0.027551137 0.06813709 -0.07177758 -0.0321801 0.06783396 -0.09889585 0.033408497 -0.024194961 -0.064660035 -0.085573554 0.056751303 -0.022329893 0.09025275 0.0053364523 0.12643537 0.15817869 -0.07420251 -0.14242715 0.07414506 -0.062941216 0.112321444 0.13527569 -0.02143018 -0.015661139 0.071653366 -0.11075436 0.0061188424 0.08371417 -0.033272784 -0.068394236 0.015798157 0.028169917 0.028401285 0.020008108 -0.03216968 -0.053748738 -0.075430535 0.026569657 -0.076151185 0.0076321415 -0.013965186 -0.009327727 0.0022655164 0.102385454 -0.07547064 -0.020577244 -0.009502425 -0.10394726 -0.015466082 -0.065479405 -0.030051148 -0.06538123 -0.09370595 0.07154337 0.09889752 -0.05329179 0.014515915 0.025630482 -0.017380198 0.028206494 0.06745278 -0.074642114 0.029488819 -0.07719785 -0.04319915 0.09137987 0.075113595 -0.038404368 0.020865673 -0.016548824 -0.017728664 -0.054283224 -0.068211764 -0.04424599 -0.031401582 0.018437192 0.04816482 0.10948629 0.005509368 -0.13905907 0.02937415 -0.069718614 -0.081052765
की -0.06715835 0.07364063 -0.05630638 -0.13681158 -0.055997834 0.045356702 -0.010429913 -0.09982351 0.08975568 -0.15214898 0.059591584 0.042676885 -0.044328585 0.0032777677 -0.047415413 -0.11695507 -0.018862778 -0.02919243 -0.036135405 -0.03334348 -0.12749676 -0.011841524 -0.012545817 0.013017016 0.079690464 0.09369142 0.05300663 -0.042533208 -0.012874691 0.019846164 -0.030393826 0.12091432 -0.0822659 0.010507018 -0.080414966 -0.07970583 -0.03468851 0.01879822 0.122257136 -0.036068812 0.008633352 -0.03385872 -0.08847834 0.08843921 -0.024336204 0.07320891 -0.00022418685 0.022043198 0.067437395 -0.05676723 -0.030944644 -0.08193285 0.09295894 0.054146647 0.042680055 0.122567736 -0.1353057 0.03546104 -0.03376439 -0.018720679 0.073701456 0.0143440105 -0.08629738 -0.057115562 -0.10233976 -0.076282315 0.18276681 -0.037904024 0.06759001 0.06013 0.06739086 -0.08233354 -0.061080694 0.07757185 0.093595065 0.009611045 0.03616178 0.069336705 -0.09803027 0.094946876 0.10051924 0.044259276 -0.13355954 -0.026548436 -0.07236904 0.06850794 0.10532487 0.05299177 0.039276496 0.038662765 -0.014811342 -0.08047222 -0.06360021 -0.07984321 0.07591278 -0.10657791 -0.09436336 0.07244279 -0.11353321 -0.012621364
पर -0.144583 -0.093541354 0.00641971 0.010748443 -0.14030534 -0.06367502 -0.10625199 -0.014517495 -0.060289815 -0.04895703 0.09836269 0.08850436 0.086562775 -0.032401007 -0.13378653 -0.12926768 -0.086587384 -0.12708831 0.033878855 -0.06592384 -0.14526701 0.009902433 0.0769021 0.054145318 -0.0101332525 0.00019317522 0.14020513 0.06465684 0.02956808 0.03850203 0.12961973 0.13599826 0.030459804 0.03793699 0.023712754 0.11528528 -0.11823863 0.083014004 -0.0073414505 -0.11756545 -0.1613999 0.03124365 -0.15595984 -0.0028018956 0.054604635 0.039613985 -0.0018273286 -0.01958291 0.0798719 0.047817778 -0.02096597 0.011186837 0.07975861 0.00050318346 -0.102518015 0.08154798 -0.011984101 -0.024245946 0.05039595 0.024991002 0.041824505 -0.052268308 -0.13477856 0.08126885 -0.09693178 0.17602363 -0.032380234 -0.010180231 0.16734262 -0.056663793 0.10696625 -0.052225493 -0.11571201 -0.0059969136 -0.09468831 0.006957956 0.022849884 0.046320792 -0.048083395 -0.045034982 0.03633471 0.016658392 0.08457208 0.12715922 -0.04204328 -0.08984976 -0.08404718 -0.0298021 0.12708513 0.053424705 0.053404458 0.123096034 0.083759606 0.10544438 0.075912744 -0.11402141 -0.053372364 0.1491337 -0.05590165 -0.041382786
से 0.09691547 0.15449497 -0.09802438 -0.001224949 -0.07775342 -0.15812542 0.044904076 0.06106317 -0.08482754 -0.15789837 -0.02541799 -0.038862884 0.1253791 0.14217606 -0.11124564 -0.03452016 -0.099120505 -0.16971076 0.044116285 -0.12578475 -0.101321734 0.09794671 0.053188764 -0.0019677647 -0.10125808 0.089056894 0.11894946 0.042859446 -0.006579539 -0.009205204 0.091910906 0.12417454 -0.05770562 0.05611569 -0.031646468 0.06203176 -0.1869262 0.11357021 0.035586745 -0.039454173 -0.117518716 -0.01909263 -0.047603533 -0.04555845 -0.035674162 0.051895075 -0.11690501 0.12822846 -0.04258642 -0.06831624 0.024057528 0.09934196 -0.06244599 -0.103016965 -0.11903977 0.022576515 0.007340956 -0.07623644 -0.13043503 -0.06654979 -0.039400697 -0.050641667 0.09696455 -0.04197916 -0.073108725 0.08340159 0.08217907 0.081648365 -0.17724635 0.0007721508 -0.0107254945 0.107803755 -0.064641014 -0.041514073 0.06191297 -0.2019562 0.103843056 0.15093522 -0.11613235 0.06486644 -0.017157082 0.081227 0.13517933 -0.02439449 0.017661514 -0.10283021 -0.024353297 0.073230095 0.13498873 -0.06072648 0.14047228 0.037964232 -0.05614211 -0.02224943 0.18280606 0.0006291415 -0.0016363987 0.053549677 -0.057167757 0.017405452
उसने -0.1264123 0.17996904 0.13488235 -0.04467356 -0.07327981 0.04494842 0.1266855 0.16907883 -0.04613 -0.01371517 -0.09994503 0.066504344 -0.006811342 0.120928705 -0.0953018 -0.04801196 -0.09099108 0.045978833 0.049689475 -0.09598644 0.0046311654 0.04142277 -0.024102068 0.017777309 -0.031700443 0.0009380839 0.018131664 0.077798486 -0.064086124 0.035266913 -0.09265806 -0.03502538 -0.153134 -0.04821221 -0.0060492037 0.022864964 -0.10604836 0.1292434 0.076159425 -0.09711867 -0.008966078 0.071436554 0.026932819 0.15068533 0.033088394 0.06469001 0.03281815 -0.03252864 -0.019468436 -0.08875043 -0.014436083 -0.09514956 -0.009777998 0.10274333 -0.017729659 0.031582154 -0.07727763 -0.07396207 -0.035915542 -0.10915926 -0.06907286 0.058909386 -0.13768423 0.024540268 -0.07999192 -0.016284734 0.12739646 0.1289769 -0.07461932 -0.11064893 -0.07970767 0.03789922 0.12662435 0.064034395 0.07255779 -0.14114429 0.09786515 0.00794832 0.06730044 0.0072362837 0.104078025 0.091985054 -0.04045916 -0.007164504 -0.046281353 -0.054650076 0.017842539 0.15452977 0.027099948 0.006571956 -0.0956346 0.18104634 -0.057499498 -0.06860337 0.124686316 0.042767055 -0.04874962 0.08600684 0.080503576 -0.045065593
है 0.079210795 0.12077239 -0.06250218 0.08457633 -0.12633339 -0.09011001 -0.008305048 0.12170363 -0.1687384 0.036701046 0.007436248 -0.035129238 -0.06642935 -0.08272392 0.046481848 -0.029538462 0.11668241 -0.09245454 0.05806456 0.07873913 0.026279075 -0.012361216 -0.002391361 0.009951169 -0.05147432 -0.17975427 0.024056336 -0.07079541 0.15333092 0.15703326 -0.013604039 -0.024343817 0.10530081 0.029200245 -0.085278615 -0.06666587 0.030552212 0.025606234 -0.11626401 -0.03506718 -0.024375508 -0.066262916 -0.036167294 0.006177954 -0.075181946 -0.10944524 0.02900013 0.002764361 0.060212355 -0.04660509 0.05572309 -0.06337785 0.07788598 0.044972025 -0.14871769 0.0150824655 0.07469946 0.04696062 -0.03689664 -0.12662545 0.038781077 -0.045966335 0.010667489 0.14410812 0.1125352 -0.09974838 -0.041052755 0.03415313 -0.008330242 -0.056008853 -0.0027672132 0.014839274 0.12046705 0.116152756 -0.076903656 -0.07202833 0.013991209 -0.098960966 0.0021530122 0.05103862 0.055583373 0.19606224 0.06595808 0.089223586 0.0055860216 0.08343855 -0.0061612907 0.014693007 -0.026026366 -0.13010341 -0.07402227 0.007899819 -0.07425707 0.007883328 -0.08432637 0.027128907 0.013359164 0.010149641 -0.07966562 -0.033647727
का -0.1489681 -0.10606566 0.08896025 0.079121254 -0.07923237 -0.15311785 0.003258766 -0.09254989 -0.046599567 -0.00054069853 -0.075242124 0.04941468 -0.025864216 -0.12909018 -0.103656426 0.10749032 -0.050882563 0.10614729 -0.0036736075 -0.042143565 -0.037621748 0.005386812 -0.043858495 0.090347834 0.09002231 -0.061544377 0.095678665 -0.049365807 -0.07313888 -0.032876894 0.05779288 -0.067005165 0.05503659 -0.018152148 0.116755076 0.0032592244 0.011515466 0.14606798 0.13162552 -0.13929608 0.04883651 0.024235895 -0.13810454 0.027439598 -0.105176196 0.0608167 0.008449817 0.074590184 -0.16048118 -0.029224781 0.089695685 0.012288366 -0.08868647 0.00733454 0.08264154 -0.050852466 -0.09779394 -0.14101008 -0.062368117 0.0018179929 -0.028132891 -0.028746538 -0.15001719 -0.075681746 -0.02085135 -0.09925188 0.030046035 0.1485017 0.03766759 0.077585 -0.07349833 0.042417265 0.15570213 -0.092242986 -0.060635623 -0.09305657 0.036653787 0.022795113 0.035444833 0.07811558 0.025158584 -0.13430555 0.119903535 0.08115273 -0.10599609 -0.0014348974 -0.0132655725 -0.058576353 0.09900684 0.10193411 0.03139232 -0.023513826 0.044361506 -0.07844359 0.015350547 -0.0652145 -0.07495456 0.101766616 -0.08144207 0.038824826
नहीं 0.021246118 0.04902001 0.05561783 0.021864727 -0.041928846 0.0075637503 0.0008014413 -0.072001964 -0.088836394 0.07051097 0.038553327 0.081482716 0.12735282 0.11501954 -0.045367695 0.05163756 0.006568753 -0.12479094 -0.065526046 -0.053254534 -0.075819336 0.11429747 -0.08939357 -0.0789148 0.12872572 0.03774694 0.10421141 -0.013133128 0.09794229 0.035444833 -0.0020409035 0.03698454 0.10935692 -0.05014813 -0.120254055 -0.087372534 -0.04724042 -0.09698123 0.1982783 -0.024498941 -0.0013983872 -0.00016649839 -0.16077764 -0.051554807 -0.044982664 0.10331235 -0.12354895 -0.11229193 -0.1001791 -5.014441e-05 0.10515302 -0.030303385 -0.02263338 0.08204909 0.072053894 -0.02287044 0.02806175 -0.09638887 -0.041850775 -0.0308907 0.08066664 0.08198024 0.13674967 -0.06829478 0.08732915 -0.0047367127 -0.04209915 -0.0020081755 0.06948616 -0.12546842 -0.030514156 -0.009075467 -0.005801441 0.13109356 0.0660965 0.014030184 0.083322935 0.0041837366 0.03190243 0.07236727 0.053306524 0.07445795 -0.018194936 -0.044284597 0.006766763 0.02893058 -0.087296255 0.01107571 -0.041793372 0.024628682 -0.12013337 0.090909794 0.10956397 0.14362599 0.013457694 -0.013790046 -0.007898208 -0.04955994 -0.049065564 0.09383994
भी -0.121409506 0.040141862 -0.047505796 0.15403692 -0.02740486 -0.056375876 0.063229695 0.10074585 0.029052608 0.012764558 0.18608826 0.12064054 -0.09213815 0.08928821 -0.05239262 -0.045204688 -0.055048097 0.037167262 -0.08982551 0.053186193 0.016357116 -0.08918414 -0.009438982 0.093342304 0.062103454 0.013545439 -0.0812884 -0.03608848 -0.055145387 0.040873945 0.1671929 0.049096495 0.12262755 -0.13927373 -0.0078913085 0.08543178 -0.009110082 0.05034379 0.081377804 -0.08876552 -0.116636224 -0.012133109 -0.119281046 0.027957551 -0.025112955 -0.0028888322 0.0018235792 -0.06528839 -0.061402734 0.04580378 -0.01921146 -0.10372922 -0.01917002 -0.12005281 0.055697873 -0.12929748 -0.078155935 -0.016755296 0.027467672 0.03897152 0.10231711 0.03250578 0.16580217 -0.12953179 -0.05165102 -0.04696833 0.14998029 0.17998932 -0.03249719 -0.09448659 0.10780985 0.12059988 0.08390196 -0.031249523 -0.03724995 -0.04658426 -0.11746238 0.0036944326 -0.0062405006 0.09834495 -0.04583286 -0.008288076 -0.06450469 0.040501498 -0.17898118 -0.059928603 -0.045284986 0.061031215 -0.006654321 -0.08879323 0.122179456 0.012685421 -0.09369562 -0.0033436208 -0.10355123 0.06902479 -0.05064308 0.00015838012 0.010702543 0.026013719
गया -0.13047144 0.12960728 -0.020373337 0.047016032 -0.13779835 -0.13619484 -0.015232928 -0.0757541 -0.023199067 -0.067835055 -0.10955477 0.058395434 -0.12782316 -0.015114512 0.06207539 0.0033920764 0.08322582 -0.080052845 -0.1471127 0.08405495 -0.044234235 0.024184305 0.029432263 0.119965196 0.12915201 -0.027072797 0.09855726 0.07417236 -0.015037525 0.09761005 -0.07438505 -0.03767776 0.027855104 -0.124087535 0.03915529 0.024755051 -0.06106585 -0.03361872 -0.0075991964 -0.08198971 -0.03010932 -0.060129642 -0.13572307 0.013669931 0.005326749 -0.002809676 -0.019191016 -0.07640402 0.019232512 -0.008687331 -0.12178405 -0.013495487 0.109671324 0.054868195 0.074356474 -0.038270257 0.032498743 0.08675734 0.07845637 -0.15066674 0.027290853 -0.015220201 -0.119687185 0.0020812277 -0.03220771 -0.122289434 0.10480442 0.0060398253 0.03224024 0.02340697 -0.13644837 -0.050876968 0.026245283 -0.011178327 0.012288443 0.18554878 -0.003895809 -0.0014726567 0.06294885 0.10131476 0.039917983 0.14242803 0.06953805 0.10526506 0.01617655 0.02300219 0.04933936 -0.008890871 -0.091649406 -0.009481216 0.043396644 -0.010794752 0.0015147039 0.0064981896 -0.1348035 1.4759401e-05 -0.0025072675 -0.09739989 0.02965625 -0.0024540515
ने -0.101382345 0.033877812 -0.105027966 -0.0082212 0.011824612 -0.16072993 0.047551665 0.031100355 0.091804706 0.110906295 0.08400104 0.0078756325 -0.055324625 -0.06299562 0.044325665 0.054157592 0.03463215 -0.15073788 -0.02419046 0.046213735 -0.03441178 0.10429567 0.03923106 0.09719222 0.031637557 -0.028142517 -0.0026146597 0.033995155 -0.07394891 0.020156385 0.03052553 0.06510831 0.11032718 0.04595953 0.08177513 0.08521284 -0.0939084 -0.012316838 0.11653283 -0.09373537 0.1356948 0.059016425 -0.013271137 0.03633163 -0.08449316 0.047025044 0.012770554 0.11290362 -0.15386438 0.07955997 -0.033288155 0.104673676 -0.07414688 0.07759284 0.13061163 -0.021699164 -0.041845337 -0.04740695 -0.05343281 -0.082224235 -0.015453016 -0.034636237 -0.014838227 -0.0074315476 0.11503197 -0.025451796 0.029105958 0.016000358 0.032082904 -0.076323345 0.040512424 0.025924776 -0.08845191 -0.000215588 -0.07790094 -0.07567298 0.098561525 0.030050945 -0.07635049 0.13247053 -0.011500017 0.012613614 0.01404139 0.0051584262 0.031130973 -0.013495765 0.07932192 -0.035053514 -0.014517383 -0.042943597 0.10901674 0.07474329 -0.031718545 0.0925087 0.0010770158 0.08848067 -0.079291694 0.14496587 0.01054233 0.028648868
उसे -0.06321193 0.14619586 -0.135426 0.051906776 -0.09257086 -0.13497776 0.017887438 0.11154419 -0.16629484 -0.057165343 0.13086747 0.050469548 0.046901997 0.085046135 -0.052944355 -0.09800412 -0.09103547 -0.0687696 -0.12044805 0.025407482 -0.006397245 -0.019653909 -0.10915992 0.17044601 0.16924092 -0.090540655 -0.041228928 -0.097504675 0.057459954 -0.031072002 0.07361231 0.092071794 -0.031570323 -0.071670234 0.09277747 0.084714 0.05189174 -0.018318541 0.15321378 0.02092405 -0.075099625 0.049318496 -0.060913756 -0.029651858 -0.049227346 0.112181954 -0.09776465 0.03790913 0.008332867 0.07723095 0.063055225 -0.0034191273 -0.042676 0.11149499 -0.09932967 -0.020131288 -0.11747582 0.032453097 0.05884695 -0.04296949 0.035666432 -0.032138765 -0.05830575 -0.011740568 0.02437907 -0.054226473 -0.1460852 0.106587954 0.0777108 -0.062012717 0.019334685 -0.08422123 -0.040096182 -0.01115559 0.17585279 0.020542122 -0.054198436 0.12844868 0.003196522 -0.039859585 -0.03265453 0.06658238 -0.03322934 0.111950666 -0.038420625 -0.092833415 -0.0957505 -0.08918104 -0.12684578 0.040192317 -0.061628774 -0.043993026 -0.017830098 -0.0814867 -0.04838071 0.066432916 -0.1576129 -0.04536168 -0.12680571 0.013107002
रहा 0.13366467 0.040506504 0.062580004 0.11368719 0.119236596 0.15280208 -0.11749285 -0.119770095 0.08197945 0.0645542 -0.010021846 0.039727625 -0.04214498 -0.0772737 0.025975363 0.09689027 0.09974561 0.0006080907 -0.07209887 -0.09631813 0.119442865 -0.010354799 0.08415769 -0.13716389 -0.08971046 0.048798878 -0.11010534 0.06369412 -0.026828967 0.11786712 -0.013078247 -0.13993175 -0.10259814 -0.0028233272 -0.09901912 0.017979415 -0.038211606 -0.04020773 0.030651508 0.059195388 0.1001335 -0.18197934 0.07515542 -0.0068421094 -0.06277247 -0.046065792 -0.01232082 0.054262538 0.041265044 0.09850764 -0.07080872 -0.1106275 0.017900342 0.096662134 -0.043575294 -0.053135812 0.058560275 -0.0393284 -0.08713322 0.0030933316 0.06864039 0.07967369 0.14476398 -0.045225278 0.11779823 -0.050726354 -0.062310565 0.0528126 -0.009065176 -0.028982846 0.039040208 0.08017174 0.12680733 -0.07203011 0.0021893764 0.060200997 -0.09776791 0.078647144 0.15578796 -0.01117723 0.08040045 -0.051064804 -0.039292492 -0.023527132 0.01851726 -0.02590774 -0.007802972 0.035141412 -0.120671585 -0.082122646 0.03331279 -0.0843207 -0.0022746432 0.05500325 0.058068916 0.034699567 -0.01679107 -0.0982095 0.10868788 0.0012877334
. 0.13505588 0.10913029 -0.12557346 0.062464427 -0.067436695 -0.1156724 -0.052990846 0.061264254 0.07056737 -0.05686939 0.026057484 0.009552348 -0.042413797 0.0019525619 0.14538687 -0.001100744 -0.020119749 -0.04538438 0.09278231 0.025714748 0.030662183 -0.048641298 -0.06808056 0.049397416 -0.108475074 0.026876723 0.00819712 -0.0047317194 -0.09876415 -0.07987038 -0.11847879 -0.028294504 -0.044723365 -0.10442058 -0.022125067 0.022740157 -0.024500191 -0.036218546 -0.1329051 0.075914904 -0.060190275 0.15422353 0.037689716 0.16390932 0.101404905 -0.07511656 0.0070765927 -0.057630397 0.0330688 0.0038429685 -0.0513595 -0.02583572 0.01906526 0.011564787 -0.020282675 -0.19841437 0.072986975 -0.11736267 -0.07691716 0.040405586 0.04684359 0.064201765 -0.094124146 -0.1267537 0.08362231 0.04172466 -0.14824829 0.06901955 0.09907913 0.12947255 0.020433059 -0.08614368 -0.044143282 -0.09113222 -0.22378637 0.011715271 0.042856958 -0.0176114 0.08871119 -0.034966893 -0.009051153 -0.0038540885 0.011368584 0.09470555 0.091585785 -0.0035186862 0.009641304 -0.017541429 -0.033904165 -0.026386432 0.029857753 -0.121363975 -0.017345011 0.027934786 0.010169049 -0.012485748 0.050966296 -0.07947066 0.0172733 -0.16146661
: 0.047911063 -0.015517043 -0.03207971 0.028510123 0.052425303 -0.17746095 -0.043161932 0.06405947 0.004422417 -0.14301859 0.12511072 -0.03090467 -0.00016698109 0.1439856 -0.08139592 -0.11730002 -0.15713291 0.04149942 0.038697667 -0.04643063 -0.17707649 0.1280205 0.024047915 -0.04373609 0.014002017 0.05643802 0.06754658 0.0032464245 -0.0681851 -0.12044083 -0.030199248 0.084522784 -0.06835942 0.041601244 -0.012261878 -0.1740829 -0.21891053 0.023907578 0.053495575 0.08745014 -0.07984517 -0.10980185 -0.04323819 0.099567086 0.032182973 0.13760199 -0.12110717 0.1601334 -0.1223743 0.0051243035 0.06772027 -0.03951042 -0.14111571 0.007607278 -0.022619123 0.041894265 -0.09779525 0.0012859037 -0.14595504 -0.011470397 0.0492569 0.07199092 -0.084029555 0.10396573 -0.10962644 -0.01827729 -0.01152195 0.12788486 -0.07508199 0.009680155 0.03547526 0.15044773 -0.026554035 0.048566855 0.09523871 -0.24030776 0.0644734 0.026117064 -0.026478365 0.057724364 0.110769436 -0.1159247 -0.02523989 0.051746625 0.025943642 0.0055613304 -0.101764694 0.034826007 0.06148178 0.10552642 -0.13748783 0.011607431 -0.112777956 0.022088464 0.07338183 -0.15494475 0.086147875 0.040476315 -0.035379715 -0.08980119
जंगल 0.007708519 -0.036835633 -0.05472493 0.021895727 -0.027703326 -0.07096381 -0.09554191 -0.04864649 0.1249244 0.06326383 0.06302496 0.112826325 -0.07252039 -0.03618522 0.023250451 0.052090716 0.0021330537 -0.104481235 0.013951934 -0.057986133 0.0071821925 -0.17825153 0.10086325 0.0783649 -0.16089147 0.00069495186 0.04831818 0.10622817 -0.045097318 0.008127845 0.025282323 0.029070739 0.1308703 0.06707911 -0.09479477 0.03804477 -0.057092506 0.031344514 -0.061760068 0.04348637 0.0594207 0.028665014 0.009837436 0.04466746 -0.022769673 -0.068335965 0.022942718 0.0051258174 0.096320175 0.022276258 -0.0371028 0.05234442 0.032359883 -0.00714523 0.044766963 -0.08786699 0.06971016 0.0685782 0.06363365 -0.0032393697 0.1110627 -0.059581533 0.033767495 0.008070836 -0.07260187 -0.06671346 0.033096645 -0.026733415 0.080321416 0.08229341 0.040931076 0.020275524 -0.03719544 -0.09747068 -0.049910568 0.069484554 0.0023840133 -0.03973479 -0.08991046 -0.0714706 0.016391393 0.0043029147 -0.04914617 0.049250256 -0.09784 0.06513558 0.057143092 -0.16850954 -0.03592562 -0.09782159 0.011731396 -0.10947256 -0.11477195 0.04782742 0.008516016 0.0362652 0.07390444 0.04783522 0.07448858 -0.19066049
थे 0.0809853 -0.09607717 -0.11807579 0.023730088 -0.03463564 -0.17471515 0.020640323 0.107652076 0.005427354 0.0062188804 -0.0007922047 -0.10135975 -0.11140875 -0.07898326 0.06717421 0.09846304 -0.017438123 -0.07501741 0.0037229515 -0.0047691576 -0.14808267 0.07998171 -0.0625574 -0.11013993 0.022835955 0.1082023 0.022283832 0.092554666 0.03753234 0.082347915 -0.015182569 -0.00072298286 0.10057849 0.010758453 -0.0057771183 0.07694787 -0.04692225 0.043240666 -0.034656204 0.0168027 -0.15001066 0.04987084 0.09800427 -0.08195199 0.10955635 0.06247433 -0.06594563 -0.0861831 0.10693621 0.10121928 0.11255183 0.05294113 -0.11047523 -0.027102834 0.069258146 -0.060500726 0.11165421 -0.007685668 -0.021795463 0.050560843 0.113120094 -0.21086018 0.04155652 0.15156622 0.1363547 0.0025308183 0.14163157 -0.050002623 0.04115084 -0.06980366 0.016022699 0.0639905 0.112917386 -0.09790606 0.062341806 -0.049337838 0.14564176 0.13127029 0.026663471 -0.027475052 -0.21298376 -0.12382997 0.1467688 0.027537573 0.09979254 0.01631717 0.03688477 -0.09621094 -0.094722256 0.0039144233 0.04335514 0.09670516 -0.059893377 -0.13014705 -0.06699772 -0.010660375 -0.02219747 0.004718897 -0.08727056 -0.13574958
ही -0.0671262 0.08317891 0.04978563 0.04765508 0.09017765 -0.020947848 -0.032132532 0.020250281 -0.021308718 -0.033221256 0.0521621 0.032799892 0.031843968 0.020941276 -0.018457444 -0.05047008 -0.036062423 0.10278043 0.043246496 0.010154572 -0.084783114 0.08157929 0.029295787 -0.045215648 0.13488866 0.011243743 0.03565204 0.050406344 0.025008403 0.09107485 -0.10146546 -0.041714087 -0.09582651 0.005832947 -0.06797507 -0.07743729 -0.107808664 0.13550094 -0.0639589 -0.015462368 -0.1027012 -0.13511312 -0.09056656 0.030965963 -0.04157006 0.03864749 -0.09630056 -0.037735175 0.0033180632 0.049370803 -0.12921263 -0.062207833 0.04584342 0.0111617595 0.107450284 -0.029334212 -0.04802954 -0.10690598 -0.14290623 -0.14719428 -0.119816065 -0.038854428 -0.1007585 -0.034074895 -0.03995594 -0.07927002 0.01343431 0.15107574 -0.007376433 -0.09777959 -0.021988146 0.15143123 -0.037066534 0.13120584 -0.04930629 -0.03116055 -0.016025133 0.02872241 0.005656942 0.055588633 0.11828541 0.0154418815 -0.020955095 -0.03463055 -0.07067253 -0.045837402 0.0076110535 0.090950735 -0.09451383 0.07197706 -0.005556081 0.05057243 -0.16796082 0.047726788 -0.071697734 0.0007448909 -0.046267726 -0.052070707 0.054353647 0.050184887
अपने 0.009528419 -0.08662986 -0.006190579 -0.03917121 -0.054682557 -0.021459311 0.009189567 0.050537292 -0.02741158 -0.049168404 0.09677993 -0.07761547 -0.07232213 -0.022623733 -0.027678607 0.010959601 0.010107571 -0.06600954 0.010786791 -0.052749343 -0.024559924 0.023072574 0.06039188 -0.06196026 -0.04548013 0.0058051073 0.022833904 -0.034309644 0.054730024 -0.021761872 0.00710842 0.15455373 -0.073392466 -0.06178961 0.1114174 -0.0319098 -0.17499577 0.04847543 0.13492873 -0.0074732522 -0.11076677 0.055991303 -0.047362704 0.13086244 0.04386684 0.047552314 -0.039487414 0.034795057 0.0162113 0.0115845585 -0.07478635 0.12900382 -0.11564988 -0.10791837 -0.15909587 -0.056983005 -0.118582495 0.0029310917 -0.088484846 0.08049232 -0.02104962 0.013010665 -0.026095241 0.12722547 -0.07877293 -0.016761543 0.11275391 0.01726096 0.029051753 0.044319075 0.061563343 0.02334115 -0.011223586 -0.00088483206 0.00903535 -0.038753405 0.08547632 0.099997364 0.0020424281 -0.004969452 0.14380004 -0.02016574 0.0013439014 0.04403935 0.06732193 -0.06983527 -0.16775197 0.16101363 0.094758466 0.019414635 -0.00883812 0.12095672 0.082118265 0.004267967 0.036548987 0.09425297 -0.09239667 0.07108242 -0.15389721 -0.009413388
बहुत 0.095181264 0.07205837 -0.11260445 -0.096489646 0.006070179 -0.0018984318 -0.011236585 -0.14572006 0.04972533 -0.16777223 0.13056587 0.08362002 0.09645155 -0.07228282 -0.015139041 0.007968706 0.026520733 -0.063940406 -0.009137491 -0.015270147 -0.020195657 -0.048475992 -0.026887925 -0.10497412 -0.08073108 0.023323031 -0.07307592 -0.010652965 -0.04405101 -0.024925854 0.06780145 -0.026915824 -0.04457089 0.015373729 0.019028617 -0.05007847 0.028930526 0.11851777 -0.09223299 -0.064428374 0.06028346 -0.033919163 0.038840782 0.10250646 -0.06638914 0.04694699 -0.09815846 -3.487854e-05 -0.033208784 -0.0331319 -0.045745347 0.064444266 -0.05344723 0.05211287 -0.14997074 -0.0006233218 -0.041939788 -0.083821215 -0.10850472 -0.08432456 0.0145134665 0.050773572 -0.11460911 -0.04965675 0.054914244 0.0124616055 -0.0058511156 0.100493126 -0.06985062 0.021417772 -0.09661907 -0.0689814 0.0339541 0.024500437 0.0060648955 -0.11815947 -0.074058615 -0.048559323 -0.022314264 -0.027356228 -0.06308927 0.07867234 -0.033491004 0.106915385 0.00056320784 0.09451686 -0.082258 0.033356156 0.06052202 -0.037267894 -0.0038025621 -0.18250792 0.046822734 -0.088050134 0.01561079 -0.020661535 0.078854755 -0.025658326 -0.079211526 0.07434986
देखा 0.03181149 0.03673826 0.020027775 0.12227203 -0.05886259 -0.012097346 -0.03460388 -0.061429583 -0.057102524 0.0142858215 -0.07685566 0.018209357 -0.0051532215 -0.14005244 0.060192965 0.036297597 0.085440196 -0.07050808 -0.04723299 -0.10288411 0.025076013 0.043936655 0.07234065 0.06472033 -0.12931484 0.02012824 -0.03982191 0.10984393 -0.083197206 0.035445083 -0.0479733 -0.07869073 -0.13964249 -0.028766425 -0.07305596 0.06623973 0.027869517 -0.03222536 -0.13440639 0.032626245 0.050091542 -0.030758478 -0.14787547 0.016813885 0.020646308 -0.108683646 -0.06269861 0.034671154 0.064887315 -0.12620692 -0.08879475 -0.025280455 0.04569088 0.07432689 0.06748682 -0.12786284 0.001920493 0.11988965 -0.100941636 -0.036193438 0.028803537 -0.07693761 -0.063351676 -0.05204967 0.050428227 -0.0030973724 -0.11049199 -0.040529225 -0.07843046 -0.015515305 -0.046870597 -0.015932916 -0.052696526 -0.04047272 -0.06499129 0.09965055 0.12881754 0.083207026 0.11528993 -0.1202363 0.0015257382 0.010253104 0.12897082 0.13400954 0.07312415 0.050837986 0.03286305 0.031744357 -0.021124301 -0.007964644 0.10458718 0.10451372 0.018341709 0.018299902 -0.08282985 0.078282185 0.06315648 -0.097613305 -0.037654076 -0.070789665
मित्र -0.007942615 -0.00765777 0.10251601 -0.0071499445 0.0332303 -0.058784913 0.03469437 0.10965255 0.05666322 0.11287712 -0.051622692 0.086477034 0.010021977 -0.039475944 0.10007394 -0.04583239 0.020131465 0.056771647 0.04178959 -0.05277699 -0.06459692 0.07772962 0.1529972 0.051887352 -0.13637045 0.030048931 0.098184586 0.03918914 0.08259306 0.13265075 -0.044763643 -0.06903725 -0.09984258 -0.09781696 0.12051364 0.023700733 -0.11245069 0.056552425 -0.04380361 0.04213207 0.026517345 0.024320131 0.058193725 0.047457036 0.036159843 -0.054141086 0.049307562 -0.08777596 0.11094667 -0.09001471 -0.01852023 -0.06193918 0.031497803 -0.037482284 0.0334459 -0.053113554 0.14643186 0.02583312 0.060005877 -0.026050173 -0.051996697 -0.12867887 -0.09753 -0.11679796 0.018980185 0.10062534 -0.05125513 0.023343481 0.05961275 -0.070020825 -0.12049257 0.12386254 -0.02271221 -0.030054513 -0.11082527 -0.036014594 0.05250059 0.087716274 -0.011521478 0.00011916639 0.09242203 -0.008894881 -0.035400115 -0.0018195217 -0.059540443 0.01308328 0.004219029 0.0967837 -0.075723454 0.057148613 -0.040248245 0.049957376 -0.12969828 0.018067203 -0.109529585 0.03720842 0.05850719 -0.034387384 0.1081241 -0.11888911
राजा 0.00021489356 -0.07517779 -0.051212605 0.020657899 -0.07388995 0.020843357 -0.09210801 -0.07625782 0.010060148 0.06563666 -0.0013080001 -0.09481762 0.012314896 -0.06967659 -0.025882378 0.04001755 0.07046653 -0.029843995 0.05156228 -0.024751812 -0.11527269 0.031851776 -0.060152046 -0.038158525 -0.10442408 -0.032782488 -0.1778741 0.047461316 0.078827865 0.10844941 -0.015439781 -0.070327744 -0.037601683 -0.11412665 0.15179205 -0.0827335 0.08294963 -0.042226955 -0.06379522 -0.018107774 0.013468679 0.053363297 -0.023715032 0.039613448 -0.25661877 -0.031925727 -0.0027477327 0.011105586 0.08822266 0.012691076 -0.020924492 -0.04569464 0.04737449 -0.06183258 -0.0633155 0.086249314 -0.06671513 0.015917452 0.025475608 -0.11473264 0.08698183 -0.08788955 0.068565145 0.034692165 0.09423889 -0.12468671 0.018598836 -0.07951286 0.17928219 0.010149402 0.023790574 0.036296777 0.017245919 0.026233852 -0.11302239 -0.090903014 -0.14752133 -0.08555127 0.10028426 -0.051365517 0.044520635 0.0015697114 -0.035774037 -0.017925935 0.04621908 0.09590238 -0.050499074 0.12038562 -0.019885397 -0.09496648 -0.09986988 -0.06307914 0.024611702 0.07114587 -0.055088107 -0.025403433 0.008591152 0.09444036 0.03038246 -0.046467565
कहा 0.09991031 -0.0077909008 -0.011397753 0.18993632 0.002389249 -0.05201815 0.053337462 -0.004534065 0.03184161 0.029809857 -0.10039771 0.019483369 -0.07855435 -0.063337244 0.07776661 0.011930487 0.064330705 -0.08968349 -0.028362585 0.039742067 0.096945055 0.03258806 0.06948453 -0.0053981757 0.005511822 -0.06321579 0.07784734 0.044548847 0.023330972 0.035789404 -0.17262505 -0.022830604 0.015149263 0.021888662 0.029762914 0.07592805 -0.069312125 -0.009853515 0.053024616 -0.086467996 -0.01685138 -0.19958597 0.05116303 -0.11176464 -0.019941473 -0.09195673 -0.061951414 -0.039540555 -0.016937764 0.031865995 -0.07686819 0.004274913 0.00048397927 0.11741798 -0.066123635 -0.12698756 0.13108389 0.08838709 -0.007853226 0.0562076 -0.062974304 0.049614787 -0.03517773 0.12887214 -0.07175284 0.05932297 -0.06646902 -0.027808411 -0.01416429 0.055151403 -0.093771316 0.10863771 -0.050880533 -0.13899769 -0.118603945 0.061883263 0.052287064 0.10053655 0.05461467 0.03332003 -0.087095365 -0.03451918 0.10405651 -0.014324776 0.1377355 0.010345499 0.057223596 -0.024104338 -0.033132333 -0.10569909 0.09934482 0.10200213 -0.044069875 -0.0032439497 -0.0016113087 0.087971434 -0.03908508 -0.035335228 -0.011428363 0.06396457
कि -0.15674853 -0.056005463 -0.012991669 0.01977587 -0.04059993 -0.08100818 0.031542804 -0.08038415 -0.061443068 -0.06992504 -0.017558763 -0.004599329 -0.07887863 0.09040607 -0.0369927 -0.028775265 -0.062665515 -0.008111943 -0.07934994 -0.108685605 -0.033868503 0.05375152 -0.06996107 -0.024169974 0.07733021 0.13749802 0.073648706 0.05383937 0.022821408 0.110257156 0.026122792 0.057759665 -0.017181788 -0.04765373 0.0067163506 0.04000001 -0.13792568 0.043857843 0.03437582 -0.0722771 -0.023972932 -0.050778423 -0.0975718 -0.10451665 -0.063557744 -0.053151377 -0.15675086 -0.044486243 -0.034662034 0.12329517 -0.12343575 -0.00038568073 0.048170324 0.065507695 0.0066258833 -0.013754379 -0.0829036 -0.061486352 -0.09750345 0.078603305 -0.01863674 -0.010512517 -0.09592835 0.061527997 -0.03978985 -0.03243758 -0.0191404 -0.013448387 0.07433112 -0.109961934 -0.012229683 0.06499117 0.028155265 0.0031024371 -0.045937497 -0.03469555 0.038565014 0.012462258 0.016832601 -0.0015791589 0.068064086 -0.029180402 0.08562489 0.1943548 0.03531948 -0.071538076 0.025681026 -0.023412783 0.03757055 0.029496474 -0.022692323 0.008252499 0.025465446 0.097258985 0.04110268 0.008525287 0.0054969294 0.007668663 -0.05605056 0.042847045
तो 0.06255364 0.07132442 0.09230918 0.08870165 -0.11841532 -0.006886712 -0.20623954 -0.016450478 -0.0055043427 -0.04639508 -0.0067083044 0.0771886 0.049422726 -0.07281842 -0.11284285 -0.0043402854 0.017140457 0.0153721385 0.042577285 -0.045656122 -0.049294263 0.030776616 0.116799176 0.039041337 -0.13070783 0.092103 0.17113511 0.10070593 0.058147866 0.018702667 0.04343142 0.0070500537 0.060326096 -0.10076478 -0.060841788 -0.0058979974 -0.003334421 -0.018821038 0.04235986 -0.054775637 -0.021830974 0.011068776 -0.098511904 -0.020312808 0.12354853 -0.14697266 0.0015165455 0.09108167 -0.0016621022 0.01753638 -0.08693528 -0.039600536 0.10733889 0.010586696 0.0025702938 0.012331621 -0.03026008 -0.18282758 -0.022114623 -0.11004774 -0.056868356 0.010936854 -0.025138183 0.101946995 -0.14831212 0.10128587 -0.026732383 -0.042216368 -0.0981466 -0.098334506 -0.08203243 -0.022345135 -0.102446035 0.076528184 0.03853433 -0.030002087 0.1535312 -0.031630576 0.12795979 0.014192316 0.099330254 0.15331534 0.057155196 0.008713733 -0.038222473 0.0048517724 0.06887478 0.11429519 0.01905338 0.02785995 -0.03863771 -0.0033643942 -0.03265576 -0.007713942 0.0067001623 0.038677525 -0.029954288 -0.0096278 -0.08648588 -0.10982064
बार 0.086670354 0.13566619 -0.032854423 -0.019087072 -0.0028909715 -0.06675022 -0.04380069 0.11937468 -0.051526852 0.021573413 -0.01049239 0.042262834 -0.084057 -0.068603046 0.03155324 0.020901345 0.14368711 -0.078238204 0.008803668 -0.16163541 0.02036167 -0.007945956 0.11948938 0.09674376 -0.07217818 -0.09935687 0.06997749 0.15621398 -0.056962393 -0.08144588 -0.081241764 -0.12175359 -0.046681747 -0.027662493 0.10820038 0.06116521 -0.033515282 0.076335795 0.077912666 0.08254432 -0.008574752 0.059531145 0.027650403 0.114090554 -0.056851067 -0.0316903 0.0050758575 -0.061983127 0.06807847 -0.08681487 -0.13555944 -0.22423962 -0.08374762 0.029279348 0.12631918 -0.054531667 0.16046621 0.09501534 0.1337345 0.01112798 0.07301717 0.021740388 -0.2561788 0.01194616 -0.022233265 0.069943264 -0.1452246 0.100707866 0.059108872 0.056217056 0.01524413 0.06531299 -0.026875343 -0.017857376 -0.082932904 -0.030264424 0.04910334 0.1080979 0.11702545 0.003317673 0.02215976 -0.08087254 -0.0296252 -0.08981086 0.06412844 0.0132999 0.20506625 0.12526914 0.026334442 0.012753833 0.12766393 0.11967917 -0.018083084 -0.06474276 0.03353776 -0.10106795 0.0034685961 0.09985379 0.07514618 -0.12399756
पानी -0.02051295 0.05020573 -0.0689613 -0.05305274 0.0060340916 -0.087168954 -0.061757937 -0.14071068 -0.09556502 0.08067773 0.15614268 -0.026677702 0.0899674 -0.12061063 0.076060876 0.08950536 0.061308604 -0.005923961 -0.021950046 -0.018024325 0.08102183 -0.008978163 0.094332024 -0.002217942 -0.018633692 0.046426345 -0.0072824094 0.036570467 -0.027239008 -0.008449141 0.10705084 0.08333355 0.048683934 0.067392714 -0.10225702 -0.077797875 -0.093595855 0.020218138 -0.10250423 -0.125441 -0.009901223 -0.015545676 -0.03530438 -0.031238813 -0.099898435 0.022952924 -0.054876484 0.08052571 -0.06954813 -0.091280505 -0.040504966 0.037143447 -0.032014888 0.012500215 -0.089357436 -0.05638542 0.089077435 -0.07486864 -0.0017089415 0.039542466 0.047414187 -0.01379202 -0.040123466 0.0010745613 -0.0033245778 -0.026429592 -0.028428346 -0.02847614 -0.0841248 -0.0015424773 8.494918e-05 -0.104458846 0.0049872394 -0.030503409 -0.020649128 0.04269034 0.025250599 -0.06394709 0.0443362 0.015984355 0.008332479 -0.019923404 0.083230175 -0.020944813 0.0354597 0.11002584 0.04292734 -0.050760835 -0.019534076 -0.07400378 0.068768926 -0.16220045 0.071642965 0.0012493245 0.07608115 0.052226137 0.117171615 0.11536959 -0.012712446 0.01896358
सभी -0.026634803 -0.0380333 0.106303416 -0.0012369329 -0.04557344 0.016614195 0.05881174 -0.07352906 0.06518379 0.02456068 0.073511004 0.047751956 -0.055053823 -0.043160718 0.12607221 0.12738536 -0.0068500536 -0.111605756 0.057103835 0.04131259 -0.036525816 0.042331766 -0.06606443 -0.017312875 0.0889063 0.06640833 -0.00012951149 0.14034699 0.06585716 -0.022350132 -0.0851156 0.019872284 -0.029830066 -0.09523267 0.10051966 -0.03600878 0.030655812 -0.026413452 -0.01768499 -0.068025745 -0.036623273 0.13231367 -0.08674658 -0.02373446 -0.08667375 0.028647706 -0.07055135 0.042882588 0.06256272 0.052326623 0.033731528 0.016668737 0.025566773 0.057826713 0.016997479 -0.092116274 -0.08957973 -0.22124052 -0.025481869 0.0012307717 0.11646497 -0.0700199 -0.22974424 -0.004971309 0.14186934 -0.03981921 0.017415373 -0.027706001 0.094982505 -0.06313472 0.0006968306 -0.0072305747 -0.17468536 0.17711492 -0.17482743 0.11232827 -0.023292055 0.05495036 0.10128599 -0.006228051 -0.07845371 -0.083790846 0.012416242 -0.007781288 -0.03191548 0.028305892 0.06653991 0.09936017 -0.044295996 -0.069035634 0.058539595 0.06420272 0.19444393 0.11805596 -0.06143622 -0.00959341 -0.07286441 0.037252165 -0.1181909 -0.09847357
गई 0.09628291 0.14347339 0.06773516 0.14166205 0.05783713 -0.04717166 0.015259008 0.05509754 -0.043053303 0.016982414 0.06446299 0.12075784 0.01939863 -0.062851146 0.05138387 0.01693226 0.12701157 -0.10424925 0.06577608 -0.0014120013 0.11628444 0.05691209 0.11166971 -0.035576325 -0.15313506 -0.169491 0.0077437502 0.06505817 0.07608481 0.094742335 -0.11848934 0.020064304 -0.12946193 0.076843746 -0.004228797 0.05171781 -0.0037057335 0.006871567 -0.020919908 -0.029585235 -0.057104047 0.039124444 0.03786491 -0.13393134 0.05690562 -0.113005824 -0.022131156 0.052121557 0.09784573 -0.036947217 -0.045457464 -0.10573244 -0.0236797 0.048092473 0.01716556 -0.16775283 -0.017956145 0.00975469 -0.031116754 -0.05604516 0.08545413 0.08588922 -0.09063469 0.0025666286 -0.01257392 0.13132967 0.068717755 0.0027379992 -0.039528966 -0.03035656 -0.02258566 0.041778143 0.06625955 0.059378564 -0.077216364 -0.04335533 0.004422359 0.051580004 0.14737628 0.10549041 0.064502396 -0.087356925 0.028197277 -0.045176893 0.0036537317 -0.060445677 0.10799821 -0.0077876244 0.04067432 0.025182426 0.14745627 0.10974629 -0.11272383 0.061129242 -0.09517328 0.055333078 -0.031408314 -0.0010113409 0.04899654 -0.013772761
रहे 0.014104574 0.052733906 0.053468984 0.13957371 0.056100383 0.009794254 -0.09050454 0.055883393 0.0021227968 0.042146225 0.08699995 0.0104741985 -0.0809038 0.028522281 0.006227996 -0.030539436 -0.01952718 -0.05666725 0.011169718 -0.01637946 0.00021790955 -0.07803432 0.07167691 -0.021440865 0.06673678 0.004482892 0.09009279 -0.030380672 -0.1334083 0.10467891 0.001896479 -0.06317691 -0.09755791 0.04631479 -0.023102093 0.021434737 -0.0062291054 0.05676851 -0.0836215 -0.05627129 -0.20560692 0.035995975 0.09445171 -0.0035971154 -0.07690907 -0.08081246 0.05321233 -0.01743343 0.08794225 -0.061289083 0.06639197 -0.052699994 0.022140378 0.102683686 -0.053149246 0.050921477 0.03913791 0.0034886764 -0.0062772455 0.11871749 0.14737912 -0.038577236 0.037893903 0.07705958 0.036228854 -0.029622272 0.013323717 -0.034071248 0.03755541 -0.033248253 0.08896564 0.1720305 0.14569762 -0.04865342 -0.020954961 0.06482171 0.09574846 0.012172591 0.10896151 0.014035826 -0.12386899 -0.19533288 -0.011836205 0.16440682 0.05145908 -0.051839966 -0.15411097 -0.103289336 -0.094924204 -0.062414583 0.045813885 0.08211587 -0.010202042 -0.018361386 -0.11658194 0.03458384 -0.15094174 -0.075464085 -0.07151141 -0.015046717
हैं -0.0633419 0.10701381 -0.10517527 0.19452843 0.0102937445 -0.06143752 -0.01442112 -0.030031554 0.062376667 0.045763865 -0.07471881 -0.13072191 -0.120144606 0.0030475918 -0.020231498 -0.029375294 0.015573729 -0.02553497 -0.06366411 0.041094776 -0.022116283 0.012620315 -0.10887881 -0.010225933 0.03692467 -0.18008216 0.020844022 -0.10806575 -0.025321262 0.13093068 -0.09934826 -0.0007563263 0.043232307 -0.1693766 -0.16233014 0.030442877 0.03537579 0.0510049 0.068600774 -0.0046726414 0.00077707006 0.02735501 0.06580113 -0.05649606 0.06450987 -0.039073497 -0.054272734 -0.13715513 0.05004306 -0.1119784 0.093819894 0.017504876 -0.005266282 0.021695541 -0.11738143 -0.19603047 0.07596229 -0.07995171 0.008246462 0.013604581 0.009493786 -0.039947763 0.03745983 -0.010022027 0.006355836 -0.054250974 0.13143499 -0.0843955 0.034194082 -0.07916688 -0.031206496 -0.19448039 0.00736396 -0.056263965 -0.05370852 0.090434924 -0.043845125 0.052000042 0.10182997 -0.19244273 -0.092533715 0.0710822 0.046190053 0.0833705 0.06993664 0.003301957 0.040000618 0.05249221 -0.0674922 0.007963824 -0.008465928 0.014621271 0.057439078 -0.07730497 0.008243497 0.14941196 -0.18798125 0.046375807 -0.00078173965 -0.12788966
हो 0.019197011 0.02589518 0.041505355 0.055960644 0.09397369 0.12090747 -0.10437505 0.030220784 -0.0076995525 0.12975031 -0.0006919126 -0.016207363 -0.039104156 0.031964477 0.006226198 0.09816726 0.058512025 -0.047970317 -0.025922598 -0.077407315 0.018418906 -0.11323082 -0.0067240805 -0.026121143 -0.10484195 -0.022307761 -0.041137215 0.040537037 0.075633004 0.01924283 0.002591298 0.016453039 -0.018719364 -0.017524567 0.03471517 -0.07838243 0.031279705 0.02157228 0.16427259 0.077450514 0.023542754 -0.17293805 -0.033452015 -6.9571084e-05 -0.1130871 0.014496686 -0.065374285 -0.011921 -0.029734844 0.025143603 -0.01440603 -0.100607716 0.10021116 -0.028752254 -0.033365548 0.0019569772 -0.02626781 -0.06710677 0.054595973 0.019472657 0.026750522 -0.067349836 -0.03331688 0.080922015 -0.08284501 -0.06400472 -0.052212514 0.0024870548 0.07394976 -0.04378412 0.110449806 0.032229256 -0.10917454 0.021230482 -0.06571808 0.09112971 -0.04383937 -0.008509856 0.03735712 0.034193054 0.05250906 0.031749822 0.08595642 -0.080407806 0.03602603 -0.08163367 0.021217238 0.0384563 -0.055529546 -0.114541754 -0.006884402 -0.029494435 -0.054702178 0.01728731 0.0901893 0.0060264994 -0.020640086 -0.043712977 0.01796779 -0.10547157
टोपी -0.008676721 0.06729777 0.008767605 0.07948628 -0.034362346 0.011089167 -0.020672746 0.06695707 -0.1333471 -0.19026242 -0.019148 0.105275005 0.053502884 0.06034516 0.10551102 0.11156946 -4.3769935e-05 0.03113757 0.1258886 0.0584256 0.0073721283 0.060376197 -0.06527706 -0.054074023 0.042854548 0.015265655 -0.038031053 -0.05580953 -0.07568435 -0.060339503 0.042324755 -0.052081134 -0.107054785 -0.056524932 -0.0034749925 -0.07397164 -0.18859799 0.033735916 0.026957609 0.0024351252 -0.14334185 -0.07619061 0.0703247 0.04012307 -0.06433904 -0.02383774 0.004402595 0.08254013 0.09965558 0.038635436 -0.01249994 0.07921672 0.09663754 -0.06741821 -0.08469744 -0.027492974 -0.11762978 -0.08461815 -0.081472814 0.088714965 -0.018670749 0.04198671 -0.12462627 -0.014645039 -0.08460672 -0.037070002 0.09354872 0.067521244 0.0039632837 0.012097161 0.04505626 -0.03684521 0.031187985 -0.012046977 0.13685142 -0.05211447 -0.0693794 0.05670685 -0.020147344 0.07455101 -0.017905792 0.110035785 -0.023045206 0.07673806 -0.022453727 -0.04459195 -0.09572204 -0.025423389 -0.038250003 -0.06418522 0.075510606 -0.06998518 -0.09582932 -0.10456012 -0.022657178 -0.066172 0.071346 -0.006579243 -0.03662414 -0.010517483
अपनी -0.06620537 -0.07536849 0.07668998 -0.013255615 0.050571464 -0.022580035 0.0063875453 0.055161808 0.029657679 -0.0260613 -0.06434405 -0.01628286 -0.04597352 -0.07473467 -0.17910016 0.0633579 -0.08352736 0.22903576 -0.09691536 -0.1551461 -0.018887855 0.059054136 0.07411623 -0.015848266 0.0022662608 -0.03427625 0.080477536 0.029204408 -0.04411234 0.07921734 0.116228655 0.04758721 0.07473613 0.0028325878 -0.017570516 -0.0785906 -0.08892708 -0.013530869 0.06530216 0.067524485 -0.0578868 0.053259518 0.01563019 0.037167165 0.05039954 0.009665764 0.073692955 0.07147985 -0.092796095 0.07069501 -0.058286376 -0.0057729143 0.0954267 -0.04065318 0.012371645 0.009624611 -0.1115139 -0.055258077 -0.054710295 0.097221084 -0.13225873 -0.09271379 -0.04326151 -0.1405771 0.007161666 -0.04138003 0.039402947 0.10271878 -0.045742255 -0.06447615 -0.04622125 0.10777587 -0.01715213 0.031613275 0.052082937 -0.11159899 -0.041910216 0.16227786 -0.038539458 -0.009657051 -0.047331143 -0.0116342995 0.005658594 -0.02577816 -0.14292623 0.061185338 -0.03654712 -0.037163068 -0.034186877 -0.04151374 -0.19732676 0.05984375 -0.06486097 -0.0786484 -0.05393752 0.013964891 -0.14508918 0.07448645 0.010625507 -0.0659679
शेर -0.05198899 0.14123665 -0.010019315 -0.046324152 -0.049837325 0.08338943 -0.091613434 -0.06720306 0.024607215 -0.067050725 -0.060336147 0.027499491 0.08401871 -0.11138704 -0.012989831 0.0027408164 0.01810608 0.041123196 0.012388708 -0.022211201 0.065054975 -0.053729605 -0.07276631 -0.011542709 -0.0138993105 -0.058467653 0.10786058 0.053617597 0.035994675 0.15890649 -0.0435006 -0.022651374 -0.030453319 0.07025406 0.01862076 0.14048468 -0.029511355 -0.07372082 0.084097765 -0.0830953 0.0050534303 -0.029654443 -0.12893768 -0.19570978 -0.04413073 -0.015528708 0.01599222 0.02608481 0.011532466 0.06680204 -0.0076497165 -0.043150514 0.14083771 0.031651292 0.04518243 -0.034598548 0.0665496 0.061202664 0.12455032 -0.08293699 0.023022054 0.00929514 0.06299804 0.07430776 0.0640172 0.048345786 0.16706666 0.01375096 0.018478608 0.06774089 0.059543088 -0.015850807 -0.04154439 -0.04967589 0.046188053 0.012191617 -0.1593144 0.04673256 0.0007255299 -0.0870671 0.03008936 -0.03149232 -0.09100093 -0.059220888 -0.11317863 0.1430865 0.0669946 0.08521497 -0.03717278 -0.08831934 0.019621762 0.012260299 -0.03649107 -0.042731002 0.015106153 0.0056342627 0.0054454724 -0.090078846 0.035415113 -0.042171046
दिन -0.11177392 0.040056232 0.050742097 0.09199475 -0.13006994 0.013302723 -0.10895426 -0.06870465 -0.024421848 0.091602035 -0.06338996 0.07365841 -0.04165164 0.018941574 0.019413218 -0.03603223 -0.046057843 0.023810068 0.013751027 -0.053508732 -0.027224148 -0.08445396 -0.10317865 -0.06081915 -0.08038334 -0.1613219 0.091990836 -0.06768008 0.0563053 0.06572456 -0.08349359 0.022971258 -0.009540325 -0.12652163 0.06547927 -0.02286423 -0.11508712 -0.026054252 -0.027186394 0.12318353 -0.011720424 0.03787186 -0.06261062 -0.11639941 0.046985924 0.03448095 0.09700462 -0.08563582 -0.007491353 -0.04974345 0.067299 0.07060404 -0.070426546 0.021224003 -0.030602701 -0.035059888 0.029530931 0.04429918 -0.11784193 -0.02585821 0.0050239307 0.023776997 -0.059558094 0.065416455 0.08792456 0.023790805 -0.023013182 -0.055612564 -0.03267591 0.10535454 -0.0685833 0.041154757 -0.07676789 -0.091226816 -0.040797036 0.094916664 0.115300246 0.0077041243 0.020144552 -0.03945164 0.030631768 -0.011046238 -0.08472101 0.06791372 0.06147863 0.121091984 0.013720888 0.14216608 0.08969722 -0.18561643 -0.037824128 0.08013444 -0.0072884513 -0.09881649 -0.018162185 -0.013492968 -0.027915511 -0.07976554 -0.038784873 -0.17884843
उसकी -0.20557392 0.02509452 -0.12449897 0.06858157 -0.03675423 -0.05321587 0.07930049 -0.020213105 -0.0008635219 -0.08918883 0.013592248 -0.055901848 0.024057629 0.004641793 -0.17356016 -0.070258394 -0.09434362 -0.011945063 -0.035460662 -0.060222905 -0.11207543 0.0015048828 -0.064769365 0.055058777 -0.027101671 -0.010391913 0.04708542 0.013509899 -0.078188404 0.099627964 0.12235832 0.12761696 0.020583903 0.078872725 0.07232612 0.030795688 -0.056818537 -0.03535054 0.012271955 0.04075951 -0.13156086 0.0062320586 -0.15351455 0.08700306 -0.07293443 0.06410634 -0.018426625 0.23189911 -0.058366176 0.1304543 -0.08118443 0.09160038 -0.052043837 -0.062964454 0.028066263 0.068066254 -0.09402934 -0.03303053 -0.081446044 0.060597073 -0.1292475 0.030690987 -0.071839966 -0.0817222 -0.18585786 -0.07846125 -0.050030928 -0.057575766 -0.060038343 -0.0066382904 0.07220118 0.060354788 -0.01613357 0.05821845 0.13647288 0.04035787 0.03882854 0.0046565947 -0.14499216 -0.01740406 0.14915138 -0.061428763 -0.08345712 0.08492402 0.051657975 0.02072785 -0.014235498 0.026114466 -0.056526255 0.107921064 -0.0130262235 0.0022926228 -0.06671617 -0.19404152 -0.0025521242 -0.08969721 -0.23887481 0.01533654 -0.12372132 0.08374305
कर -0.051801108 0.043134518 -0.002340075 0.112072304 0.032129828 -0.0139143905 -0.024175458 0.05102212 -0.1696963 -0.048846412 0.08810274 -0.0059500705 0.011359838 -0.0019336364 -7.6109195e-06 0.073237956 -0.02862401 -0.044601765 -0.009865754 -0.12432204 -0.041165024 0.018246876 -0.015028939 -0.09298074 -0.050319258 -0.038510293 -0.020712217 0.0037226083 -0.045560185 -0.035346128 -0.114897646 0.08821287 -0.015000822 -0.04221196 0.018198092 -0.011944839 -0.048206557 0.039358515 -0.015271594 -0.074656576 -0.050480966 -0.03669819 -0.022169914 0.027570626 -0.0480259 0.11622206 -0.04519886 -0.009338466 0.024385717 -0.06655992 0.11292251 0.03670456 -0.050597902 0.08609003 -0.059202038 0.011226127 0.09571234 0.05031088 -0.010070871 0.04684774 -0.067952946 -0.18621917 0.07348155 0.031920385 -0.12814502 -0.08164469 -0.03351935 0.05605835 0.03726861 -0.1100549 0.08992135 0.018937862 -0.033673592 0.03098911 0.05198799 0.021332722 0.05070104 -0.08112769 0.0053169914 -0.06589387 0.018299002 0.050423007 0.04579171 0.07555392 -0.122799866 -0.012216664 0.03171626 -0.025629062 -0.019165937 -0.058693487 -0.061792158 0.03392614 0.024466056 -0.013042144 -0.09836957 0.07650846 0.10018904 -0.019770352 -0.08112377 -0.03292409
बंदर 0.067043416 0.009981914 0.030333748 0.0820151 0.02791007 0.028238982 0.13359897 -0.010072207 -0.012519859 0.011305384 -0.061986063 -0.055132847 -0.009513455 0.0052579753 -0.005133458 0.02164507 -0.06275998 0.017916052 -0.010923124 0.061441693 -0.057954624 0.051965512 -0.08968284 -0.04098797 0.008160332 0.04208878 0.039361756 -0.0367895 -0.028104689 -0.06674517 -0.048874784 -0.052646548 0.0002865513 -0.07450879 0.044981636 -0.023570798 -0.11905945 -0.010829185 -0.06089498 0.057760336 -0.02722925 -0.004023682 -0.0047289147 0.019101162 0.11117955 0.030298533 -0.11893303 0.05071784 0.023733981 0.1424391 0.12300393 0.071108915 0.00064102246 -0.028243402 0.0588601 0.012200422 0.008752711 -0.08182603 -0.073039755 -0.022148766 -0.0016643861 0.045716424 0.09839085 0.050040457 0.10398597 -0.04222611 -0.027791718 -0.030495627 -0.0128747355 -0.047173973 -0.0045431918 0.025412442 -0.01749341 0.036301237 -0.09141819 0.007761984 0.14646092 -0.05040928 0.04394442 0.04907281 -0.09229598 0.032457378 -0.028868338 -0.017169746 0.0018737807 0.0049921465 -0.053564932 -0.11710959 -0.067252055 -0.006957575 -0.033283345 0.050756738 0.05010179 0.08891851 -0.11286614 0.05118456 0.013474757 0.11059037 -0.051579643 0.072259046
चूहा -0.12458035 0.05265514 0.035769474 0.044304673 0.09190249 0.083274916 -0.073155224 -0.026068492 -0.129892 -0.022281516 0.03791345 0.046392746 -0.087488756 0.056643162 -0.051016424 -0.010575661 -0.107861295 0.0041763363 -0.06092747 0.17870095 0.013116378 0.035138775 -0.00014181648 0.079787776 -0.06343707 0.11284592 0.039045807 0.080955364 -0.08205978 -0.055052377 0.09870622 0.01510568 0.0003974228 -0.027672542 0.020844135 0.07216588 -0.11230413 0.045892954 0.16335316 -0.012460858 0.0027146486 -0.0242018 -0.07602588 0.079445235 -0.085226506 0.021777442 -0.066779405 0.114427246 -0.07733237 -0.089758664 0.0041528353 0.0028816203 0.08019487 0.05425777 0.021208592 0.10328757 -0.08836454 0.059668478 0.035751633 0.042912796 -0.024600925 0.07592269 0.15340321 0.031140966 -0.06902798 -0.09374376 0.0071312133 -0.090598926 0.06004291 0.010030991 0.11758572 -0.028321972 -0.035636783 0.032905888 -0.025748037 0.013092342 0.062481273 -0.02763225 -0.029117992 0.035833344 0.102875955 0.011248965 -0.15477309 -0.0154991485 -0.06699405 0.04642716 0.011261998 0.11861083 -0.054964915 0.079684034 0.039774396 0.1597843 -0.053639643 -0.071713895 0.061555345 -0.01920036 0.002581371 0.049862064 -0.017956955 0.011582453
कोई 0.03476324 -0.14156589 -0.060794976 -0.009199534 -0.07146994 0.0005131063 0.043447632 -0.06931891 0.027301203 0.017887963 0.049390078 0.04261001 -0.21397565 0.075065255 0.015364383 0.097089425 0.0008706591 0.00012587299 0.08960501 -0.19602242 -0.018750194 0.055939235 -0.030829964 0.053845435 -0.02099013 -0.08533868 0.0154302195 -0.06277031 -0.09618924 -0.027965382 0.0020073992 -0.029423248 0.057185877 -0.021818615 -0.017030807 0.04104563 -0.013796507 -0.01801589 0.03380613 0.085218504 -0.05066973 0.026714316 -0.027413666 0.0065980363 0.104389794 -0.012513404 -0.083454534 0.028638648 0.08861286 0.08548111 0.14564413 0.005353442 -0.036036704 -0.058132198 -0.043030426 -0.09034769 -0.03238704 -0.13832171 -0.044614464 0.075959995 0.04789027 0.010978781 0.04311115 -0.0012144413 0.036794633 0.050566208 0.027217748 -0.09065739 0.10800763 -0.037885346 0.11503079 -0.076455265 -0.0060895905 -0.08545846 -0.12133621 -0.100060746 0.19765805 -0.040729977 0.047788016 -0.10099535 -0.026057338 -0.032449994 -0.046266053 0.18174309 0.03869281 -0.1797317 -0.16029999 -0.110504985 0.0357442 0.05509315 -0.067925945 0.046020977 0.03174459 -0.013124259 0.017831935 0.041235574 -0.047816463 0.05167073 -0.1346657 -0.073767
शिक्षा -0.012076232 -0.08340352 -0.025800215 -0.02965677 -0.059346285 0.06976133 0.044540048 -0.013746906 0.06966868 0.07160381 0.18088612 -0.08687164 -0.08585068 -0.03902806 -0.05051422 -0.009217851 -0.08769256 -0.020020844 0.023908455 -0.09181053 -0.09520608 -0.06424825 -0.011022891 -0.084038354 -0.03324772 -0.059057828 -0.0053416407 -0.15044208 0.0760075 0.056862622 0.036232427 0.023967935 -0.020196034 0.08581826 0.16539982 0.037289172 0.022196202 0.0077170045 0.029910399 0.06938482 0.0009495612 -0.034073383 0.063158706 0.10606855 -0.010859719 0.022502005 -0.01637919 0.02574938 0.05250956 0.04293816 0.0077941893 -0.038257092 -0.092359476 -0.091132134 0.07416561 0.1175161 -0.04176583 0.12601474 -0.015065839 0.009261562 -0.001969298 -0.05755735 -0.0058178036 -0.058271535 -0.03694881 0.08216292 -0.06696767 0.076735675 -0.011630994 0.055212896 -0.03802577 0.08287455 -0.0778336 0.040765498 0.02130312 -0.09150367 0.00047054572 0.031463206 0.033230875 0.042530425 -0.05903826 -0.08038858 0.05194834 0.08027141 -0.00042057608 -0.016614098 -0.036962595 0.033951078 -0.060534608 0.107400455 -0.0031182393 0.030214688 -0.015934717 0.017167829 -0.0459194 0.012942974 -0.05213586 0.03360458 -0.14548315 0.097193114
जब -0.05843568 0.19774073 -0.09707229 0.04520277 -0.037279166 -0.072122425 0.025780132 -0.051913377 -0.08334371 -0.07030459 -0.063333124 0.059502885 -0.0076553826 0.05199699 0.037611254 -0.057293825 -0.073738486 -0.20867474 0.023302667 0.19384803 0.05713815 -0.06570996 0.030579329 0.12577859 0.08135869 0.06211332 0.0895522 -0.014034852 -0.15082608 -0.13833347 -0.016293924 0.12652896 -0.09470599 -0.030967494 -0.14156611 0.11515325 0.01371444 0.14010848 0.01769686 -0.045436658 -0.07731693 0.0747557 -0.14011271 0.0069651585 0.049616065 -0.07448206 0.08789113 -0.013287672 0.03478802 -0.07839365 -0.10837902 -0.019800527 -0.031848542 0.08686637 0.03187095 0.011783588 0.042661697 -0.13796227 -0.02694519 -0.044325087 0.03004291 0.06004427 0.07519563 -0.015216442 -0.16729374 0.05672347 0.023594303 -0.0022990357 0.021926178 0.011571033 0.07138991 -0.13484874 0.16361971 -0.002136644 -0.01895342 0.14466864 0.0021497142 -0.0023929595 -0.05739003 -0.023100384 -0.003462772 -0.0014946418 0.0799521 0.1326938 0.081207104 -0.09282159 0.12668908 -0.061834414 -0.07158644 0.05513915 0.10537723 0.10610467 0.078803495 -0.10228125 0.18163548 -0.060902253 -0.060655747 0.0522834 0.0012840956 0.06862746
थी 0.08295966 0.08682158 -0.12853377 -0.015685668 -0.052717187 -0.0007827775 0.0632656 -0.060337357 0.0027763213 0.11138001 -0.087384604 0.034224454 0.13912606 -0.12499795 0.091885075 0.035788465 -0.006161254 -0.15786111 -0.033645187 -0.068573035 0.08754879 0.13084267 -0.05685833 -0.13170576 0.054994147 -0.019601485 0.004999485 0.08842583 0.122716986 0.09422119 0.05162424 0.09347064 -0.19081013 -0.052048866 0.1423702 0.040235564 -0.10825873 -0.07866219 0.17982866 -0.11848829 0.123703234 -0.0073433486 -0.08372206 -0.13681057 -0.07280615 0.030340254 -0.05430114 -0.015884947 0.015280689 -0.08525426 -0.012975401 -0.0049466067 -0.039036866 0.056592543 0.05551889 -0.084523804 0.056691725 0.06264253 -0.06705182 0.053631783 -0.038300633 0.028283197 0.083433755 0.057099722 0.073297486 -0.030008517 0.018307215 -0.026048545 0.063916594 0.047535095 -0.07647335 0.01711708 -0.03075504 0.03923207 -0.02876742 0.010886026 0.063512966 -0.08075416 -0.0024708307 0.06871253 0.08889465 0.025722465 0.10920738 0.07017225 0.049193867 0.03531525 0.08454941 0.02223388 0.06484279 0.05564871 0.006928929 0.027887117 0.14276116 -0.05843332 0.07863774 0.052315988 0.0059018736 0.13523668 -0.033917256 0.010123542
हुआ -0.014936906 0.023482649 -0.07196824 0.10384653 -0.043526396 -0.16912305 -0.02746265 -0.010996862 -0.05424827 -0.09341069 -0.06649545 0.017197499 -0.07102008 -0.02349537 0.03457144 0.05115068 0.009596161 0.034640737 -0.029990446 -0.036877055 -0.053092036 -0.09227242 -0.041241728 0.012936766 -0.056057937 0.031367023 0.07077012 -0.07115227 -0.01133932 0.11739511 0.088233665 -0.018431483 0.01815427 -0.07962083 0.020577861 0.041407064 -0.07934889 -0.044944294 0.08574558 -0.015557649 0.011937073 0.026702972 -0.0113045145 -0.0011486252 0.07784933 0.014973846 -0.070769124 0.09792691 0.050033096 0.0819033 0.07396954 0.0069899093 0.025868066 -0.115301974 -0.0602471 -0.057099976 0.0051483447 0.07583608 0.009280457 0.088395044 0.11953404 -0.050650366 0.13378803 0.0043386077 -0.056201097 0.015465555 -0.06254863 -0.10416743 0.1270338 0.017494526 0.011306025 -0.14137675 -0.051318113 0.055442028 0.06560803 -0.055313304 0.15345483 0.030052511 0.046776358 0.081558034 -0.1122358 0.016254706 -0.106902055 0.089756034 0.0914046 -0.011198867 0.0011911794 -0.0031544461 -0.02752559 0.07449069 -0.115805104 0.008987741 0.08457897 0.02520136 0.032932285 0.0028339617 -0.11130094 0.05386204 -0.095713295 -0.049331255
दिया 0.06620819 0.010561727 0.042435832 -0.006318372 -0.043466847 0.039649226 -0.027961254 -0.03701996 -0.17307682 -0.008858679 -0.13696028 0.067666635 0.045146555 0.00797804 0.006372237 -0.050432563 0.0039766384 -0.0031977564 -0.0541034 -0.05991051 0.016031154 0.07522368 0.05751023 -0.0887571 -0.06584364 0.01266496 0.02770989 0.061187126 0.10824252 0.017814822 -0.0030904878 -0.027256 -0.08949565 -0.085945204 -0.047175474 -0.11102766 -0.090612955 -0.015089462 0.03845771 -0.08078953 -0.017068585 -0.09898623 -0.046535946 -0.015072976 -0.034308344 0.060679067 -0.111318186 0.0942797 0.026365494 0.049119968 0.0074654664 0.0031121194 -0.04104841 0.09796804 -0.09355488 0.061363406 -0.09348699 0.03800596 -0.030709678 -0.08975397 -0.0141666345 -0.013267016 -0.038247213 0.14045267 0.104211055 0.012355538 -0.0100666415 0.03824195 0.06850522 -0.079378545 0.04542257 -0.010986759 -0.07458249 0.049141433 -0.08656075 0.012547381 -0.052869853 0.06281355 -0.023300843 -0.012852531 0.06636549 0.10084182 0.06455917 0.019162275 0.014080297 -0.05908221 -0.011408841 0.060588107 -0.13859859 -0.026301004 0.04269763 -0.040186945 0.050863635 0.032935873 -0.08034554 -0.03685806 0.012253138 -0.014935834 -0.095181525 -0.040696368
वहां -0.1548942 0.009951187 0.22778596 -0.07164887 0.050555404 -0.016624454 -0.1461244 0.060429316 -0.07914928 -0.019747226 -0.0062315487 -0.032379694 -0.12493903 -0.011700626 0.17733532 0.08710864 0.06498725 0.05760203 -0.056297425 0.06846874 -0.00711504 -0.051104125 0.06392661 0.04879368 0.008232489 0.046390053 0.059728164 0.05872318 -0.06679326 0.018294135 0.075424366 -0.057957288 -0.099247344 0.0075200633 0.0198854 0.014415077 -0.023204355 -0.08021253 0.046244532 -0.029699324 -0.0019181306 -0.013967884 -0.11162392 -0.072312325 -0.09237823 0.0050337072 0.05767193 -0.10303281 0.016491858 -0.08345744 -0.04708722 0.108804755 0.10965796 -0.032207962 0.035288196 -0.066477306 0.063614815 0.037727952 0.045105655 0.07156513 0.039539404 -0.1423608 -0.063362025 0.0030763152 0.051113963 0.049027845 0.07467334 0.18086565 -0.09686358 0.029285245 -0.032810636 0.029067019 0.09870329 -0.106705815 0.027043305 0.10027212 0.011722502 0.0862594 0.023948144 -0.01743366 -0.052991338 -0.15227114 0.0006473563 -0.055812664 -0.0929149 0.07002908 -0.067034 0.06626172 -0.08107622 -0.02999213 0.0571666 0.13152999 0.07015989 0.07236218 -0.02098713 -0.03490586 -0.06740427 -0.10883891 0.027134035 -0.045376636
अमन 0.017771278 0.0054344535 -0.042136203 -0.019162549 0.0470084 -0.04350542 -0.0052537806 0.0033361688 0.028076682 0.0017212145 0.032589603 -0.0006702915 -0.045194007 0.014497567 -0.03310591 -0.048580673 -0.02306652 -0.029936625 -0.016213499 -0.016227007 0.03736602 -0.0034797788 -0.013607085 -0.023060549 -0.041800223 -0.046226002 0.019652817 0.040774558 0.048112776 0.004279483 0.028076496 0.045928847 -0.045248594 -0.037274383 -0.024242414 -0.041371357 -0.008032121 0.0126698725 0.049200144 -0.013497543 0.010750998 -0.03086288 0.049977686 0.002482675 0.033989515 -0.01893047 -0.017327249 0.036065508 -0.03739232 -0.003887307 0.03988382 -0.014703356 0.017873634 -0.018001556 0.02198353 0.019613694 0.042181876 0.02214792 -0.042998623 0.00022652 0.014101062 -0.0060552843 -0.0048651323 0.040593434 0.0251295 0.027047109 0.008130264 -0.04265504 -0.027449524 -0.007045854 -0.014280699 0.04691347 0.04319528 -0.0048847683 0.032548238 0.011049103 0.010287821 0.035118166 0.0284716 0.022677306 0.04980315 0.04422773 0.032090966 0.046401706 -0.020051075 -0.020420779 -0.0022056475 -0.048552312 0.0068004727 -0.008372523 -0.0016791001 -0.014241777 -0.021888638 -0.0038606748 -0.03114519 -0.042761147 -0.023921812 0.022385921 -0.031340018 0.048744727
दी 0.073823676 0.041589238 -0.1287536 0.0066369623 -0.048351463 0.043124057 -0.0036375427 -0.10004092 0.08116113 0.03853262 0.0128112165 -0.039269984 0.004984713 -0.07015865 -0.01817189 0.05614556 0.06393765 -0.022149663 -0.03051269 0.013004994 0.018938126 0.1348939 0.06545296 -0.06595233 -0.0631788 0.033241797 0.045705818 -0.10142063 -0.046420448 0.043115184 -0.121881776 0.0010016002 -0.0017373515 0.01616189 -0.059928138 0.10648574 0.077509224 0.011581588 0.04425848 -0.049111847 0.008293778 -0.020374566 -0.075448565 0.02660591 0.09754726 -0.070271865 0.02948983 -0.028983453 -0.009972343 -0.024508633 -0.018466119 0.044847198 0.014629631 -0.027228553 -0.10114019 -0.029911831 0.05897195 -0.053575296 -0.1423519 -0.025962254 0.03941411 0.0024657282 0.023194844 -0.11080742 -0.0116675515 -0.021312337 0.14030354 -0.03203766 0.070202984 0.04011429 -0.052976135 0.008509661 0.016115777 -0.11424283 -0.03134283 0.0044623637 -0.05241107 -0.027329043 -0.0051235706 -0.04483378 -0.09453309 0.050178587 0.18643232 0.051278014 0.0070769056 -0.0052459 0.06116846 -0.085456714 -0.045308832 0.012735848 0.00567776 0.017117467 -0.03882809 0.035977755 0.027936881 0.12734286 0.0016644602 0.040986326 0.031133022 0.058609765
इस -0.05531556 0.038985472 -0.09264586 -0.08500154 -0.11916975 0.0069961804 0.011626221 0.005069688 0.10991549 0.0032897252 0.03925615 0.04807003 0.09517533 0.010175167 0.0061640176 -0.0700911 0.0035166778 -0.09134086 0.0493019 -0.035339046 0.032687347 -0.05677191 0.06250533 -0.04251153 -0.0034871434 -0.103559986 0.009405301 0.02283824 0.12887534 0.08669194 -0.09432362 0.037850324 -0.037223745 0.16325583 0.02694547 0.039141405 0.026267832 0.088577956 0.2108334 -0.13527463 -0.01959104 0.07777156 0.02913862 -0.08046238 -0.015335425 0.0681509 0.06392634 0.00082194887 0.0032050319 -0.062734574 0.040578526 0.005070115 -0.0034491802 -0.0327685 0.058916632 -0.034979593 0.00561825 -0.035556633 0.06154092 -0.13623382 0.062385593 0.06995587 -0.105597645 -0.019687926 -0.022499638 0.040607527 0.0052986257 -0.028123096 0.089780025 -0.04773563 -0.05091824 -0.043130845 0.026422147 0.061734263 -0.010907948 -0.07372111 0.037430808 -0.004240522 0.03921064 0.12591752 0.07982318 0.0141463755 0.19409336 -0.080948286 -0.13161832 0.0518469 0.12355004 -0.02034366 0.06522424 0.03581816 0.05256408 0.048674516 0.013401384 0.049425922 0.059389465 -0.02053486 0.09453748 0.120629504 0.025034424 -0.012027983
यह 0.0032858842 -0.014373733 0.12626828 0.10574626 0.06810014 0.10671712 -0.07416813 -0.12900628 -0.063118644 0.008799924 -0.042495962 0.026480984 0.21570036 -0.02164946 -0.06541454 -0.041892104 -0.08878719 -0.0032864367 -0.07373095 -0.0035401115 -0.061549112 0.14983419 -0.08612886 -0.08327939 -0.04603261 0.015409264 0.10994229 0.040606074 0.13783142 0.12299014 0.11946634 -0.04286288 -0.061292864 0.0016790904 -0.006241911 0.03173009 -0.019204363 -0.013895391 0.08740291 -0.1327265 0.08266195 0.025739063 -0.011116972 -0.14909218 -0.027243037 0.03805894 -0.07879855 -0.04024624 -0.085506946 -0.06844667 0.004896819 0.032653145 0.06654972 0.08199939 0.1182212 0.012234141 0.00565118 -0.008665936 -0.015555142 -0.011376849 -0.06403126 0.009148274 0.104027055 0.012257757 0.09629245 -0.101101846 0.015807474 -0.10017574 -0.08750296 -0.1621276 -0.017930862 0.017540399 -0.12711705 0.12450985 0.06837623 -0.016823558 -0.003916525 -0.068484 0.022201132 0.03722232 0.0024216368 -0.072495095 0.093213975 -0.114688285 -0.08067899 0.029308604 -0.09984183 0.032587502 -0.05796805 0.014597645 -0.10361662 0.042676635 0.03566896 0.0989117 0.04696981 -0.0092182625 -0.13039924 -0.07900665 -0.061402384 -0.007354081
जा -0.033574812 0.07799473 -0.036889955 0.01802958 0.0029366356 0.105800495 0.074048296 0.03928369 0.050013904 0.04431866 0.032704376 0.05695519 0.051031943 -0.046167992 -0.036794458 0.004862694 0.010275212 -0.029672563 0.05796726 -0.13467184 0.0015761242 0.0046663503 -0.12100338 -0.00096431014 0.07682084 0.069062546 0.01831192 0.028091472 -0.027978905 0.017934803 -0.061999213 -0.010143429 0.010523701 0.05842731 -0.13921349 0.05974492 -0.0072183143 0.030882396 0.049723756 0.016601503 -0.069884025 -0.022784678 -0.002941653 0.12748274 0.08355148 0.15664367 -0.02125521 -0.017269183 -0.08457595 0.07647356 -0.0062490925 -0.037907753 0.024896175 -0.021691898 0.041406486 8.532429e-06 0.13767035 0.03274198 -0.020237138 0.026355647 0.06619978 0.077574305 -0.12493934 0.0374352 0.015109503 -0.046286132 -0.033477083 0.0470824 -0.08158066 -0.022975326 0.139889 0.09115375 -0.03049671 0.014033426 0.0064490107 0.036874007 0.058663942 -0.074083164 -0.019262897 0.0064237905 0.020776529 -0.004677318 0.016344445 0.039646365 0.00520622 -0.08116218 0.017910417 -0.05004949 -0.087811336 0.01732951 -0.0062756287 -0.00013247512 -0.010712418 -0.06617529 0.098826654 -0.018316032 0.15049061 -0.07037812 -0.052443076 0.04510642
फिर 0.014403367 0.101075254 -0.10591728 -0.052463554 -0.025416704 -0.078155056 0.095364586 -0.012780954 -0.103892535 -0.11416017 0.09948424 0.07589391 0.22408612 -0.105945356 0.005148847 0.009555696 -0.026956735 0.03243733 -0.07756678 -0.20066148 -0.022876961 -0.027916098 0.08122365 -0.08024291 -0.024919068 -0.052618906 0.10755713 -0.019048832 0.0569564 0.14431576 0.014041675 0.04201356 0.0041088196 0.041925937 -0.013464752 0.015093319 0.0515365 0.07883837 0.018351756 -0.119928315 0.15628818 -0.1354846 0.061076865 -0.09170099 -0.05706269 0.024497068 0.06769322 0.016540417 0.01941645 0.06667641 0.0020790293 -0.05571498 -0.05896157 0.12565134 0.09082539 0.05048389 0.038883846 -0.062043115 -0.1265899 -0.15460655 0.004555501 0.03262854 -0.15377235 0.03482565 0.049762964 0.098355435 -0.10794353 0.19596793 -0.02225868 -0.14337967 -0.16600414 -0.050186455 -0.10946203 0.00025884248 0.037420623 -0.11571893 -0.00096145354 0.14648685 -0.053855255 0.13957866 -0.10220837 0.13746865 0.15082467 0.09242479 -0.08355161 0.03543923 -0.01756803 -0.02690249 0.03361509 -0.07550334 0.14394952 -0.010113943 -0.091937065 -0.18306096 -0.06265154 0.16068539 -0.039809797 0.046922445 -0.08106575 -0.028318714
हुए 0.06009916 0.16233857 -0.007788486 0.03442911 -0.07280822 -0.040990442 -0.08531508 0.047129903 -0.17955628 0.0027915505 -0.06065547 0.05695739 0.08860249 0.0051686508 0.08789348 -0.062101755 0.015738325 0.04436875 0.020568466 -0.16155693 0.03785407 -0.020649936 0.1276989 -0.008897756 -0.031702414 -0.03731986 0.029177109 0.10283316 -0.037432775 0.080199815 -0.051785123 -0.083508074 -0.09830611 0.061024576 -0.011350802 0.031867377 -0.12498181 0.045777757 -0.014258265 0.038497746 0.04512698 -0.094379246 -0.05608302 -0.049075652 -0.082577564 -0.016551282 0.050136648 -0.105862126 0.0493132 -0.10257966 0.000498949 0.0245852 0.04729944 0.07967008 0.041260086 -0.040058013 0.006306402 0.20033343 -0.014108396 -0.11556759 -0.010658979 0.01824066 -0.069776624 0.08209666 0.014608877 0.031400166 0.052402616 0.11340157 -0.12824178 0.022281284 -0.11864111 0.06534013 0.061240423 0.014702741 0.0045954455 0.043712977 -0.06727829 0.10512281 0.009440132 0.0821733 -0.015985511 0.051416617 0.032363724 -0.0852538 -0.06227198 0.08574032 0.0070680273 0.13442819 -0.07879954 -0.055090416 0.054139502 -0.025015015 -0.0037369684 0.05123529 -0.105827905 0.023954362 0.08091038 -0.12580994 0.021053758 -0.08651746
लिए 0.054242987 0.11529079 0.015475089 0.08677929 0.02784207 -0.02614753 -0.07017767 -0.0066048577 -0.18870887 -0.05307987 0.050966315 0.17948939 -0.0368019 -0.058716282 -0.0017414142 -0.0069451607 0.042684425 -0.007842037 -0.17573501 -0.073432334 0.11202096 0.06420975 0.034462873 -0.07635497 -0.1415488 -0.001054678 0.0374049 0.1505538 -0.02002721 0.16399345 -0.019644039 0.018175999 -0.15897772 -0.024354514 -0.06661635 0.07584592 -0.06489575 -0.10014224 -0.028503671 -0.14952531 0.05801561 -0.05373162 0.015119405 0.010542561 -0.10224266 -0.098091885 -0.09398642 0.03623313 -0.036364496 -0.12875983 -0.17924634 -0.037541393 0.046180062 0.07643678 -0.07071632 0.024475938 0.08593003 -0.1020413 0.019974152 0.004026517 0.09853055 -0.04087931 -0.019526165 0.19965734 -0.077726886 -0.035967067 0.15044762 0.024657514 -0.019097365 -0.09759652 -0.07313075 0.13146318 -0.08458159 0.078974836 -0.015329811 0.045762673 0.0037955076 0.17721403 0.043817036 0.046838198 -0.03411431 0.013932765 -0.06217713 -0.014341827 0.06879822 0.07007245 0.0686928 -0.019133797 -0.060781218 -0.19401036 0.038285386 0.06830631 -0.09230421 0.032500237 -0.15688542 0.027048247 -0.08956053 -0.077825755 -0.030229889 -0.07464808
खूब -0.020270621 -0.050203346 -0.033730377 0.055938907 -0.053016055 -0.060198084 -0.02166031 0.05998237 -0.06549765 -0.07836187 -0.038531374 -0.0007361348 -0.056854483 -0.043752104 -0.005806464 -0.033410925 -0.031462792 0.06549571 0.07974483 0.046375647 -0.1282915 -0.10667852 -0.05039849 -0.10126457 -0.041286975 0.13504548 0.05065763 -0.18630458 -0.049259376 0.022033209 -0.0043366686 0.069013946 -0.003047477 0.02598695 0.04392782 0.105601326 0.025671981 0.06369202 0.10271365 -0.025513941 -0.06905527 -0.009859037 -0.018049385 0.069507316 0.07494433 0.07122042 0.07489491 0.08486349 -0.029714948 0.16376424 -0.024846362 0.01267807 -0.024165267 -0.12576942 0.014348279 0.10407447 -0.08710305 -0.08181405 -0.086970076 -0.07480814 0.08819986 0.09565301 0.07919726 0.021747557 -0.10235891 -0.08910576 0.017560927 0.034223497 -0.011526728 0.047817145 0.09576503 0.08957586 -0.07929439 0.09279803 0.11591111 -0.034480724 0.024825852 0.03993225 -0.038582888 0.09768614 0.044501476 0.053604946 -0.029079828 0.10442256 0.040888853 -0.027354361 -0.02689659 -0.09118835 -0.035235558 0.18233633 -0.09650697 0.0009069143 -0.022439204 -0.13594294 0.038526736 0.024462147 -0.041681595 -0.035567656 0.0077507617 -0.014344946
उन्होंने -0.068568975 -0.04438261 -0.12325464 -0.035245426 -0.0675619 -0.12962684 0.034626734 -0.12010956 0.053363957 -0.053625368 0.01475735 -0.018316576 0.12421542 -0.015757758 0.014214062 0.038153443 -0.051388077 0.029132072 0.09062046 -0.15228394 -0.09227722 0.15274751 -0.105081126 -0.08398654 -0.0060778414 -0.10327368 -0.05442221 -0.110016234 -0.07851541 -0.01795176 -0.02046432 0.03110059 0.09721896 -0.07857783 0.13924839 0.072621815 0.090070724 -0.066251524 -0.07962323 0.14440681 0.011045399 0.1412613 -0.1219346 -0.050663803 0.07408621 0.13657829 0.011206101 0.128289 -0.059579827 0.034384895 0.08384714 0.17202516 -0.11656605 -0.1804678 0.05906982 -0.09508453 -0.046809744 -0.053063735 -0.049558107 0.0063060876 -0.022321323 0.042829007 0.081035726 -0.041972008 -0.0958 0.014570899 0.06967022 0.16702054 -0.008806934 0.13709523 0.103640035 0.06952879 -0.0125945965 -0.09099464 -0.029199835 -0.01709473 0.14378698 0.05404793 0.062178038 -0.043037467 0.010317764 -0.03572905 -0.078825906 0.095401876 -0.07424279 -0.017574878 -0.19170311 -0.052730948 0.18635711 0.027523223 -0.09146521 0.11395722 0.10306236 -0.03446192 -0.12715651 0.061107367 -0.12489417 0.04589461 -0.06798485 -0.02150591
जाता 0.14192425 0.06176237 0.0024830187 0.16244224 0.029220253 0.024001187 -0.11955246 -0.05367557 0.10677991 0.07033408 0.010710063 0.020121304 0.04418633 -0.04357875 -0.018284244 0.114525326 0.0045548566 -0.20213348 -0.07443312 -0.005446287 0.049295828 -0.019238982 0.12048852 -0.015493557 -0.21056171 0.09398242 0.045159142 0.10622241 0.026173988 -0.00089175237 -0.042309403 -0.087998606 -0.06046347 -0.0026909497 -0.113369495 0.06947881 -0.0537412 -0.054655567 -0.047411762 0.010611764 -0.03350495 0.054643303 -0.016703498 -0.110441804 -0.10390021 -0.1500675 -0.10188201 -0.0038013628 -0.029346462 0.04169436 -0.0682732 -0.1307847 0.12038236 0.093179144 0.1525114 -0.10344205 0.12518528 -0.16815573 -0.0150779 0.056372017 0.09618424 0.08809314 0.09436024 -0.020447442 0.06912823 -0.0622623 -0.03980148 0.03179988 -0.09341675 -0.018445482 -0.1092007 0.11564435 -0.051006854 -0.041272163 -0.10002392 0.0742821 -0.13664857 -0.021477966 0.053226616 -0.08013847 0.07849143 -0.046814393 0.17323408 -0.043897543 0.023477383 0.10374547 0.06536045 -0.044406038 -0.032121908 -0.085231714 0.1026869 -0.063466474 0.03205257 0.16763148 0.04231966 0.053716086 0.05605267 -0.050751638 0.0815404 -0.05146115
आ -0.115719326 -0.14633803 -0.02824621 0.069522485 -0.07952953 0.03514997 0.013951229 -0.07882686 -0.04179488 0.09909534 -0.07351633 0.025327487 -0.0032816683 0.05162763 0.009470906 0.059522007 0.06315231 -0.005053413 0.05469032 -0.0427574 -0.04277741 -0.054922577 -0.04684621 0.035572212 -0.0704945 -0.060747378 0.10885966 -0.16075172 0.020384751 -0.027203012 -0.02028168 0.103797495 -0.08725602 0.101106346 -0.047634203 0.101996 0.05599142 -0.0026244763 0.12616768 -0.0061586117 0.033410486 0.0145789245 0.1152938 -0.14654405 0.09792098 -0.03804155 0.02790679 0.046633206 -0.00013400808 0.029462935 0.02090887 0.057998013 -0.149415 -0.022848388 -0.11405386 0.044068895 -0.043619014 -0.011161281 0.021515258 0.10828879 0.03840082 0.06537759 0.075019784 0.05347905 -0.15543482 0.04854911 0.119236864 -0.11678994 0.14815062 0.06420999 0.055944122 0.0025018353 0.02611935 -0.0042041135 0.009892683 -0.07274449 0.060815144 -0.123204395 0.019667257 -0.059924163 -0.03616007 0.048766658 0.102753356 0.08470248 0.10151623 -0.025877394 0.018311705 0.05112161 -0.0437327 0.06047689 -0.07042912 0.05905775 0.014871486 -0.09432451 0.049394935 0.06585308 0.019767864 0.036000356 -0.0058590258 -0.030691657
किसी 0.13248403 -0.023414858 0.030462984 -0.00051458634 -0.15069534 0.00988334 -0.046243027 0.0650159 -0.0909667 -0.013314593 -0.15832673 -0.041495904 -0.06473103 -0.104133755 0.0075347135 -0.017330395 -0.060284104 -0.033084728 -0.040341433 0.030207021 -0.016512996 0.1012496 0.068560384 0.04413553 -0.01456095 0.07894989 0.1162414 -0.02075376 -0.020377716 0.05249699 0.060147796 -0.04623158 0.052927695 0.011472417 0.073266104 0.013691423 0.027357977 -0.06538853 0.057721432 -0.11850058 -0.025832126 -0.032939427 0.11693296 0.06104861 0.032413166 -0.06466949 -0.01547575 0.057120495 0.11996301 0.07493074 0.059652045 0.061185032 0.06382662 0.10598538 0.13621332 0.0037215133 -0.019950945 -0.18711406 0.0040588253 0.05366721 0.10389765 -0.11941497 -0.083118565 0.21619557 0.039050188 0.04901191 0.052568585 -0.0646653 0.034238994 -0.09562351 -0.02111839 0.14617735 0.07730778 -0.01672053 -0.064683415 0.012775936 0.12812743 0.0009513194 0.07970151 0.06511258 -0.07213237 -0.11646093 0.03891602 0.028641293 0.09281432 -0.07771636 -0.03996227 -0.11316321 -0.2207225 -0.064119995 -0.08060309 -0.06306375 0.00309056 -0.06355453 -0.06950899 -0.16196576 -0.046445288 -0.11916542 -0.10392174 0.019409936
लगा 0.058492634 0.008006247 0.07567247 0.03510344 -0.04096803 0.020215224 -0.02908067 0.015927888 -0.022745645 0.029141912 0.07354012 0.11218174 -0.01797669 -0.008397966 0.0025339157 -0.008658011 0.09911531 0.039307 -0.13798733 -0.141277 0.065082975 0.023339503 0.05802466 -0.07321916 -0.08030031 -0.17916647 -0.049111422 -0.019826328 0.09008882 -0.031401902 0.024482585 -0.050181676 0.11011319 -0.07673746 0.022417342 -0.013831326 -0.08866373 -0.064148076 -0.037290163 -0.026113974 0.084503 -0.045482222 -0.10667603 -0.033267356 0.011694218 0.038818374 -0.052122746 -0.067408584 -0.090011574 -0.011337685 0.09487969 -0.07767868 -0.09478235 0.047643986 -0.0427001 -0.09874045 0.085904546 0.039104275 0.05727215 -0.062492147 0.06272191 -0.026489323 -0.06954801 0.0024998148 0.031122703 -0.00894233 -0.03098408 0.012854706 0.003000938 -0.01014039 -0.05804998 0.06900398 -0.13657002 -0.052540176 0.042350944 0.057656683 -0.025681745 0.08609027 -0.05814788 0.0034862354 -0.013490198 0.1545405 -0.0009711664 -0.09665405 -0.11512534 0.06368696 -0.0037062026 0.0062366617 0.0013586825 -0.030781705 0.08773552 -0.0009250337 0.05246399 0.062003497 -0.16995476 0.113801226 0.06426316 -0.06966752 0.003422295 -0.06147055
नीचे -0.037251346 0.051926523 0.04500246 0.055922862 0.06107688 -0.07137358 -0.081339896 0.013415609 -0.019918539 -0.20338093 0.0036065944 0.03296692 0.0797781 0.027687555 -0.053402726 -0.039854866 -0.086922474 0.046436604 0.041245412 -0.10261815 -0.12578836 0.035141148 0.07468791 -0.0062547736 -0.12726013 -0.1213255 -0.016170781 -0.004919746 0.0039009538 0.022055086 0.10829368 0.05971507 -0.07696961 0.06841546 -0.094920345 -0.053008948 -0.020549947 0.05130616 -0.09346299 -0.11062789 -0.099091105 0.03339998 -0.1387348 0.0023046017 -0.02794857 0.099505484 -0.10785584 -0.061695144 -0.017852448 0.011208499 0.040791128 0.20702119 0.0052675516 0.0030691423 -0.15875217 0.036738466 -0.14343786 0.010177089 -0.11452308 0.046745732 -0.16740225 -0.07272693 0.05924004 -0.03758226 -0.07785821 0.039683644 0.11794764 -0.022596832 -0.15536314 -0.16940467 0.116312236 0.0888145 -0.014541766 0.1029207 0.01136228 -0.0451298 -0.070715904 0.030132024 -0.08579445 -0.04345507 0.044608198 0.04388937 -0.031487647 0.02548742 -0.04019113 0.0058178045 -0.2244015 0.051578328 -0.03123503 0.08570416 0.013329475 -0.095194966 -0.03914269 -0.024627527 -0.011793719 -0.09671723 -0.15064532 -0.12588716 -0.0040599736 -0.034907613
कुछ -0.16198377 -0.06513388 -0.049081877 -0.09540835 0.02336436 0.060328923 0.041766144 0.030921342 -0.044756293 -0.060140967 0.035601955 0.010657147 -0.011286364 0.102039814 -0.11257039 -0.008390709 -0.022658952 0.07476181 0.051091935 -0.106540024 0.027183173 0.07208187 -0.07580637 -0.027124757 0.0010186172 0.16401774 -0.0056781764 -0.059502278 -0.037403442 -0.11493252 0.107941836 0.1653995 0.02824367 0.021932036 0.039194603 0.044492427 0.029194795 -0.019766495 0.075403884 0.035154164 -0.031359494 0.109261 -0.10057539 0.059195124 0.005697582 0.05362911 0.011784968 0.0802336 -0.06988406 0.065109275 -0.09372318 0.14493427 -0.103544235 -0.02961843 -0.11457073 0.13241188 0.0055087004 0.05614926 -0.042397246 -0.035395257 -0.050311904 -0.063229784 0.0029212076 0.055489793 -0.044178385 -0.003966975 0.11913637 0.038718745 0.020724216 -0.02010951 0.10980557 -0.042048834 0.012149598 0.029613744 0.11734213 -0.016339641 0.108822346 0.1452523 -0.0903566 -0.043100752 0.064926594 0.02206919 -0.060633723 0.096294954 -0.031692315 -0.062114745 0.0053167054 -0.049315304 -0.049371447 0.049766224 -0.16594908 0.026178692 -0.030463528 -0.08460263 0.13450944 0.0515464 -0.031960577 0.0059750746 -0.08426953 -0.03640558
उसके -0.044037085 0.106879465 0.020715544 0.0012035641 0.09664329 -0.025962112 0.025646305 0.14167729 -0.16524333 -0.116944686 0.06225039 -0.0024544643 -0.044514947 0.1129005 -0.0733777 -0.15044668 -0.15754019 0.07389441 -0.05602482 -0.10360632 -0.04186565 0.09500874 -0.026746143 0.07239525 0.08485905 0.04792497 0.055958353 0.020489145 -0.007012004 0.0046546166 0.028513996 0.016121581 -0.083572805 -0.052057963 -0.13250303 0.016669441 -0.0043124924 0.13646618 0.023430545 -0.018979998 -0.1486301 -0.09479483 0.009168736 0.10772682 -0.009625819 -0.049009506 -0.07628313 0.1007782 -0.010146922 -0.021679804 -0.13186425 0.06880229 0.075980015 0.022615682 -0.09344931 0.10231427 -0.14039795 0.05595803 -0.053675503 -0.16016695 -0.041542858 -0.06607633 -0.0073838867 0.09577873 -0.220112 0.017090723 -1.38979285e-05 0.113857806 -0.081356004 -0.0749673 0.08319051 0.12310966 -0.13734534 0.086757444 0.09279937 -0.0033151913 0.15434329 0.08830774 -0.13767317 0.033301968 0.06314477 0.07241103 0.023573427 0.0943537 -0.06720894 -0.023429625 0.015554018 -0.112901 0.001216716 -0.005528313 0.07738854 0.07362892 -0.093889184 -0.054778118 0.020203825 0.04961246 -0.110236615 -0.016550355 -0.0727231 0.0435679
पेड़ 0.074607775 -0.009210759 0.016483517 0.0033003956 0.024269268 -0.094377935 -0.022073764 0.072522 0.03545756 0.06686115 -0.0035116575 -0.13370669 0.0013310752 -0.11385302 0.052749388 0.11242262 0.1354658 -0.049195074 0.11944607 0.008729191 0.07694461 0.026903939 -0.12334272 -0.0057651987 -0.08786674 -0.061570846 -0.10900915 -0.054467183 0.100294575 0.036522433 0.030638533 -0.05389559 0.009077912 -0.09059039 0.14665751 0.07543232 -0.06553148 -0.083903015 0.118299805 0.014833326 -0.030869402 0.10703063 0.024106337 0.026231492 -0.12268286 0.052090753 -0.042674474 0.15654258 0.06095098 0.07206622 -0.046001177 0.05426939 0.120420754 -0.2892023 -0.11830631 -0.06438245 0.07497555 0.020748127 0.1648692 -0.048665993 0.060148578 -0.18506789 0.028380534 0.20138222 0.09157031 -0.14697818 0.13538344 -0.023824977 -0.038293913 0.11785955 -0.09301454 -0.0010056129 0.03594822 0.12525313 -0.09114228 0.055665538 -0.073261365 -0.040972114 0.10671425 0.020563927 -0.010854663 0.022662098 -0.100490205 -0.1126611 -0.0008177942 0.063181184 0.08041536 0.14276753 -0.054535553 -0.090850584 -0.018548932 0.034204304 0.107026875 -0.08897765 -0.049265053 0.045408215 0.031620294 0.030582624 0.054009497 -0.05787936
हाथी -0.025311096 0.04169947 0.06767357 -0.07349728 0.046217583 0.030771418 0.008572765 -0.0379062 -0.1047569 0.043558232 -0.050342835 -0.050128218 0.11935252 -0.07668762 0.08595529 0.12095713 -0.023383828 0.08465566 -0.028460216 0.070101745 0.044890873 0.09271728 0.07035406 -0.024049047 -0.00071025675 -0.10457617 -0.019429257 0.039985616 0.058922965 0.10195022 -0.07401151 0.033291932 0.065252125 0.1347587 0.09529372 -0.025715208 -0.057807706 -0.096979536 0.0266813 0.028002342 0.02860278 0.018190637 -0.016558984 -0.04794345 -0.08847866 0.008405602 -0.07225085 -0.016432947 0.010257674 -0.032598775 0.10262892 0.022704067 0.053429097 -0.0053103617 0.023616001 -0.028853418 0.03545159 0.04252601 -0.046380356 -0.030774279 0.019149465 -0.14030081 -0.03488521 -0.020379594 0.021126576 -0.10170557 0.18751815 0.013539087 -0.05033531 -0.06705018 -0.1739515 0.11885796 0.018843751 -0.06009781 0.09590298 0.0215442 -0.072974294 -0.033279974 0.0064349105 -0.047674984 0.035258707 -0.14481217 -0.01536691 -0.12890872 -0.0792329 -0.06094905 0.09908265 0.07406378 -0.024404945 -0.06995262 0.025208006 -0.018041348 -0.081127085 0.042425692 -0.03204012 -0.0826982 -0.034482483 -0.08050026 0.06640311 -0.11022062
पंचतंत्र 0.07315651 -0.075512104 0.027295735 0.0759011 -0.051190708 0.089249924 -0.07887644 -0.1419774 0.12874104 0.094687 -0.064566776 -0.06367496 -0.0635 -0.19192055 0.092235975 0.05820869 0.0405081 0.18848662 0.07469284 -0.050615408 0.014125886 0.052809257 0.095143005 -0.00870065 -0.12148906 0.05280286 0.037491333 0.04944406 0.05358621 0.030577226 -0.024826532 -0.13487157 0.04492049 0.010667211 0.0723958 -0.040991437 -0.09326156 -0.029421292 -0.12329811 0.05625218 -0.045974847 0.10276003 -0.044947 -0.031366225 0.056667425 0.044919983 -0.066386886 0.008827609 -0.0005589211 0.0039827633 -0.08118055 -0.08924862 0.1569454 -0.09946167 0.16360874 -0.11615982 0.2093602 -0.036129884 -0.0866507 -0.004721333 -0.007461115 -0.06691525 0.012843915 -0.019293312 0.10988824 0.1095434 -0.05609446 -0.13201474 -0.06347214 -0.042277094 -0.19173522 0.089885235 0.06688712 0.011665999 -0.019751586 0.04249368 0.06852947 0.10746061 0.21337323 -0.01829278 0.067418374 0.022027185 -0.07401272 -0.10814442 0.021012636 0.02997182 0.02976187 0.10435743 -0.040675037 -0.043549135 0.015979841 -0.07768897 0.0056060315 -0.010418937 0.056032345 0.061194528 0.03582396 0.010906412 0.013759695 -0.012392841
शर्मा -0.028749438 0.05931323 0.09662578 0.04989024 0.1085411 0.14270115 -0.080555946 -0.036363266 0.10713389 0.032276977 0.04464895 0.14296085 0.049116913 0.060080897 0.018375557 -0.0019139887 0.07485127 0.08577193 -0.11527714 -0.017838083 0.061489962 0.01881374 0.09555091 -0.09313942 -0.040623948 -0.041532703 -0.021338046 0.09333362 0.049956143 0.03809734 -0.0538562 -0.101963684 -0.02531254 0.073366374 0.048810173 0.01908692 -0.08927066 -0.014184786 -0.016523741 -0.09786942 0.1442406 -0.06912029 -0.046176523 -0.08654826 -0.053289857 -0.10528143 -0.043517012 -0.1505343 -0.081431605 -0.05915327 -0.014537417 -0.07322888 0.12719904 0.04733694 0.07296878 0.00977439 0.0580023 0.015933994 -0.08502045 -0.037856918 -0.01762216 -0.05255561 0.025943868 -0.07606267 0.115687475 0.02202758 -0.030696932 0.03660666 -0.083049476 -0.11785095 -0.053340167 0.091249734 -0.06900404 0.07218106 0.019876499 -0.00025151856 -0.040383082 0.006371956 -0.009122604 0.11247573 0.0827615 0.10560442 0.0095674265 -0.059691854 -0.16098957 0.03386992 0.10066956 0.023314485 -0.021572981 -0.13167623 0.06440728 0.017902449 -0.021223566 0.0033341644 -0.05761953 -0.007501972 0.06416117 -0.12407559 0.069847085 0.036052655
जो 0.037027195 -0.10378331 -0.19632001 0.123376496 -0.11179268 -0.23155567 -0.104284264 0.044768944 0.05614373 -0.007319397 0.05686647 -0.10134967 0.03157336 0.011651446 -0.10319527 -0.025490897 -0.04598555 -0.019709216 -0.021300493 0.040545538 -0.09149053 0.02317326 -0.113333814 0.08900728 0.23604117 0.028999241 0.031030593 -0.08947733 0.026743827 -0.111238874 0.061511107 0.085542455 0.07355036 -0.027405096 0.00035101938 -0.0038032494 -0.08396408 0.03372871 -0.011964442 -0.019255757 -0.15441805 -0.03192391 -0.019525576 -0.011937393 0.029228387 0.10450813 -0.097524546 -0.080143675 0.001151854 0.12859993 0.036955204 0.040284835 -0.07988249 -0.007829284 -0.0578599 -0.031059574 -0.058252636 0.02877647 0.092813775 0.032165468 -0.07610707 0.018113935 0.093690924 0.105797574 0.037842788 0.027890446 0.09805652 0.107626155 0.05962221 0.09494239 0.14251666 -0.08051247 0.050928175 0.003944163 0.014687973 -0.1618793 0.021356499 0.0027982001 0.07241426 -0.004311519 0.047541995 -0.015900826 0.023960805 0.042764973 0.0057534142 0.03391214 0.033340517 -0.03835541 0.109598584 0.14044425 -0.0060472707 -0.06970023 0.02760066 0.031494785 0.0044621853 0.0007566086 -0.05577892 0.02008664 -0.11406591 -0.020884758
दे 0.06461452 0.15254699 0.09059163 0.03736197 -0.016917294 -0.02409101 -0.029170256 0.02109456 -0.08425724 -0.10128235 -0.17302124 0.19344419 -0.03292998 -0.019327566 -0.029683065 -0.06768692 0.054624867 -0.048466347 -0.041335944 -0.06057031 -0.012856672 -0.061950542 0.042552926 -0.0054491125 -0.13504899 0.03661244 0.08997111 0.041404273 -0.10063616 0.13854747 -0.002606635 0.051037338 -0.076171644 0.055030473 -0.06291042 0.05984865 -0.040146086 -0.05225935 -0.06435035 -0.1591454 -0.07679939 -0.022623016 -0.024916863 0.0030741936 -0.04246484 -0.12888208 -0.015882196 0.018059753 -0.0331372 -0.024523921 -0.15518372 -0.019930571 0.0150382705 -0.0017332366 -0.06319086 -0.065230094 0.024656229 -0.062525585 -0.17125387 -0.0011606081 0.07183877 0.012282866 -0.13230902 -0.0135349715 -0.06926518 0.018226406 0.023216538 0.033247117 -0.06602436 -0.008639932 -0.090697475 -0.03301333 -0.12763505 -0.09590489 -0.0013805948 0.008274503 -0.057577703 0.04689287 0.11052805 0.02299987 0.0442593 0.030118847 0.050214265 0.082356595 0.03401272 -0.096231975 0.06455071 0.014617713 0.00993515 0.018667312 -0.00780886 -0.003585174 -0.08770436 0.043218628 -0.021332763 0.07399636 -0.028238028 -0.07007326 -0.044152547 -0.052352782
हुई 0.070281796 0.03462701 -0.0077745263 0.15824533 -0.11257875 -0.041786112 0.017171724 0.03325696 -0.022708429 -0.06474323 -0.0703872 -0.07370067 -0.09587773 -0.06366476 0.097180195 0.056070074 -0.034378104 -0.15255341 0.06757162 -0.09601716 -0.012233077 -0.10589621 0.035393834 0.036846492 -0.016992906 0.1056818 0.074776545 0.049150307 -0.10494507 0.065396234 -0.16333517 -0.06388204 -0.001873746 -0.07443543 -0.073767 0.07045981 -0.08612645 -0.028833488 -0.09805248 -0.062348314 -0.05244969 0.014731418 0.07098171 -0.05102823 0.03512126 -0.10834338 -0.057266396 -0.079063796 -0.040642843 -0.044285025 0.00755251 -0.026248278 -0.084845334 0.12745608 -0.0723683 -0.06071494 0.03889468 0.10729654 0.020827033 0.050777134 -0.031160055 -0.10388706 -0.11323811 -0.13314334 -0.012944839 -0.0435526 0.07100695 -0.102901734 -0.026696915 0.08987011 -0.07469435 -0.021934725 0.0369031 -0.1442381 -0.17052867 0.018972203 0.051044438 -0.088995785 0.12137388 -0.12162687 -0.028306702 0.0045111272 0.15032257 0.047267944 0.15071 0.03509073 0.022576746 -0.14296809 -0.09505963 0.031051254 -0.042027775 -0.025827017 0.063149996 0.0355725 -0.074129954 0.07378243 0.10879264 -0.046508502 -0.054008454 -0.07845592
रात 0.0011702608 -0.119465485 -0.04964287 0.06523884 0.033757914 -0.076635614 0.07118567 0.022225583 -0.025806151 0.010008241 -0.07182462 -0.11776415 -0.0026343493 -0.029687729 0.083684325 0.005589584 -0.05949582 0.11153824 -0.016306488 0.022196155 -0.041951507 -0.0036662025 -0.005936158 -0.009221157 0.111579984 0.033512145 -0.0014944847 -0.008771724 0.00637964 -0.16526404 -0.06096118 -0.03482946 0.11816542 -0.06037868 0.07804858 -0.0045152516 -0.053667214 -0.040951118 0.057258468 0.061753638 -0.08412973 -0.037791144 0.06350368 -0.033720877 0.10642892 0.038910206 -0.04914659 0.028959349 0.047560673 -0.04717756 -0.025610529 0.0027986553 -0.026469892 -0.093742855 0.049692903 0.034210816 0.04423017 -0.12378157 -0.020645447 0.15526849 0.09908785 -0.0055187223 0.004784896 -0.03390643 -0.010127342 0.018245295 0.044697948 -0.007892261 -0.11927541 0.04386458 0.04816258 0.118880145 -0.10252456 0.010364423 0.09158575 0.043089807 0.06845679 -0.019714974 0.023625534 0.14458634 -0.038794488 -0.12642078 -0.03240165 -0.035341434 -0.049397748 -0.018436782 0.07635463 -0.03674875 -0.041886915 0.06548246 0.02783222 -0.0804452 -0.015771078 0.058515906 -0.027127212 -0.10769818 -0.0009629663 0.031054595 0.0042786784 0.029982228
